output_idx,weights
0,"[0.02759500965476036, 0.028013871982693672, 0.03014868125319481, 0.006650096736848354, 0.039569318294525146, 0.014100358821451664, 0.0020803376100957394, -0.02354368008673191, 0.020265676081180573, 0.0035270557273179293, 0.0021216359455138445, 0.023633195087313652, 0.04038691520690918, -0.007958811707794666, 0.03982984274625778, -0.022891951724886894, -0.011686300858855247, 0.00043715760693885386, -0.003187943948432803, -0.014241497963666916, 0.000881674699485302, 0.03593306615948677, 0.03532489016652107, -0.009749500080943108, 0.03864867240190506, 0.03118615597486496, -0.01800313964486122, -0.028565721586346626, -0.01621517352759838, -0.014626557938754559, 0.0016930412966758013, -0.02297750487923622, 0.007265052758157253, 0.01398640125989914, 0.02069883607327938, 0.027274811640381813, 0.005179650615900755, -0.019677208736538887, 0.0002803830720949918, 0.030142012983560562, -0.0012868106132373214, -0.03012847900390625, -0.029472272843122482, -0.002013296587392688, -0.017028698697686195, 0.0056984685361385345, 0.017028549686074257, -0.025447476655244827, -0.0006270114099606872, -0.014485909603536129, 0.00865980889648199, 0.03154397010803223, -0.00073559011798352, -0.024858202785253525, -0.025797825306653976, 0.010736165568232536, 0.01689905673265457, -0.009260719642043114, -0.013474391773343086, 0.03465089946985245, -0.01821541227400303, -0.02432718500494957, 0.008015457540750504, 0.03337034955620766, -0.0005938317044638097, -0.01808706298470497, -0.009738110937178135, -0.05098380148410797, -0.0055516380816698074, 0.009636694565415382, -0.05045800283551216, -0.015816712751984596, -0.04481961950659752, -0.003442631335929036, 0.02089940570294857, -0.018336066976189613, -0.0332271046936512, -0.01171838492155075, -0.02808607742190361, 0.02428426407277584, 0.02000286802649498, 0.014287538826465607, 0.02855493128299713, 0.039839714765548706, -0.01319932285696268, -0.007774977013468742, 0.008992595598101616, 0.00572737492620945, -0.011558148078620434, 0.010010437108576298, -0.03517799824476242, 0.01490342803299427, -0.03451898694038391, -0.03983064368367195, 0.0057504912838339806, -0.027598774060606956, -0.01031406782567501, -0.10378037393093109, -0.08954160660505295, -0.06982716917991638, -0.03694162145256996, 0.017620166763663292, 0.03542662039399147, 0.06234100088477135, 0.07676057517528534, 0.05098354443907738, -0.020115554332733154, -0.00564687279984355, 0.019393611699342728, 0.04736540466547012, -0.00584222050383687, 0.02910124510526657, -0.003388430457562208, -0.015528086572885513, 0.024784328415989876, -0.010892837308347225, 0.003441946115344763, 0.033061373978853226, -0.02970912866294384, -0.04147135093808174, -0.08122947067022324, -0.0684855580329895, -0.07757780700922012, -0.09401725977659225, -0.09945623576641083, -0.09482551366090775, -0.1472252458333969, -0.04165637865662575, -0.0245295949280262, 0.07834203541278839, 0.024050435051321983, 0.018166745081543922, 0.022565748542547226, 0.0026688992511481047, 0.012109647504985332, 0.028567388653755188, 0.02607712522149086, 0.010292595252394676, -0.008162388578057289, -0.02053600363433361, 0.0036793106701225042, 0.006185393780469894, -0.02963419258594513, 0.03138735890388489, 0.019747737795114517, 0.012836429290473461, -0.024037089198827744, -0.11308775097131729, -0.054497309029102325, 0.005759545601904392, -0.014459874480962753, -0.01707441918551922, 0.036426883190870285, -0.021721964702010155, -0.07389486581087112, -0.07825427502393723, -0.07637906074523926, -0.024141788482666016, -0.16362066566944122, -0.10378269851207733, -0.05061577260494232, -0.07273563742637634, -0.01879824511706829, -0.05304138734936714, -0.036084070801734924, -0.038334012031555176, -0.029675602912902832, -0.030766427516937256, 0.029939822852611542, 0.002850328804925084, -0.001304557896219194, -0.009031801484525204, -0.012270018458366394, -0.045552294701337814, -0.06667476147413254, -0.1148059070110321, -0.06478701531887054, -0.03328997269272804, 0.010588469915091991, -0.018559535965323448, -0.0029404503293335438, 0.006085740402340889, -0.04823818802833557, -0.06980311125516891, -0.09367705136537552, -0.06948785483837128, -0.029855981469154358, -0.045727066695690155, 0.0041604251600801945, -0.039463020861148834, 0.01603098213672638, -0.013883199542760849, 0.011244677007198334, -0.019842954352498055, 0.04808952286839485, 0.022748079150915146, 0.019532879814505577, -0.005575098097324371, 0.03433220088481903, 0.014903884381055832, -0.04388568177819252, -0.08573433011770248, -0.0412193164229393, -0.10439365357160568, -0.005227265413850546, 0.045660946518182755, 0.1068401113152504, 0.007606654427945614, 0.09218898415565491, 0.03997737914323807, 0.014160871505737305, 0.03438413515686989, 0.03388945758342743, 0.08725755661725998, 0.01907270960509777, 0.017491864040493965, 0.005258750636130571, -0.02555934153497219, -0.018905961886048317, 0.042851563543081284, -0.009677998721599579, 0.025786157697439194, 0.03624540939927101, 0.02765073999762535, 0.010067733936011791, 0.028954245150089264, 0.0126014593988657, -0.011346625164151192, -0.04800783842802048, -0.054634030908346176, -0.007407885044813156, -0.059450916945934296, 0.0030455617234110832, 0.04561298340559006, -0.024688761681318283, 0.031175294890999794, 0.09820707887411118, 0.020298102870583534, 0.05146704241633415, 0.09099165350198746, 0.18631118535995483, 0.10869699716567993, 0.10042012482881546, 0.011665638536214828, 0.0742056593298912, 0.0501997247338295, 0.006634128279983997, 0.010095663368701935, 0.06268175691366196, 0.07809283584356308, 0.021345779299736023, 0.015349981375038624, 0.00834395457059145, 0.026352984830737114, 0.008612122386693954, -0.034536123275756836, 0.0006721250829286873, -0.0325668528676033, 0.005666406359523535, -0.031672537326812744, 0.01063705887645483, 0.016134798526763916, 0.030902530997991562, 0.014785817824304104, 0.007012118585407734, -0.029396984726190567, -0.03228406980633736, 0.04695122316479683, 0.15319545567035675, 0.13996769487857819, 0.10896624624729156, 0.09452702105045319, 0.07133354991674423, 0.030961988493800163, 0.014108879491686821, -0.016120919957756996, 0.03101094253361225, 0.022720223292708397, 0.01635878160595894, 0.03308751806616783, -0.017191682010889053, 0.011588700115680695, -0.021110985428094864, -0.016964919865131378, 0.00020199774007778615, -0.05886053666472435, -0.023441314697265625, -0.03224153071641922, 0.027004733681678772, 0.06901093572378159, 0.08846370875835419, 0.05765523761510849, 0.030022963881492615, -0.01956266537308693, -0.05325871333479881, -0.003924854565411806, 0.10449075698852539, 0.01872563175857067, 0.002274483209475875, 0.053533464670181274, 0.007535629440099001, -0.029078010469675064, 0.011272836476564407, -0.0006004874012432992, 0.09071636199951172, 0.06407550722360611, 0.0014564392622560263, -0.024711497128009796, -0.020996330305933952, 0.0005207202630117536, 0.010406475514173508, 0.02501668781042099, -0.024056201800704002, 0.0025704640429466963, -0.020417779684066772, -0.015060190111398697, 0.05336398258805275, 0.04333490505814552, 0.030620479956269264, 0.12319566309452057, 0.04696134105324745, -0.09105296432971954, -0.11321882158517838, 0.05171646177768707, 0.07096771150827408, -0.012247997336089611, -0.026737408712506294, -0.10500209778547287, -0.13447120785713196, -0.008838880807161331, 0.05293415114283562, 0.007994703017175198, 0.05407595634460449, 0.05934237688779831, -0.007536193821579218, -0.0018205796368420124, -0.005850061308592558, 0.006467591505497694, -0.009522614069283009, 0.043271925300359726, 0.008560582995414734, 0.006623579654842615, 0.009516478516161442, 0.07281309366226196, 0.08780424296855927, 0.04040009528398514, 0.10281017422676086, 0.06311909854412079, -0.035827409476041794, -0.04704099893569946, -0.11612262576818466, 0.06016995385289192, -0.02743181586265564, -0.02946287766098976, 0.015615102834999561, -0.060421690344810486, -0.04223198443651199, -0.06955229490995407, -0.04179515317082405, 1.7021420717355795e-05, -0.0033794150222092867, 0.0015617231838405132, 0.012174863368272781, -0.028889674693346024, 0.012054789811372757, -0.0022435621358454227, 0.013761217705905437, 0.053303010761737823, 0.06341151893138885, 0.024729149416089058, 0.004541907459497452, 0.08288487792015076, 0.03803415596485138, 0.0077810040675103664, 0.11072853207588196, 0.025038406252861023, 0.05149978771805763, -0.0216504018753767, -0.05951772630214691, 0.03502276539802551, 0.030496401712298393, -0.023035889491438866, -0.05828361585736275, -0.04667524993419647, 0.07740164548158646, -0.050771765410900116, -0.03170107305049896, -0.03443256765604019, -0.04854893311858177, 0.008041640743613243, -0.0006325003923848271, 0.023613398894667625, 0.03455560281872749, -0.028651343658566475, -0.0031546319369226694, -0.0046922299079597, 0.05741022527217865, 0.014255447313189507, -0.007798066828399897, 0.03740275278687477, 0.049585141241550446, 0.022411996498703957, 0.03932996094226837, -0.01740994304418564, -0.0012957159196957946, -0.10504908859729767, -0.08191946893930435, 0.0010326738702133298, 0.04033990949392319, 0.05837607756257057, 0.10824283212423325, 0.06110556051135063, 0.012961938045918941, -0.10299291461706161, -0.07270878553390503, -0.04039330407977104, -0.04570014402270317, -0.06960566341876984, 0.021166328340768814, 0.03137359023094177, -0.026213057339191437, -0.01335199549794197, 0.026429222896695137, 0.0244744960218668, 0.05696792155504227, 0.09933067113161087, 0.09033222496509552, 0.07649676501750946, 0.16293708980083466, 0.08614179491996765, 0.08366043120622635, 0.05105277895927429, 0.007045962382107973, -0.1392362117767334, -0.1659999042749405, -0.030166249722242355, -0.003077047411352396, 0.1452666074037552, 0.07823120057582855, -0.023910215124487877, -0.05990976095199585, -0.029498688876628876, -0.037906523793935776, -0.014767560176551342, -0.05038681626319885, -0.05023433640599251, 0.0202462337911129, 0.022693036124110222, 0.019051529467105865, 0.005397859960794449, -0.029996724799275398, -0.02047800086438656, -0.017794614657759666, 0.02258991450071335, -0.000368681998224929, -0.01632687821984291, 0.07570648938417435, 0.10248872637748718, 0.10485684126615524, 0.10155761241912842, 0.060624998062849045, -0.05770747363567352, -0.18872572481632233, -0.06080581620335579, -0.03210180625319481, 0.04566693305969238, 0.06001985818147659, -0.0583321712911129, -0.01666279323399067, -0.0837482213973999, -0.08213046193122864, -0.045036401599645615, -0.014712112955749035, -0.02733178623020649, -0.041483502835035324, 0.0008598165004514158, 0.018780767917633057, 0.01759539544582367, -0.030701525509357452, -0.0039844573475420475, -0.03651300445199013, 0.017493514344096184, -0.017345163971185684, 0.06064734607934952, 0.06455085426568985, 0.14233943819999695, 0.14608223736286163, 0.09066753834486008, 0.019235476851463318, -0.06609579920768738, -0.0494094155728817, 0.04793953895568848, 0.06154562160372734, 0.08869802206754684, -0.01750618778169155, -0.05878788232803345, -0.021506663411855698, -0.12391148507595062, -0.07216838002204895, -0.03422364965081215, -0.017099034041166306, -0.04891938716173172, -0.0021384067367762327, -0.02556496299803257, 0.03646903112530708, 0.018410705029964447, 0.03306771442294121, -0.05943462625145912, -0.06204505264759064, -0.04400681331753731, -0.04954974353313446, 0.02292560786008835, 0.006754792761057615, 0.013947870582342148, 0.02745080552995205, 0.10641743987798691, -0.0059044514782726765, -0.07391224056482315, 0.03477320447564125, 0.0064507280476391315, 0.03801627457141876, 0.03155441954731941, -0.09983331710100174, -0.0945671945810318, 0.007493012584745884, -0.13239236176013947, -0.07868565618991852, -0.06263881921768188, -0.07212062180042267, -0.04193728044629097, 0.006460805423557758, 0.02584453858435154, -0.014868768863379955, 0.025251327082514763, -4.0643964894115925e-05, -0.03451831266283989, -0.07962696254253387, -0.08303763717412949, -0.11089389026165009, -0.025526683777570724, -0.04057662561535835, -0.06373331695795059, -0.08935347944498062, -0.018526477739214897, 0.018060101196169853, -0.03815970942378044, 0.04077053815126419, 0.055606573820114136, 0.0449063703417778, 0.019535807892680168, 0.005701764021068811, -0.010774815455079079, -0.057024676352739334, -0.11139588803052902, -0.1198461577296257, -0.03235169127583504, -0.05025223270058632, 0.010835648514330387, -0.027919264510273933, 0.018351461738348007, 0.024541286751627922, 0.021153265610337257, -0.005518759600818157, -0.0483219288289547, -0.08233419060707092, -0.10481847077608109, -0.09721704572439194, -0.0528545007109642, -0.04539638012647629, -0.028648830950260162, -0.1243482306599617, -0.15250688791275024, -0.027019977569580078, 0.034880753606557846, 0.03177407756447792, 0.017119545489549637, 0.07165173441171646, 0.06834983080625534, 0.026609070599079132, 0.05657114461064339, -0.0945541262626648, -0.058867476880550385, -0.1103995069861412, 0.0032980397809296846, 0.050081461668014526, 0.004339880775660276, -0.032264817506074905, 0.034838028252124786, 0.028163794428110123, 0.022218404337763786, -0.031154166907072067, -0.0018145187059417367, -0.047606006264686584, -0.09540998935699463, -0.07401487976312637, -0.0038105975836515427, -0.06610342115163803, -0.05960485339164734, -0.1203589141368866, -0.13975456357002258, -0.057362284511327744, -0.10218246281147003, -0.001766128814779222, 0.025075316429138184, -0.014530837535858154, -0.0004281145811546594, 0.01131828036159277, 0.00957552995532751, -0.055960435420274734, -0.05623320862650871, -0.01018353272229433, 0.025922836735844612, 0.0580604150891304, 0.024038681760430336, -0.01995697058737278, 0.004458875395357609, -0.005129317753016949, 0.038483209908008575, -0.018590692430734634, 0.020058676600456238, -0.053337644785642624, -0.047442901879549026, -0.06955841928720474, -0.06910025328397751, -0.031148456037044525, -0.051777251064777374, -0.017144234851002693, -0.028616826981306076, -0.06174756586551666, -0.05564696341753006, 0.03626740351319313, -0.07993616908788681, -0.0161002017557621, 0.018683217465877533, -0.00642324797809124, -0.07388979941606522, -0.05365891754627228, -0.04548699036240578, -0.02377389185130596, 0.04468965902924538, 0.054669011384248734, 0.04337576404213905, 0.003371757222339511, 0.013953542336821556, -0.007084140554070473, 0.03830288350582123, -0.02564995549619198, -0.01703667640686035, -0.020005036145448685, 0.004763907287269831, -0.02649967186152935, -0.008579792454838753, -0.015346402302384377, -0.06037905439734459, 0.04391006380319595, 0.020432248711586, 0.016619745641946793, -0.055809296667575836, 0.0015925908228382468, 0.0026550537440925837, 0.050789423286914825, -0.03131119906902313, -0.07204592227935791, -0.001549921347759664, -0.021241845563054085, 0.008268697187304497, 0.0028363633900880814, 0.07080970704555511, 0.019408350810408592, 0.03356263414025307, -0.002045717788860202, -0.006590691860765219, 0.03627166152000427, 0.01834309659898281, -0.014102480374276638, 0.03446628898382187, -0.003571786917746067, 0.019085707142949104, -0.01554892398416996, 0.04191174730658531, -0.002658757148310542, -0.00042249535908922553, 0.006738828029483557, -0.0037119132466614246, 0.02956278622150421, 0.06462027132511139, 0.025868121534585953, 0.04001094400882721, 0.06049443036317825, -0.013861202634871006, -0.05626252666115761, 0.010308470577001572, 0.00647391052916646, 0.032202523201704025, 0.06695381551980972, 0.025449663400650024, 0.03102642484009266, -0.014264959841966629, 0.029117465019226074, 0.009739764034748077, 0.029628876596689224, 0.010440276935696602, 0.03013606369495392, -0.0035169387701898813, -0.0012894136598333716, 0.03579377755522728, -0.047702059149742126, -0.036436181515455246, -0.014972472563385963, 0.024165451526641846, 0.03881864622235298, 0.0617857426404953, 0.03510977327823639, 0.07723412662744522, 0.02601071260869503, -0.01438925601541996, 0.08933106809854507, 0.033359039574861526, 0.023164521902799606, 0.05752130597829819, 0.008999628014862537, 0.03177249804139137, 0.03228696435689926, 0.030543452128767967, 0.0269415695220232, -0.02648640237748623, 0.03867905214428902, -0.02050037682056427, -0.013093747198581696, 0.027233315631747246, 0.027076376602053642, -0.02548081986606121, 0.043086737394332886, 0.035247158259153366, 0.056825120002031326, -0.01110637467354536, -0.016861574724316597, 0.04426665976643562, 0.014972495846450329, 0.05943506211042404, 0.04621707648038864, 0.06203043460845947, 0.08171899616718292, 0.05785205215215683, 0.06353654712438583, 0.025092685595154762, 0.03546261787414551, 0.0025044253561645746, 0.03603171929717064, 0.05690894275903702, 0.04073217138648033, 0.003973407205194235, 0.023175569251179695, 0.017245978116989136, 0.01398504339158535, -0.02953195385634899, 0.03459664061665535, -0.013962415046989918, 0.0001449792180210352, 0.024690935388207436, 0.013937393203377724, -0.020518111065030098, 0.04061460867524147, 0.04203059896826744, 0.003999802749603987, 0.018070168793201447, -0.013964924961328506, 0.04296433925628662, 0.02476850524544716, -0.010490075685083866, 0.005347898695617914, -0.006870928220450878, 0.012074040248990059, 0.02880394645035267, -0.005044323392212391, 0.037974823266267776, 0.044848792254924774, 0.008948156610131264, -0.012784686870872974, 0.03477577120065689, -0.01951099932193756, -0.008597882464528084, 0.017495708540081978, -0.001154810655862093]"
1,"[-0.008477341383695602, -0.014246046543121338, -0.0014253543922677636, -0.023892030119895935, -0.0019141372758895159, -0.03702543303370476, -0.03414228931069374, -0.03810696303844452, -0.029952503740787506, -0.03324428200721741, 0.0022187542635947466, -0.03909473493695259, -0.03018694557249546, -0.015601139515638351, 0.0198510829359293, -0.006250761449337006, -0.038804348558187485, -0.01432841643691063, 0.026695651933550835, -0.015061384066939354, -0.02674676477909088, 0.008996086195111275, 0.012718534097075462, -0.03408738598227501, -0.00850638933479786, 0.019482361152768135, -0.01829155720770359, -0.005378473084419966, -0.031324613839387894, 0.00014969137555453926, 0.02377745695412159, 0.007409326266497374, -0.009530932642519474, 0.021511349827051163, -0.00615654606372118, 0.00558103434741497, 0.024758046492934227, -0.01740351691842079, -0.016794821247458458, 0.006557605694979429, 0.028346452862024307, -0.027956044301390648, 0.00993047934025526, -0.0275079645216465, 0.009430821053683758, -0.014349355362355709, 0.0125834159553051, 0.005416932050138712, -0.030528025701642036, -0.030490608885884285, -0.038080405443906784, 0.024178311228752136, -0.01023072749376297, 0.007935956120491028, -0.015416071750223637, -0.002714589238166809, -0.011612695641815662, 0.016094356775283813, -0.00400341022759676, -0.005765157286077738, 0.007149937562644482, -0.020278718322515488, 0.005131370387971401, -0.02687583863735199, -0.03663980960845947, -0.0028840191662311554, 0.017528284341096878, -0.009759163483977318, -0.03685440495610237, 0.013254402205348015, 0.013471771031618118, -0.015500717796385288, -0.03918677195906639, -0.006821713410317898, 0.018628859892487526, -0.019850492477416992, -0.035356491804122925, -0.01825731061398983, -0.025505878031253815, -0.001914540072903037, -0.0371534489095211, -0.0009239658247679472, -0.020038997754454613, -0.02238800749182701, 0.020542532205581665, -0.01575503870844841, -0.04247678071260452, -0.018771808594465256, -0.03628747910261154, -0.034977272152900696, -0.013248956762254238, 0.01734129525721073, 0.018327191472053528, 0.004061796236783266, 0.007697817403823137, -0.03315804898738861, -0.017936227843165398, -0.009081712923943996, -0.045434217900037766, -0.02116229385137558, 0.00800999253988266, -0.056784484535455704, -0.033384501934051514, 0.003454636549577117, 0.022024178877472878, 0.020943930372595787, -0.004502604715526104, -0.0027129161171615124, 0.0033848152961581945, -0.003261110745370388, -0.0007919089403003454, 0.014072179794311523, -0.010530666448175907, -0.00046573186409659684, 0.016145657747983932, -0.03620438650250435, -0.015454364009201527, 0.021303310990333557, -0.025422582402825356, 0.002291671233251691, 0.00755222188308835, -0.008037812076508999, 0.00944279134273529, 0.027687689289450645, 0.03567160665988922, -0.035969655960798264, 0.044327057898044586, -0.022370344027876854, -0.022112341597676277, -0.0029575638473033905, 0.012943482026457787, 0.023723799735307693, 0.004912585485726595, 0.01449461467564106, -0.02320978417992592, 0.04275551438331604, 0.017874712124466896, 0.028666015714406967, 0.022108914330601692, -0.010365883819758892, 0.002041781088337302, -0.021775515750050545, 0.02067253552377224, -0.026660118252038956, 0.023073866963386536, 0.011911720968782902, 0.0020237755961716175, -0.005553530529141426, -0.02198258973658085, 0.019441233947873116, 0.031363729387521744, 0.044311072677373886, 0.019235974177718163, 0.002744048833847046, 0.01642969436943531, -0.05755053460597992, -0.018079975619912148, -0.000726242724340409, -0.01766517013311386, 0.021617276594042778, 0.012844364158809185, -0.024302363395690918, 0.0036818378139287233, -0.0002321124920854345, 0.021577024832367897, 0.027740566059947014, 0.016095073893666267, -0.030433179810643196, -0.010021734982728958, -0.009991524741053581, 0.026944849640130997, -0.03453356400132179, 0.008699558675289154, 0.017413564026355743, 0.01272168941795826, 0.022189538925886154, 0.005744253750890493, 0.046275097876787186, 0.017851894721388817, 0.049849510192871094, 0.018003912642598152, -0.002951120026409626, -0.0034869187511503696, 0.0026177368126809597, 0.03124990686774254, 0.00678618997335434, -0.0021075226832181215, 0.01766192726790905, -0.011875898577272892, -0.08364693075418472, 0.00643864506855607, -0.03563309833407402, -0.032465074211359024, 0.02034609019756317, 0.0036016760859638453, 0.02638322487473488, -0.03336912766098976, 0.0025664970744401217, 0.018987208604812622, 0.011703561060130596, 0.008602529764175415, 0.009935693815350533, -0.03421952575445175, -0.03489130362868309, 0.045613180845975876, 0.019029555842280388, 0.06352274864912033, 0.07646699994802475, 0.06392555683851242, 0.06109746918082237, -0.011430926620960236, 0.03578142821788788, 0.0017822184599936008, -0.023832904174923897, 0.026074569672346115, -0.006383104715496302, -0.0061393557116389275, 0.02464192546904087, -0.016243869438767433, -0.022651677951216698, -0.022524181753396988, -0.026587631553411484, -0.030247990041971207, -0.013948042877018452, -0.014142236672341824, -0.027055811136960983, -0.008302487432956696, -0.03988942876458168, 0.00947759859263897, 0.018476322293281555, -0.019359607249498367, 0.019701607525348663, 0.004992262460291386, 0.013709146529436111, 0.039391614496707916, 0.08176293224096298, 0.023248830810189247, 0.05211441591382027, 0.03127435967326164, -0.026793954893946648, -0.01971719041466713, -0.008117296732962132, -0.030279871076345444, -0.012788218446075916, -0.04905925318598747, -0.045532699674367905, -0.0010483324294909835, 0.03140843287110329, -0.004902721382677555, -0.00788311380892992, 0.025584271177649498, -0.018395770341157913, -0.027549924328923225, -0.02581542544066906, -0.028215177357196808, 9.103901538765058e-05, -0.02477974258363247, -0.031802285462617874, -0.006739847362041473, 0.022295912727713585, -7.251501665450633e-05, 0.04813426733016968, 0.008740137331187725, 0.06219983100891113, 0.007964106276631355, 0.05768181011080742, -0.018048742786049843, 0.03523016348481178, -0.004655883181840181, -0.01175400335341692, -0.06078394502401352, -0.07467947155237198, -0.10008077323436737, -0.061655137687921524, -0.02973295748233795, 0.008069636300206184, 0.014631206169724464, 0.018733426928520203, -0.029961837455630302, 5.306643288349733e-05, 0.0001483570522395894, -0.038354795426130295, -0.013996604830026627, -0.03986093029379845, -0.012399017810821533, 0.026726089417934418, 0.03277458995580673, 0.03903581202030182, 0.009098353795707226, 0.02366306073963642, 0.013257506303489208, -0.004802050068974495, 0.0760674923658371, 0.0026367458049207926, 0.037275828421115875, -0.02227201499044895, -0.011693899519741535, -0.024042174220085144, -0.021781673654913902, -0.03818771243095398, -0.11959874629974365, -0.007569844368845224, -0.014802403748035431, -0.00531034916639328, 0.023733796551823616, 0.04396860674023628, -0.027229953557252884, -0.005590350832790136, 0.026929261162877083, 0.001196370110847056, -0.03605140000581741, -0.001973580801859498, -0.017553308978676796, -0.030632441863417625, -0.01603318564593792, 0.003515198128297925, -0.003438586136326194, 0.017940150573849678, 0.00038945910637266934, 0.03906333073973656, 0.05760440602898598, -0.03761667385697365, -0.009228968992829323, -0.025467609986662865, 0.051285140216350555, 0.006152454297989607, -0.01001740526407957, -0.071592777967453, -0.11433801800012589, -0.04197980836033821, -0.020146548748016357, 0.0002958950644824654, 0.02207965776324272, -0.006366966292262077, -0.014825437217950821, 0.008917192928493023, -0.018832143396139145, 0.005857076030224562, 0.005441474262624979, -0.04234299436211586, -0.019932083785533905, -0.054110683500766754, -0.023646116256713867, -0.016348641365766525, -0.045878246426582336, -0.03003517910838127, -0.016858620569109917, 0.02526138909161091, 0.013676634058356285, 0.040551066398620605, 0.016505829989910126, 0.013503126800060272, 0.03169916197657585, 0.037359822541475296, -0.05030526593327522, -0.004561731591820717, 0.0018257397459819913, -0.01989431120455265, -0.010488423518836498, -0.03877760097384453, -0.03163191303610802, 0.00719888461753726, -0.010678349994122982, 0.0019744266755878925, -0.003059632144868374, 0.012977349571883678, -0.0400499664247036, -0.03510397672653198, -0.03131682425737381, -0.07354524731636047, -0.04068010672926903, -0.046810828149318695, -0.03085748478770256, 0.019027216359972954, -0.025097530335187912, 0.03775298222899437, 0.009130124002695084, 0.01431210432201624, 0.014993423596024513, 0.07788332551717758, 0.05428474396467209, 0.018547022715210915, -0.017736028879880905, -0.04673842340707779, 0.027469342574477196, 0.013246728107333183, -0.03891408443450928, -0.004726814106106758, -0.048382263630628586, 0.00013222599227447063, 0.0005907097365707159, -0.012051946483552456, 0.0006738811498507857, -0.04165423661470413, -0.0025956681929528713, 0.011955242604017258, -0.00791989266872406, -0.04132320359349251, -0.06245821341872215, -0.027487343177199364, -0.0627349466085434, -0.005575322546064854, 0.046407535672187805, -0.0021808436140418053, 0.023612605407834053, 0.0508289560675621, 0.0491580106317997, 0.029946450144052505, 0.02282623201608658, -0.02439010702073574, 0.003964057192206383, -0.029307221993803978, -0.029735464602708817, 0.024006256833672523, -0.03845703601837158, -0.05764934793114662, -0.024480292573571205, -0.009449726901948452, -0.00847415067255497, -0.027949130162596703, -0.026061680167913437, 0.012190913781523705, -0.02403503656387329, 0.015572790056467056, -0.016550349071621895, -0.08528315275907516, -0.04230932146310806, -0.048476435244083405, 0.02304890565574169, -0.018767813220620155, 0.014587723650038242, 0.011222846806049347, -0.018846217542886734, 0.04182906076312065, 0.03922678902745247, -0.04159516096115112, 0.06884358078241348, -0.035596542060375214, -0.03870036080479622, -0.022083617746829987, -0.02848242036998272, -0.02856075018644333, 0.002520699054002762, -0.027473002672195435, -0.02851071208715439, 0.025040926411747932, 0.0013022283092141151, -0.035198647528886795, -0.015189746394753456, 0.0038519995287060738, -0.011733819730579853, -0.015229985117912292, 0.0016583172837272286, -0.020792324095964432, -0.025282511487603188, -0.059441350400447845, -0.03586074709892273, 0.03952570632100105, 0.06121319904923439, 0.054580021649599075, 0.0002842141839209944, 0.05089564993977547, -0.020393865182995796, -0.02074582688510418, 0.02477172203361988, -0.08879661560058594, -0.07382426410913467, -0.04397823289036751, -0.041664451360702515, 0.0013010547263547778, -0.02482968010008335, 0.04334329441189766, -0.021437445655465126, 0.03557489067316055, -0.010971554554998875, -0.019312357529997826, 0.021220913156867027, -0.002765650860965252, 0.02530486136674881, 0.021942870691418648, -0.024914855137467384, 0.014872518368065357, 0.034773021936416626, -0.0349254384636879, -0.0403277762234211, 0.01410925853997469, 0.008244846016168594, 0.05766601860523224, -0.011189007200300694, 0.016053473576903343, -0.025455797091126442, 0.010902943089604378, 0.0020124856382608414, -0.07967852056026459, -0.013815851882100105, -0.020228613168001175, -0.030065877363085747, 0.008924636989831924, -0.013766770251095295, 0.014098784886300564, -0.006160659249871969, -0.0001228568871738389, -0.03659291937947273, 0.02826247364282608, -0.039383064955472946, -0.01414068229496479, 0.016280055046081543, -0.033762697130441666, 0.0021361475810408592, -0.033296193927526474, 0.04281168431043625, -0.015056603588163853, -0.0034643150866031647, -0.027277104556560516, 0.03055284172296524, -0.008995922282338142, 0.02569911628961563, 0.004115831572562456, 0.015235409140586853, -0.04263300821185112, -0.043242741376161575, -0.08183657377958298, -0.05394219607114792, 0.008845019154250622, 0.012765760533511639, -0.04774295538663864, -0.019070344045758247, 0.03757345676422119, 0.021311642602086067, 0.005044929217547178, 0.02406311221420765, -0.03733403608202934, -0.03979015722870827, -0.026769541203975677, -0.010839437134563923, 0.012643908150494099, -0.03387315571308136, -0.0022620242089033127, 0.0044498136267066, -0.017550822347402573, 0.04500708729028702, 0.0508694052696228, -0.01259591244161129, -0.03843225911259651, -0.05540430173277855, -0.02832493931055069, -0.007373115047812462, -0.03797141835093498, -0.06477722525596619, -0.019615042954683304, -0.051812171936035156, -0.05538729950785637, -0.018953094258904457, 0.03578287735581398, 0.02641243487596512, 0.04340799152851105, 0.03283311054110527, -0.03538614884018898, -0.02277345024049282, 0.017022036015987396, 0.0015804279828444123, 0.01964705064892769, -0.014237670227885246, 0.0034462325274944305, -0.045865919440984726, -0.02319532260298729, 0.006230946164578199, -0.023967530578374863, 0.05121834576129913, 0.03207233175635338, 0.05054726451635361, 0.005983162671327591, -0.013424979522824287, 0.007066076155751944, 0.01890326850116253, 0.06636660546064377, 0.0023352440912276506, -0.024156946688890457, -0.014256574213504791, 0.002032531425356865, -0.023074990138411522, -0.023267541080713272, 0.05282096937298775, 0.013262529857456684, -0.0015812520869076252, -0.014658970758318901, 0.005199589766561985, 0.010688254609704018, -0.0025845905765891075, -0.029665164649486542, -0.038647934794425964, -0.018802177160978317, -0.020529085770249367, -0.03748205676674843, 0.002817478496581316, 0.06336972117424011, 0.0020235206466168165, 0.07245490700006485, 0.0044511547312140465, 0.03184119984507561, 0.0062993415631353855, -0.006725808139890432, 0.038545675575733185, 0.010341840796172619, -0.067548967897892, -0.006459081545472145, -0.028248624876141548, -0.019778650254011154, -0.020325077697634697, 0.029578736051917076, 0.04616279900074005, -0.004384866449981928, 0.011487028561532497, 0.03573542833328247, -0.030903711915016174, -0.03766029328107834, -0.03432059288024902, -0.005629098508507013, -0.029531337320804596, -0.017741000279784203, -0.023923464119434357, -0.006353835575282574, -0.037039268761873245, 0.0334274061024189, 0.03718305006623268, 0.014483148232102394, 0.025823350995779037, 0.06488043069839478, -0.02590184099972248, 0.03284435346722603, -0.018291767686605453, -0.045938890427351, -0.03303951397538185, 0.0019606431014835835, -0.04219045117497444, -0.01810207962989807, 0.02528737299144268, -0.000753678847104311, -0.013639109209179878, 0.049037009477615356, -0.008047487586736679, -0.03320850059390068, -0.010025986470282078, 0.015451479703187943, 0.013447863049805164, -0.009054113179445267, -0.040792547166347504, 0.009086585603654385, 0.032572612166404724, 0.014610523357987404, -0.015143066644668579, -0.037794291973114014, 0.007210793439298868, 0.036467138677835464, 0.0027210814878344536, -0.004992132540792227, 0.010056914761662483, -0.03469651937484741, -0.03281591087579727, 0.0012644164962694049, -0.011767353862524033, -0.057143814861774445, 0.0018711137818172574, 0.023285986855626106, 0.0016859557945281267, 0.03445148468017578, 0.015785083174705505, 0.004700995050370693, 0.029850130900740623, -0.02824333682656288, 0.015877261757850647, 0.021508531644940376, 0.02484612725675106, 0.019295010715723038, 0.02760148234665394, 0.001667650300078094, -0.03890032321214676, -0.01666409708559513, -0.009334543719887733, -0.02805452048778534, -0.04174760356545448, 0.03177166357636452, -0.04259496554732323, 0.022999873384833336, 0.020020704716444016, -0.024560220539569855, 0.010766193270683289, 0.007726265583187342, -0.043872252106666565, -0.0626092255115509, 0.048952724784612656, 0.011944366618990898, -0.015951061621308327, -0.03192904591560364, -0.03351377695798874, -0.03672799840569496, 0.015242223627865314, -0.030819375067949295, -0.006473064888268709, 0.014088805764913559, -0.018622299656271935, -0.024210484698414803, -0.03048028238117695, 0.009540330618619919, 0.01330229640007019, -0.01859014481306076, -0.027075862511992455, 0.005743473768234253, -0.04527532309293747, 0.026462050154805183, -0.015411422587931156, 0.004294557962566614, 0.006957968696951866, 0.006217766087502241, 0.00044911057921126485, 0.004755539353936911, 0.03292368724942207, -0.014018401503562927, 0.03432393819093704, -0.0001969931909115985, 0.0023352240677922964, -0.02870585210621357, -0.030011046677827835, -0.02263609692454338, -0.029925478622317314, 0.02790600061416626, -0.028586266562342644, 0.019302362576127052, -0.008318514563143253, 0.00024106548517011106, -0.03174859657883644, -0.03689207136631012, -0.0348072350025177, -0.01868286170065403, -0.029724227264523506, -0.049208249896764755, -0.026624485850334167, -0.005862754303961992, -0.020948993042111397, -0.016914112493395805, 0.026278860867023468, 0.00287070800550282, -0.029658818617463112, 0.007864090614020824, 0.010412917472422123, -0.017662161961197853, -0.03793494403362274, -0.034588683396577835, -0.029612967744469643, -0.04217800870537758, -0.01824408769607544, -0.04125579446554184, 0.014834495261311531, 0.01943305879831314, -0.023214848712086678, -0.024371685460209846, 0.012672143056988716, 0.010652006603777409, -0.026866724714636803, -0.010293448343873024, 0.013145854696631432, 0.003987665753811598, -0.0413849800825119, 0.0068408166989684105, 0.005936368368566036, -0.009738978929817677, -0.034223075956106186, -0.02818949706852436, -0.030845005065202713, -0.014907877892255783, -0.004987235646694899, -0.018651539459824562, -0.0225461907684803, -0.010234871879220009, -0.032856542617082596, -0.027664316818118095, -0.022613275796175003, 0.012845463119447231, -0.011248920112848282, 0.020822416990995407, -0.0014808039413765073, 0.02188308723270893, -0.006384298671036959, -0.04273761436343193]"
2,"[0.02517569437623024, -0.028990045189857483, -0.013906365260481834, 0.03209495544433594, 0.02202429808676243, -0.030905799940228462, 0.034952905029058456, -0.0026881375815719366, -0.003954264800995588, -0.026098376139998436, 0.010630057193338871, -0.01847969740629196, -0.002520746784284711, -0.005388943012803793, -0.02963394857943058, 0.01645193248987198, 0.025412265211343765, -0.013868721202015877, 0.03477093577384949, -0.001826972234994173, 0.0012647418770939112, 0.015275322832167149, -0.00273200124502182, -0.00267791491933167, -0.0018852235516533256, -0.0047086505219340324, 0.012183341197669506, -0.030691415071487427, -0.03240439295768738, 0.013414093293249607, -0.03181842342019081, 0.01169518567621708, -0.02525913342833519, 0.025637157261371613, 0.0046704900451004505, 0.032485153526067734, 0.0236915685236454, 0.007895076647400856, -0.018417373299598694, -0.023274146020412445, -0.005485978908836842, -0.02012578584253788, 0.033887218683958054, -8.972432988230139e-05, 0.0244913212954998, 0.0165175199508667, 0.023829929530620575, -0.023057252168655396, 0.018009603023529053, 0.03192617744207382, -0.025065284222364426, -0.00021997967269271612, -0.023476963862776756, 0.008375609293580055, 0.0026773882564157248, 0.03543718904256821, 0.03652103245258331, 0.031243260949850082, 0.0026219275314360857, -0.02952401526272297, 0.031606048345565796, -0.024762634187936783, -0.0003295294300187379, -0.015911299735307693, 0.007174291647970676, -0.016310226172208786, 0.00740797771140933, 0.03802495077252388, 0.00803762674331665, 0.016519220545887947, -0.03309662640094757, -0.03424752503633499, -0.020060306414961815, -0.004078575875610113, 0.009818696416914463, -0.024176325649023056, 0.004480489529669285, -0.03581320866942406, -0.00891226064413786, -0.006016214843839407, -0.030372707173228264, 0.006246570032089949, 0.017718132585287094, -0.016838135197758675, 0.0007324950420297682, -0.01127161830663681, -0.026419194415211678, -0.0010614388156682253, 0.0027858412358909845, 0.033579058945178986, -0.027394669130444527, -0.026828119531273842, -0.0018868144834414124, 0.030028894543647766, -0.0156958419829607, 0.011345337145030499, 0.010227826423943043, 0.031034434214234352, 0.04553072899580002, -0.016353676095604897, -0.0011364627862349153, -0.050447769463062286, -0.06431131809949875, -0.05909699201583862, -0.017419518902897835, 0.005604356527328491, -0.027325063943862915, -0.003415740793570876, 0.03351914882659912, -0.03109295479953289, -0.0222165547311306, 0.0254316795617342, -0.022603709250688553, 0.024659207090735435, -0.019418472424149513, -0.002635018900036812, 0.03423089534044266, 0.007341109681874514, -0.006560740061104298, 0.002347456756979227, 0.018192829564213753, 0.04631081223487854, -0.006622861605137587, 0.04799430072307587, 0.032867029309272766, 0.07889925688505173, 0.004302233457565308, 0.016357114538550377, -0.045121852308511734, -0.05479178950190544, -0.0702667310833931, -0.06700678914785385, -0.05214736983180046, -0.026826057583093643, -0.007058612070977688, -0.04183369502425194, 0.020836180076003075, 0.036786846816539764, 0.04127711430191994, 0.017979033291339874, 0.028179045766592026, 0.010529942810535431, 0.020604608580470085, -0.02118098735809326, 0.037793003022670746, -0.04058358818292618, -0.03669804707169533, -0.02472773566842079, -0.003628371749073267, 0.019891129806637764, -0.03371155634522438, 0.061483751982450485, 0.031721632927656174, 0.04990366846323013, -0.0018125703791156411, 0.010903389193117619, -0.02815350703895092, -0.056837860494852066, -0.060329217463731766, -0.08895448595285416, -0.03858478367328644, -0.015977945178747177, -0.021912068128585815, -0.03244609758257866, 0.030298979952931404, 0.02713160403072834, 0.0013483382062986493, -0.0012577472953125834, -0.007560139987617731, 0.01846783049404621, -0.017076170071959496, -0.022609427571296692, -0.02877548709511757, 0.0020339007023721933, -0.03253573551774025, 0.024132518097758293, -0.026973094791173935, 0.04119943454861641, 0.06546390056610107, 0.010639967396855354, 0.026221081614494324, -0.0014133765362203121, 0.07120250910520554, 0.033705610781908035, 0.0014467680593952537, -0.043252091854810715, -0.07127998769283295, -0.08347466588020325, -0.10370839387178421, -0.03472090885043144, -0.06379958987236023, -0.04952729493379593, -0.0692841112613678, -0.00815456174314022, -0.0016930243000388145, -0.007347376085817814, -0.000681535282637924, 0.0036231442354619503, 0.021268600597977638, 0.0265640988945961, -0.03743617236614227, -0.033642515540122986, -0.025404781103134155, -0.06608479470014572, -0.008412729017436504, 0.00869374442845583, -0.016045432537794113, 0.028066037222743034, -0.008520866744220257, 0.02708696946501732, -0.019990790635347366, 0.06477878242731094, -0.0018931800732389092, -0.0478685088455677, -0.018326446413993835, -0.01992485672235489, -0.06073634698987007, -0.051179464906454086, -0.0384632907807827, -0.007739753928035498, -0.047001104801893234, 0.015832707285881042, -0.012605623342096806, -0.02480148710310459, 0.023703796789050102, -0.012939414009451866, 0.002052564173936844, -0.007789821829646826, -0.04404982551932335, -0.04376460239291191, -0.0014633529353886843, -0.0002636300050653517, 0.0760035514831543, 0.0367119163274765, 0.04314130172133446, 0.04855981096625328, -0.04632623493671417, -0.03858637809753418, -0.031896959990262985, 0.057022035121917725, 0.12098266184329987, 0.06617298722267151, 0.12940050661563873, 0.0325479581952095, -0.07129808515310287, -0.061250798404216766, -0.041926309466362, -0.021941110491752625, -0.00968338642269373, 0.008011835627257824, 0.002996121533215046, 0.011445349082350731, 0.023625871166586876, -0.02010396495461464, 0.00855582021176815, 0.019472766667604446, -0.03430056571960449, -0.026798611506819725, 0.02127085067331791, 0.015206870622932911, 0.00904199481010437, -0.009120727889239788, 0.04752064123749733, 0.05041966214776039, -0.004558600950986147, -0.05574725940823555, -0.036096516996622086, 0.048503145575523376, 0.043053362518548965, 0.12954024970531464, 0.1512979418039322, 0.10857371240854263, -0.0021068330388516188, -0.08142586052417755, -0.06651607155799866, -0.05915524810552597, -0.0758414939045906, -0.016554467380046844, -0.018644973635673523, -0.008064650930464268, 0.026455363258719444, -0.021133026108145714, -0.011211059987545013, 0.029645169153809547, 0.017970887944102287, 0.051049329340457916, 0.07304015755653381, 0.09470710158348083, 0.026148701086640358, 0.022608628496527672, 0.03006930649280548, 8.961474668467417e-05, -0.0582067109644413, -0.052747368812561035, 0.004094951320439577, -0.048723120242357254, 0.06374173611402512, 0.10795588791370392, 0.15281420946121216, 0.026904728263616562, -0.06324843317270279, -0.07882732897996902, -0.07314271479845047, -0.05073945224285126, -0.05149530619382858, -0.06924721598625183, 0.0244536604732275, 0.03053167089819908, -0.002631034003570676, 0.03544307500123978, -0.039496101438999176, -0.029530905187129974, 0.025105522945523262, 0.030383551493287086, 0.052435945719480515, 0.0469001941382885, 0.052472591400146484, 0.042272359132766724, 0.05034274607896805, 0.01240886002779007, -0.039793793112039566, 0.0012686295667663217, -0.02674100548028946, 0.028259651735424995, 0.05485159531235695, 0.15238907933235168, 0.10732760280370712, 0.12222715467214584, 0.044724058359861374, -0.006661728024482727, -0.011221607215702534, -0.0795665755867958, -0.023997757583856583, -0.01038869097828865, 0.006244503427296877, 0.01838045008480549, 0.019264644011855125, 0.035674065351486206, 0.0007358373259194195, -0.03428299352526665, -0.00897881481796503, 0.08103020489215851, 0.05901240557432175, 0.018311241641640663, -0.028357071802020073, 0.011647183448076248, -0.04513342306017876, -0.05000096186995506, -0.04722142964601517, -0.002642374485731125, 0.0165057685226202, 0.019849760457873344, 0.05730969458818436, 0.11989794671535492, 0.10594135522842407, 0.06755517423152924, 0.0727376639842987, 0.041787900030612946, -0.05366768315434456, -0.019455526024103165, -0.04717526584863663, -0.011095327325165272, -0.016551552340388298, 0.03826981037855148, -0.013095000758767128, -0.0103212995454669, -0.026622727513313293, -0.01926209032535553, 0.009645750746130943, 0.047759246081113815, -0.03547912836074829, -0.04106040671467781, -0.031008604913949966, -0.013530202209949493, -0.0067903450690209866, -0.10429223626852036, 0.0003091847465839237, 0.06226678192615509, 0.06460465490818024, 0.05077008530497551, 0.05611055716872215, 0.11282014101743698, 0.08515840023756027, 0.09638253599405289, 0.01613670215010643, 0.027114620432257652, -0.018590595573186874, 0.010566062293946743, -0.008281358517706394, -0.027303297072649002, -0.011769309639930725, 0.03589411452412605, -0.007676680106669664, 0.020655859261751175, -0.016297301277518272, 0.03195686638355255, 0.024303149431943893, -0.025694068521261215, -0.031755924224853516, -0.0033753025345504284, -0.05764627456665039, -0.06866315007209778, -0.036103326827287674, 0.02886745147407055, 0.0924515426158905, 0.100978322327137, -0.026570230722427368, 0.03701578825712204, -0.04673703387379646, 0.07024873793125153, 0.15457545220851898, 0.002166743390262127, 0.027470946311950684, -0.057622190564870834, -0.003919463604688644, -0.052465587854385376, -0.024173395708203316, 0.021781714633107185, 0.04784771427512169, 0.013181851245462894, -0.027931533753871918, -0.016678359359502792, -0.014804484322667122, -0.003706454997882247, 0.035170383751392365, -0.014092399738729, -0.008706850931048393, -0.08370407670736313, -0.07809984683990479, -0.03974692523479462, -7.884843944339082e-05, 0.06389141827821732, 0.0865253210067749, 0.058564066886901855, 0.014542018063366413, 0.035993728786706924, 0.013749989680945873, 0.01409594900906086, 0.0328807570040226, -0.008644470945000648, -0.003915866836905479, 0.005741277243942022, -0.044135771691799164, -0.024557024240493774, 0.02317185327410698, 0.010449893772602081, -0.023502040654420853, 0.02715480886399746, 0.0032067331485450268, -0.016659773886203766, 0.02223818376660347, -0.00094615388661623, 0.029435360804200172, 0.048541877418756485, -0.009155395440757275, -0.05042559280991554, -0.016837511211633682, 0.01643195189535618, 0.05807212367653847, 0.12291005253791809, 0.08874664455652237, 0.03205551579594612, -0.01006164588034153, -0.04482797905802727, 0.03232371062040329, 0.04623181000351906, -0.04497746378183365, -0.09320273995399475, -0.040739260613918304, -0.04825407639145851, -0.034598469734191895, -0.04924924671649933, -0.039209090173244476, 0.03466947749257088, 0.011732887476682663, 0.03750137239694595, 0.016276678070425987, -0.019433893263339996, -0.023762937635183334, 0.002893393160775304, 0.009307744912803173, -0.01339480560272932, -0.022659987211227417, -0.06888830661773682, 0.001488362904638052, 0.03222827613353729, 0.10519103705883026, 0.12650860846042633, 0.08199116587638855, 0.044632188975811005, -0.023290462791919708, 0.02028122916817665, -0.011592639610171318, -0.014269978739321232, -0.05583304539322853, -0.04480326175689697, -0.06021932512521744, -0.07886776328086853, -0.09200110286474228, -0.06067827343940735, 0.025845780968666077, 0.03989464417099953, 0.026550987735390663, -0.027956275269389153, -0.007125306874513626, 0.0011698611779138446, 0.03146585822105408, -0.023196982219815254, 0.03708987310528755, -0.02911379002034664, 0.03384927287697792, -0.03392486646771431, -0.007710212841629982, 0.017306024208664894, 0.0993829220533371, 0.1313396841287613, 0.06348808854818344, -0.0699780210852623, -0.03148454427719116, 0.06041157245635986, -0.010340726934373379, -0.04468856006860733, -0.011015328578650951, 0.008936000987887383, -0.04105174168944359, -0.03703157603740692, -0.020343026146292686, -0.03936590626835823, -0.02460181899368763, 0.03201236203312874, 0.003376167267560959, -0.008994580246508121, -0.02451402321457863, -0.012832757085561752, 0.006972985807806253, -0.019703950732946396, -0.02961569093167782, -0.029241127893328667, -0.053489312529563904, -0.05724307522177696, -0.029754597693681717, -0.05933937802910805, 0.033693794161081314, 0.021633649244904518, 0.030112752690911293, -0.04098154976963997, 0.0008735049050301313, -0.012494425289332867, 0.0230069849640131, -0.018250199034810066, 0.05792875587940216, 0.02251136116683483, 0.003736464073881507, -0.0146233094856143, -0.0085612703114748, -0.01842719130218029, -0.003415188053622842, 0.036734916269779205, 0.033136654645204544, -0.006914516445249319, 0.013406598009169102, -0.004846538417041302, -0.01656138338148594, 0.035016048699617386, 0.017593972384929657, 0.009129263460636139, -0.0418986901640892, -0.017796505242586136, -0.027425702661275864, -0.1326991468667984, -0.06580503284931183, 0.01397408451884985, -0.015586137771606445, 0.00711596105247736, 0.04278237000107765, 0.021683255210518837, -0.019649749621748924, -0.0014035921776667237, -0.052523933351039886, -0.004175876267254353, 0.04231204465031624, -0.009030930697917938, -0.03791773319244385, -0.04949944093823433, -0.027012040838599205, -0.02312539331614971, 0.019966788589954376, 0.006833006162196398, -0.0010110408766195178, -0.02445155382156372, 0.0386914424598217, -0.03338690102100372, -0.030222993344068527, 0.010052269324660301, 0.02898412011563778, -0.03516506776213646, -0.10922864079475403, -0.08589144051074982, 0.012414450757205486, -0.005227289162576199, 0.053121525794267654, 0.0647510439157486, 0.009083195589482784, 0.006062729749828577, 0.02615063451230526, -0.0320284403860569, -0.04378296434879303, -0.026577839627861977, -0.024392766878008842, -0.02774953469634056, -0.0017728627426549792, 0.007699545938521624, -0.01694762520492077, 0.01879061944782734, 0.036302004009485245, 0.017019500955939293, -0.00433271424844861, 0.01734795793890953, -0.017052557319402695, -0.008457050658762455, -0.03514513000845909, -0.04389776661992073, 0.02918919548392296, -0.029623720794916153, -0.0264577679336071, -0.09642196446657181, -0.009174991399049759, 0.03339996188879013, 0.028099333867430687, 0.005636660382151604, 0.03687307611107826, -0.028102150186896324, -0.07060863822698593, -0.0899946317076683, -0.030999857932329178, -0.019658206030726433, 0.03757481649518013, 0.04047829657793045, 0.04020007699728012, 0.046434007585048676, -0.016739385202527046, 0.006289346609264612, 0.01804411970078945, -0.03010053001344204, 0.021756693720817566, -0.010358063504099846, -0.005820552818477154, -0.03306611627340317, -0.04915524646639824, -0.012469827197492123, -0.0018977532163262367, -0.04252620041370392, -0.005704198032617569, -0.08403000235557556, -0.004076078999787569, -0.0053089335560798645, -0.008084063418209553, 0.020312415435910225, -0.007568146102130413, -0.005127842538058758, -0.045439619570970535, -0.014939242973923683, -0.029829833656549454, 0.0286953654140234, 0.06852485239505768, 0.027097398415207863, 0.048820994794368744, 0.016613593325018883, 0.009751556441187859, 0.02106413058936596, -0.01467417273670435, -0.01874193362891674, 0.01831064559519291, -0.02669573202729225, 0.010189021937549114, 0.005411773454397917, 0.0031919898465275764, -0.018076632171869278, -0.03838362172245979, -0.050965387374162674, -0.003149552270770073, -0.012434728443622589, -0.031335387378931046, -0.024109726771712303, -0.03860512748360634, 0.018756359815597534, 0.037195175886154175, 0.010794151574373245, 0.027355533093214035, -0.06525640189647675, 0.008370555937290192, 0.043621890246868134, 0.0705394595861435, 0.00998313445597887, 0.04294801875948906, -0.008918666280806065, -0.019459247589111328, 0.012415114790201187, -0.011945315636694431, -0.01109214685857296, -0.031532976776361465, 0.031149258837103844, -0.03188011050224304, 0.0027133654803037643, -0.03287731856107712, -0.019964193925261497, 0.004371965769678354, 0.017742231488227844, 0.016795866191387177, -0.018256671726703644, -0.011974155902862549, -0.03740938752889633, -0.05247361958026886, -0.06219815835356712, 0.017425930127501488, 0.02103378064930439, 0.014822084456682205, 0.03119489550590515, 0.020127611234784126, 0.02262026071548462, 0.055724743753671646, 0.04459018632769585, -0.031203266233205795, 0.024373779073357582, -0.016413798555731773, 0.006067361682653427, -0.030164575204253197, -0.0009019237477332354, -0.024000050500035286, 0.013119697570800781, 0.03198646381497383, 0.012494789436459541, 0.03192554786801338, -0.03411651402711868, 0.0395435206592083, -0.0011898200027644634, 0.027096249163150787, 0.013132813386619091, 0.04939624294638634, 0.0036187719088047743, 0.05783391743898392, 0.01772710308432579, 0.08911161869764328, -0.003292386420071125, 0.02197990193963051, 0.05046089366078377, 0.06006700173020363, 0.04307487979531288, 0.05011839419603348, -0.0019743817392736673, 0.0067145610228180885, -0.004473553504794836, -0.008255915716290474, -0.010917656123638153, -0.014044570736587048, -0.005248659756034613, -0.024533521384000778, -0.014152674935758114, -0.028672773391008377, 0.021752463653683662, 0.01817428320646286, 0.01103681605309248, 0.0276887696236372, 0.007503539323806763, 0.014457102864980698, -0.01913578063249588, 0.029160955920815468, 0.042423758655786514, -0.02231646329164505, 0.0016418755985796452, 0.011269466020166874, 0.02590959705412388, -0.02532951720058918, 0.014364002272486687, -0.019509904086589813, 0.008184407837688923, -0.0045121051371097565, -0.016198813915252686, 0.03870899975299835, -0.019091974943876266, 0.005219545681029558, -0.01530538871884346, 0.024819757789373398, 0.034398458898067474]"
3,"[-0.025703849270939827, -0.003381234360858798, -0.019538667052984238, -0.02559392899274826, -0.0037577219773083925, 0.03451059013605118, -0.009904713369905949, -0.01477753184735775, -0.005172243341803551, 0.019620878621935844, -0.018055494874715805, 0.02189015783369541, -0.01143244095146656, -0.02983013354241848, -0.03251659497618675, 0.0018766691209748387, 0.012204962782561779, -0.034230075776576996, 0.014726975001394749, 0.03195390850305557, 0.006519510876387358, 0.03596068173646927, -0.01284695602953434, 0.03556129336357117, 0.019200855866074562, 0.0015213930746540427, -0.023197131231427193, -0.03135339915752411, 0.02206791192293167, 0.012425318360328674, 0.014465476386249065, 0.009251686744391918, -0.015437917783856392, -0.02857293374836445, -0.03173716738820076, 0.010990806855261326, -0.0026150476187467575, -0.013188590295612812, 0.000880009145475924, 0.03606478124856949, -0.023540662601590157, -0.029999740421772003, -0.03195497766137123, -0.002731813583523035, 0.023701630532741547, 0.009008905850350857, -0.020860455930233, -0.018547462299466133, 0.028370017185807228, -0.009557049721479416, -0.03179818019270897, 0.008862558752298355, -0.00968061201274395, -0.021467307582497597, -0.010192515328526497, 0.03168265521526337, -0.0003295813512522727, 0.024140510708093643, 0.005205029156059027, -0.023647595196962357, 0.03287636861205101, 0.027696646749973297, -0.0011112347710877657, 0.0073230634443461895, 0.03129594773054123, -0.0120934396982193, -0.010669183917343616, 0.022128282114863396, 0.0402950681746006, 0.016721485182642937, -0.020001493394374847, -0.019846446812152863, 0.03492741659283638, 0.016238922253251076, -0.023777620866894722, -0.01057102158665657, -0.02209562435746193, -0.040273506194353104, -0.038121286779642105, 0.022469550371170044, -0.01755012385547161, 0.001151449978351593, 0.0035220617428421974, -0.0019321138970553875, -0.01985200121998787, 0.0010792805114760995, 0.0020931216422468424, 0.03004336729645729, 0.012913929298520088, -0.0021529074292629957, -0.026714367792010307, 7.290623761946335e-05, 0.004734911024570465, 0.020403079688549042, 0.043289825320243835, 0.049494173377752304, 0.044935520738363266, 0.029882073402404785, -0.0008524902514182031, -0.032349593937397, -0.01028373371809721, -0.004429669585078955, 0.0022959138732403517, -0.0016245697624981403, -0.009239235892891884, -0.02245541848242283, 0.007849096320569515, 0.01624630019068718, 0.0019672990310937166, -0.0034306759480386972, -0.025602350011467934, 0.019743843004107475, -0.002042691456153989, -0.01224041823297739, 0.007435052189975977, 0.00763665558770299, 0.0003666319535113871, -0.006656276062130928, 0.02343810722231865, -0.02795608714222908, 0.005655444692820311, 0.03703289479017258, 0.028804460540413857, 0.05218248441815376, 0.031156359240412712, -0.07758855074644089, -0.08038099855184555, -0.06725110113620758, -0.06646101176738739, 0.00931109581142664, 0.01818067766726017, -0.036263078451156616, -0.026636257767677307, 0.009568342007696629, -0.026710771024227142, 0.00345850782468915, -0.013122140429913998, 0.02508091926574707, -0.005029334686696529, 1.3890145055484027e-05, 0.01691579446196556, -0.011374790221452713, 0.02982729859650135, -0.017278943210840225, 0.02725333720445633, -0.02667548507452011, 0.011031778529286385, -0.03964177146553993, -0.0062644570134580135, 0.02106587588787079, 0.02914431318640709, -0.004185990430414677, -0.022377826273441315, -0.057385385036468506, -0.05337931588292122, -0.010503246448934078, -0.015970278531312943, -0.02986704185605049, -0.03819851949810982, 0.02255534566938877, -0.011330717243254185, -0.006917279679328203, 0.02275608293712139, -0.01052430272102356, 0.024386819452047348, -0.02930321916937828, -0.021807178854942322, 0.023367291316390038, -0.02484964020550251, -0.00972307100892067, -0.010169703513383865, -0.021780051290988922, -0.02823726460337639, 0.035816337913274765, -0.007611354812979698, -0.024375369772315025, -0.027299387380480766, 0.038906119763851166, 0.06577455252408981, 0.037943556904792786, -0.05366670340299606, 0.015397456474602222, -0.07044076919555664, -0.08222727477550507, -0.0013130547013133764, -0.02486840821802616, -0.009903749451041222, -0.021380458027124405, -0.020585156977176666, 0.01220133900642395, -0.018509164452552795, -0.01421301532536745, 0.027513975277543068, -0.03289766237139702, 0.03996916860342026, 0.007847387343645096, 0.023623164743185043, 0.007696516811847687, -0.029491007328033447, 0.023876510560512543, 0.008127570152282715, 0.043920911848545074, -0.0018479006830602884, 0.01774427853524685, 0.040517304092645645, 0.07108542323112488, 0.12457912415266037, 0.04229295998811722, 0.010516539216041565, 0.007313122507184744, -0.02911636419594288, -0.17971080541610718, -0.12083083391189575, -0.08381965011358261, -0.04171273112297058, 0.0054367706179618835, -0.031795013695955276, -0.006148168351501226, -0.0049352627247571945, -0.06304559856653214, -0.02800009958446026, 0.024658270180225372, 0.003648580051958561, -0.0011019735829904675, 0.023481110110878944, 0.03061951883137226, -0.02125846967101097, 0.03001609444618225, 0.05506148934364319, 0.0036934094969183207, 0.029781119897961617, -0.008892104960978031, 0.01776575855910778, 0.003297462360933423, 0.09828157722949982, 0.04361926391720772, 0.03899509087204933, 0.05643734708428383, 0.045366253703832626, 0.016929345205426216, -0.07652377337217331, 0.0038027330301702023, -0.011563040316104889, -0.014438705518841743, 0.05096738785505295, 0.019610203802585602, 0.0498926006257534, 0.002784977201372385, -0.021284639835357666, 0.033378105610609055, 0.0012118355371057987, 0.011908340267837048, -0.010530427098274231, -0.030945252627134323, 0.00747870746999979, -0.010117381811141968, -0.015287935733795166, 0.01117165107280016, -0.017431369051337242, 0.022921619936823845, 0.012258784845471382, -0.031744737178087234, 0.014212527312338352, 0.07778466492891312, 0.11972115188837051, 0.03201081231236458, 0.03873031586408615, 0.04659548029303551, 0.04791752249002457, -0.007731257937848568, 0.02054469846189022, 0.027784934267401695, 0.031021002680063248, -0.06922736763954163, 0.025994479656219482, 0.02994423173367977, 0.0051072463393211365, -0.004698425997048616, -0.009018335491418839, 0.017964795231819153, 0.03346015140414238, -0.0062500243075191975, -0.031694456934928894, 0.008325370028614998, -0.028166860342025757, 0.014065882191061974, 0.012446627020835876, 0.03216685354709625, 0.05806263908743858, 0.0032843456137925386, -0.0029110731557011604, 0.03909165412187576, 0.03286956995725632, -0.001456061378121376, -0.03813549503684044, -0.021640580147504807, -0.02320200949907303, 0.02569161355495453, 0.014973108656704426, 0.04744136333465576, 0.020209867507219315, -0.04177020117640495, -0.005308077670633793, -0.038809552788734436, -0.04271772503852844, -0.010698298923671246, 0.03960096836090088, 0.0012198101030662656, 0.02972845733165741, -0.0012592155253514647, -0.030524173751473427, -0.00994658749550581, 0.007714542560279369, -0.046196360141038895, -0.06911788880825043, -0.04777524992823601, -0.030099697411060333, -0.03257560357451439, -0.08067004382610321, -0.048869550228118896, -0.08496879041194916, -0.1635792851448059, -0.12306701391935349, -0.09517750144004822, -0.02659350447356701, -0.020538639277219772, -0.06592142581939697, -0.03386678174138069, -0.020035479217767715, -0.04991893097758293, -0.014877216890454292, -0.031212754547595978, -0.01537245698273182, -0.004180929623544216, -0.0239329282194376, 0.018556639552116394, -0.0234685055911541, -0.014531652443110943, -0.007772848941385746, -0.022061942145228386, -0.057279303669929504, -0.11934058368206024, -0.13235382735729218, -0.14606399834156036, -0.11846543848514557, -0.15520602464675903, -0.13261136412620544, -0.10740091651678085, -0.12019544839859009, -0.1241326555609703, -0.08147942274808884, -0.08796031773090363, -0.08966698497533798, -0.08509515970945358, -0.07133246213197708, -0.08167135715484619, -0.03575294464826584, -0.046678364276885986, -0.04810561239719391, -0.10381798446178436, -0.05189194157719612, -0.008087730966508389, -0.028435736894607544, 0.0028354842215776443, -0.004397132433950901, 0.011223682202398777, 0.012754538096487522, -0.046862371265888214, -0.08241025358438492, -0.12105107307434082, -0.15995953977108002, -0.10382802784442902, -0.1035492867231369, -0.10709747672080994, -0.07035934180021286, -0.05378616601228714, 0.01694975607097149, 0.026154616847634315, -0.003393135266378522, -0.044607974588871, 0.027635132893919945, -0.06455743312835693, -0.06694533675909042, -0.00019278562103863806, -0.04127776622772217, -0.023442940786480904, -0.040183842182159424, -0.042758725583553314, 0.04689928516745567, -0.0010665920563042164, 0.04808005690574646, -0.023752208799123764, -0.013684399425983429, -0.01252276822924614, -0.015257000923156738, -0.030855633318424225, -0.0671415701508522, -0.10129465907812119, -0.08821158111095428, -0.08786584436893463, -0.09179471433162689, -0.013281474821269512, 0.06521207094192505, 0.0532580241560936, 0.10446423292160034, 0.06502458453178406, 0.04059401899576187, 0.09423971176147461, 0.06726693361997604, -0.004389102105051279, -0.008103719912469387, -0.003949444741010666, -0.00885981135070324, 0.010765135288238525, -0.02671808749437332, 0.016483353450894356, 0.033515263348817825, 0.05247696861624718, 0.0418960303068161, -0.0029006903059780598, -0.01245181169360876, 0.015078520402312279, 0.030852733179926872, -0.010029916651546955, -0.024381518363952637, -0.025356771424412727, -0.045331746339797974, -0.042417772114276886, -0.0008055738289840519, 0.017533935606479645, 0.02302837371826172, 0.028948303312063217, 0.019990041851997375, 0.11194166541099548, 0.06687241047620773, 0.03551293537020683, 0.018177233636379242, 0.07173409312963486, 0.028414450585842133, 0.04697069898247719, 0.007676260080188513, 0.016073793172836304, -0.0054199108853936195, 0.0363091379404068, 0.036190588027238846, 0.030760060995817184, 0.014308661222457886, -0.013973291032016277, 0.011851753108203411, -0.03455834463238716, -0.0289116483181715, 0.004579168278723955, 0.034258756786584854, 0.026451967656612396, 0.05074867606163025, -0.010430523194372654, 0.01606140285730362, 0.011261433362960815, 0.05133217200636864, -0.0063694315031170845, 0.032333891838788986, 0.05310746654868126, 0.06795649975538254, 0.06028744950890541, 0.0538376122713089, 0.008462545461952686, 0.018688371405005455, 0.022368622943758965, 0.02860446833074093, 0.06735385954380035, 0.06688440591096878, 0.0598805695772171, 0.01174441259354353, 0.0068679568357765675, 0.06314928829669952, 0.036742739379405975, 0.023450655862689018, 0.02877347730100155, -0.02066821977496147, 0.056128088384866714, 0.03391173481941223, 0.05700521916151047, 0.05491126701235771, -0.004069952294230461, 0.07500165700912476, 0.06038343533873558, 0.05474366247653961, 0.030079882591962814, 0.010344607755541801, -0.028396518900990486, 0.0058073559775948524, -0.012393745593726635, -0.00011815426114480942, 0.02170507237315178, 0.06205156818032265, 0.048427924513816833, 0.010801594704389572, 0.054951079189777374, 0.035183683037757874, 0.01796472817659378, 0.03472469374537468, 0.06079177185893059, 0.02793375588953495, -0.02690664306282997, -0.02039237879216671, 0.018133537843823433, -0.012961010448634624, 0.019343022257089615, 0.03402134031057358, 0.025848522782325745, 0.04265948012471199, 0.06677787750959396, 0.04167623072862625, 0.02524731121957302, -0.016998928040266037, 0.01292185764759779, 0.03092065453529358, 0.04998152330517769, 0.022118352353572845, -0.025799646973609924, 0.012297769077122211, -0.0196328517049551, -0.00264555006287992, 0.027531590312719345, 0.024009596556425095, -0.0010346882045269012, 0.022827405482530594, 0.04815884307026863, 0.037298452109098434, 0.024443676695227623, 0.009325719438493252, 0.013552402146160603, -0.019329413771629333, 0.021413620561361313, -0.026536719873547554, 0.023647738620638847, 0.06926167011260986, 0.05889613926410675, 0.03516937047243118, 0.053671978414058685, 0.03915559500455856, -0.016885077580809593, -0.02217758633196354, 0.027561338618397713, 0.010955764912068844, -0.016182996332645416, -0.00837504118680954, 0.017856275662779808, -0.0034409589134156704, -0.0163775272667408, -0.0343201644718647, 0.009748679585754871, -0.023188302293419838, 0.03156542778015137, -0.00044679222628474236, 0.03615989163517952, 0.024744736030697823, 0.017258767038583755, 0.0416935458779335, -0.029129767790436745, 0.013119027949869633, -0.007988660596311092, -0.026822246611118317, 0.0009767196606844664, 0.007357477676123381, 0.0544574074447155, 0.032653339207172394, 0.01938336342573166, 0.046170201152563095, 0.0778643935918808, 0.04878440871834755, 0.03149048611521721, -0.028979599475860596, -0.05807702988386154, 0.01209071185439825, 0.01358432974666357, 0.005340761970728636, 0.026888011023402214, 0.026341723278164864, 0.009433376602828503, -0.018086442723870277, -0.02570601925253868, 0.02695622481405735, -0.007532134186476469, 0.03325650095939636, -0.021781442686915398, 0.012192938476800919, -0.03023941069841385, 0.01727975532412529, 0.03376473858952522, 0.024221045896410942, 0.020435716956853867, -0.018856048583984375, 0.01728668063879013, -8.600363798905164e-06, -0.008197212591767311, 0.024646298959851265, 0.010431821458041668, 0.014248804189264774, 0.033378809690475464, 0.018353400751948357, 0.019519386813044548, -0.012179581448435783, 0.02951768971979618, 0.0025172471068799496, 0.008056876249611378, 0.0577688030898571, 0.01707538776099682, -0.0005740321357734501, -0.01526766736060381, 0.035139571875333786, 0.05411888286471367, 0.018819063901901245, 0.02178765833377838, 0.004050530027598143, 0.034000128507614136, -0.014090306125581264, -0.031321749091148376, 0.009542286396026611, 0.015513099730014801, 0.0008087212918326259, -0.004830074030905962, -0.018892774358391762, -0.04977154731750488, -0.05139315128326416, 0.021917926147580147, -0.020185496658086777, 0.02713743783533573, 0.03351839631795883, 0.021150534972548485, -0.01650807447731495, 0.031512483954429626, 0.0378301665186882, -0.01682749018073082, 0.023098060861229897, 0.025592666119337082, 0.008973835036158562, 0.029590528458356857, 0.020549748092889786, 0.019042450934648514, 0.02848472259938717, 0.0026095216162502766, -0.017502108588814735, 0.016279304400086403, -0.02893240749835968, 0.000767543213441968, -0.004032771103084087, -0.021703802049160004, 0.03636569902300835, 0.028625059872865677, 0.030322102829813957, 0.03738939389586449, 0.01590743102133274, -0.00800162274390459, -0.01763862743973732, 0.06215991824865341, -0.024598674848675728, -0.005812522489577532, -0.03462330624461174, 0.050665512681007385, -0.009497929364442825, -0.03125903755426407, -0.07782584428787231, -0.026925193145871162, -0.029174908995628357, -0.01585821434855461, 0.0013997593196108937, 0.005838534329086542, -0.0009504319750703871, 0.02568715438246727, -0.027891185134649277, 0.02315191552042961, 0.02756364457309246, 0.0015784524148330092, 0.026549367234110832, 0.028848668560385704, 0.029928049072623253, 0.025217760354280472, -0.010915329679846764, 0.007519401144236326, 0.0034620363730937243, 0.007025011349469423, -0.029289916157722473, -0.02356301061809063, -0.0182037316262722, -0.0870022252202034, -0.042599063366651535, -0.018235448747873306, -0.017658714205026627, 0.05041475221514702, -0.018742039799690247, -0.004441333003342152, -0.044023655354976654, 0.014030815102159977, -0.03255004063248634, -7.164575799833983e-05, 0.0417029969394207, 0.03307677060365677, 0.02378574199974537, -0.004453503992408514, 0.003669988363981247, 0.028049452230334282, -0.007269285619258881, -0.018807394430041313, 0.01202449668198824, -0.05733240023255348, -0.032777246087789536, 0.014401929453015327, 0.026046594604849815, 0.03924977034330368, 0.008119693957269192, -0.031108902767300606, 0.05179176107048988, -0.02101699635386467, 0.038815688341856, 0.012097987346351147, 0.05613725632429123, 0.04061633720993996, -0.010268783196806908, 0.0005474140052683651, -0.02856576442718506, -0.03765202686190605, -0.02756033092737198, -0.0179129745811224, -0.024191604927182198, 0.011015262454748154, 0.01714177615940571, -0.025861728936433792, -0.01695438101887703, -0.03253477066755295, -0.019279519096016884, 0.010756595060229301, -0.037015754729509354, -0.02505740523338318, -0.01087388675659895, -0.014278172515332699, -0.003896433161571622, 0.016071388497948647, 0.00789590086787939, 0.012912354432046413, 0.001564713311381638, -0.02391425147652626, -0.024386145174503326, 0.03152785822749138, 0.02543458715081215, 0.015868034213781357, -0.02483360841870308, -0.03552760183811188, -0.01976352371275425, -0.011004694737493992, 0.0227968767285347, -0.022083787247538567, -0.01281207986176014, 0.01627250760793686, -0.03429218381643295, 0.02107117883861065, -0.01565566286444664, -0.020011231303215027, 0.03409494087100029, 0.0048727188259363174, 0.03405606001615524, 0.026911839842796326, -0.028709499165415764, -0.030013082548975945, 0.014142942614853382, 0.036596156656742096, 0.03168419748544693, 0.009768545627593994, 0.022371340543031693, -0.025323711335659027, -0.03421793878078461, -0.025504140183329582, 0.03198833391070366, -0.0065840184688568115, -0.029530461877584457, -0.018689213320612907, 0.006035560742020607, 0.02644544094800949, -0.006245718337595463, 0.007997087202966213, -0.030467860400676727, 0.022229108959436417, 0.032918307930231094, 0.029449962079524994]"
4,"[-0.02039770595729351, -0.02897331677377224, 0.017921119928359985, -0.03732331469655037, -0.006412957329303026, -0.0019689372275024652, -0.02656347118318081, 0.005063979886472225, -0.03864282742142677, -0.026762090623378754, 0.013964176177978516, 0.02530190721154213, 0.0035861837677657604, -0.03735484927892685, -0.03870372474193573, 0.023198461160063744, -0.03014117293059826, 0.02862488478422165, -0.02987005189061165, -0.02858654223382473, 0.009828164242208004, -0.026387928053736687, -0.02155223675072193, -0.0050470950081944466, 0.019155750051140785, -0.0016355334082618356, -0.015177209861576557, -0.012178541161119938, -0.01871395669877529, 0.005905747879296541, -0.012042864225804806, -0.03580299764871597, 0.01212350931018591, -0.0415431372821331, 0.01780026964843273, 0.020447947084903717, -0.007949890568852425, 0.022899391129612923, -0.03163988143205643, -0.00577280530706048, 0.014196510426700115, -0.007588689681142569, -0.006257450208067894, -0.02287905290722847, -0.026181016117334366, 0.030624696984887123, 0.025714049115777016, 0.007458396255970001, 0.02429392747581005, 0.011014644056558609, -0.027981802821159363, 0.018609551712870598, -0.03832254186272621, 0.00032994229695759714, 0.005212507676333189, -0.019374482333660126, -0.026629755273461342, 0.02894238568842411, -0.03329010307788849, 0.01337996032088995, 0.022006986662745476, 0.019224440678954124, 0.013606827706098557, 0.008969335816800594, 0.01660090498626232, -0.0021062050946056843, 0.030924424529075623, -0.008966641500592232, 0.021407876163721085, 0.037422798573970795, -0.016639456152915955, 0.0328480489552021, -0.010097686201334, 0.0297787394374609, -0.001194253214634955, 0.03509293124079704, -0.032258909195661545, 0.008875856176018715, -0.0193135105073452, 0.02211865223944187, 0.005886781960725784, 0.004053356125950813, 0.01034317072480917, 0.026456037536263466, -0.022318368777632713, 0.016337506473064423, 0.008499532006680965, 0.018933836370706558, 0.002983796177431941, -0.03929942101240158, -0.0007801611791364849, 0.020799847319722176, 0.021254008635878563, 0.003036686684936285, -0.04627780243754387, -0.03782295808196068, -0.047351766377687454, 0.011318083852529526, 0.018107689917087555, 0.036207329481840134, 0.05085863173007965, -0.004162936937063932, -0.000555601145606488, 0.007152121979743242, -0.03791628032922745, 0.004853357560932636, 0.027796512469649315, -0.025128459557890892, -0.0034394010435789824, -0.03745590150356293, -0.020687159150838852, 0.021387679502367973, -0.0009287013090215623, -0.0197761207818985, 0.026861153542995453, -0.02307068184018135, -0.01951812393963337, -0.028235966339707375, 0.02324472740292549, -0.0466485321521759, -0.019286230206489563, -0.029694320634007454, 0.028331315144896507, -0.021154290065169334, 0.009806523099541664, 0.05078895762562752, 0.04875924810767174, 0.023318186402320862, 0.07208921015262604, -0.01194506511092186, 0.03775307908654213, -0.015747176483273506, -0.005000858101993799, -0.014563349075615406, -0.00303097115829587, -0.015813542529940605, 0.0018066847696900368, -0.037015337496995926, 0.0050940620712935925, -0.0320245586335659, 0.028722135350108147, -0.020861228927969933, 0.005750901531428099, -0.007000577170401812, 0.018036765977740288, -0.03174762427806854, -0.03878513351082802, -0.03198973461985588, -0.021761693060398102, -0.0752614438533783, -0.012630474753677845, -0.0052022626623511314, -0.006941567175090313, 0.005786571651697159, 0.021019287407398224, 0.06339576095342636, 0.007710664067417383, 0.027487967163324356, -0.014078029431402683, 0.040633685886859894, 0.06988684087991714, 0.045083869248628616, -0.017191099002957344, -0.03512124717235565, 0.013917225413024426, 0.02714763581752777, -0.016881506890058517, -0.03338687866926193, 0.022935079410672188, -0.03824543580412865, -0.03886360302567482, 0.02274625562131405, -0.016532858833670616, -0.03138693794608116, -0.03879211097955704, 0.002992630936205387, 0.00407000258564949, -0.06427297741174698, -0.03244442120194435, 0.021006304770708084, 0.027269326150417328, 0.02365409955382347, 0.05187572166323662, 0.09731540828943253, 0.056669581681489944, 0.05745662748813629, 0.05213932320475578, 0.03515296429395676, 0.03420327231287956, -0.030430898070335388, -0.020037677139043808, -0.018912561237812042, 0.002694522263482213, 0.0005732981953769922, -0.03852000832557678, 0.017538391053676605, -0.04202546551823616, 0.010351315140724182, -0.01376677118241787, -0.03680485486984253, -0.035853248089551926, -0.011319016106426716, -0.06843188405036926, -0.01493456307798624, -0.007586993742734194, -0.017711583524942398, 0.07288028299808502, 0.005099281668663025, 0.02684287540614605, 0.05928165465593338, 0.0697498470544815, 0.07186587899923325, 0.03949083760380745, 0.02018675021827221, 0.036843400448560715, -0.005776156671345234, 0.01624814234673977, 0.059335462749004364, 0.02517719939351082, -0.011920533142983913, 0.005167387891560793, -0.037580762058496475, -0.036630477756261826, -0.041044801473617554, -0.022882139310240746, -0.02788350358605385, -0.01706535741686821, -0.00899070966988802, -0.017413049936294556, -0.06086822599172592, 0.012028725817799568, 0.024440530687570572, 0.005479536950588226, 0.018780164420604706, 0.018337002024054527, 0.03218746930360794, 0.024701790884137154, 0.053998321294784546, 0.011569852009415627, -0.0065656863152980804, 0.054266706109046936, 0.0014090966433286667, -0.04483209177851677, -0.01675274223089218, 0.04900512844324112, 0.027769537642598152, 0.04920158162713051, 0.0012864284217357635, -0.03877374157309532, -0.02227408066391945, -0.013915389776229858, -0.018020102754235268, -0.005611364729702473, 0.0043161059729754925, -0.042318928986787796, 0.01931607723236084, -0.016250871121883392, -0.0134546784684062, 0.019290585070848465, -0.02647332288324833, 0.01973433792591095, 0.04962930455803871, 0.0631159171462059, -0.021363943815231323, -0.06943043321371078, 0.0067201335914433, 0.005632071755826473, 0.052346959710121155, 0.04935271292924881, 0.0322478711605072, -0.017246641218662262, -0.023688361048698425, -0.02186802215874195, 0.007873131893575191, -0.011509967967867851, 0.012766188941895962, -0.012071164324879646, 0.017176419496536255, -0.03720071166753769, -0.04571433737874031, -0.030604034662246704, -0.00470535596832633, -0.02678104303777218, -0.02193794585764408, -0.04317475110292435, -0.023822562769055367, -0.028798174113035202, 0.018017027527093887, 0.028061073273420334, -0.008916209451854229, 0.010724249295890331, 0.0030986759811639786, -0.042206041514873505, 0.0016369123477488756, 0.013795815408229828, 0.01628289744257927, 0.10454530268907547, -0.00010228615428786725, 0.027953865006566048, 0.024443326517939568, 0.02545931003987789, 0.038850586861371994, 0.058817729353904724, 0.033143263310194016, 0.03742661699652672, 0.032998811453580856, -0.024624470621347427, -0.03123556636273861, -0.002726516453549266, -0.009190579876303673, -0.024526990950107574, -0.05060453340411186, 0.010516202077269554, -0.04664697125554085, -0.03833350911736488, 0.02935299463570118, 0.0038202109280973673, 0.027623137459158897, 0.007348777260631323, -0.006050244905054569, -0.023281211033463478, 0.07785901427268982, 0.07651091367006302, 0.038233593106269836, 0.012713916599750519, 0.02023148722946644, 0.04683700576424599, 0.015461490489542484, 0.039241939783096313, 0.03972262516617775, 0.0017095871735364199, 0.05255632475018501, 0.007288780994713306, 0.007632209453731775, -0.004472258035093546, -0.024094710126519203, -0.04183272644877434, -0.021680708974599838, 0.012126955203711987, -0.03840170428156853, 0.0011041233083233237, -0.030608532950282097, -0.014095867052674294, 0.058312058448791504, -0.010594823397696018, 0.07230164110660553, -0.027027511969208717, 0.012980050407350063, 0.042689576745033264, 0.09560094028711319, 0.08690666407346725, 0.0018940313020721078, -0.00929507426917553, 0.007848975248634815, -0.04142502322793007, -0.08840065449476242, -0.05177471041679382, 0.027638481929898262, -0.0029937850777059793, -0.0041116089560091496, 0.0386529341340065, -0.009236150421202183, 0.005355841014534235, 0.004938759375363588, 0.018839001655578613, -0.017984244972467422, -0.01635739952325821, -0.036405693739652634, -0.05430697649717331, -0.04920639470219612, 0.024092981591820717, 0.037862807512283325, 0.04686403647065163, 0.004350034520030022, -0.03654814511537552, -0.013964052312076092, 0.0024489248171448708, 0.045528847724199295, 0.031085889786481857, -0.0026050861924886703, -0.02373415417969227, -0.08054604381322861, -0.07301729917526245, -0.04740161448717117, -0.10853880643844604, -0.026672488078475, -0.01364709623157978, 0.035904936492443085, -0.019113926216959953, 0.021490514278411865, -0.014069966971874237, -0.031011950224637985, -0.0416998565196991, 0.022886859253048897, 0.024113740772008896, 0.01958003267645836, -0.007578089367598295, 0.005012462381273508, 0.02586066536605358, 0.00912784319370985, -0.01939440704882145, -0.008498543873429298, 0.008660992607474327, 0.011711847968399525, -0.01600298099219799, 0.009487228468060493, -0.01382069755345583, -0.0283795315772295, -0.0386020764708519, -0.06638871878385544, -0.057512953877449036, -0.11224615573883057, -0.11684995889663696, -0.027482300996780396, -0.062219470739364624, -0.033201128244400024, -0.03177698329091072, -0.025168489664793015, -0.03266863152384758, -0.026869764551520348, -0.012601525522768497, -0.03153042122721672, -0.013316129334270954, -0.043594907969236374, 0.018409065902233124, 0.02194259688258171, -0.029161471873521805, -0.01732913963496685, -0.007557947654277086, 0.05826956406235695, 0.016123371198773384, 0.029848258942365646, 0.06868799775838852, 0.021181415766477585, -0.027999818325042725, -0.0540807768702507, 0.031633488833904266, -0.019419319927692413, 0.0061933668330311775, -0.08750173449516296, -0.12762753665447235, -0.07248951494693756, -0.0539577454328537, 0.006289491895586252, 0.030455706641077995, 0.030926674604415894, -0.01273877453058958, -0.04086750000715256, -0.0090602682903409, 0.0005945682642050087, -0.042766641825437546, 0.020836947485804558, 0.013776298612356186, 0.0024213141296058893, 0.00926965195685625, 0.008351019583642483, -0.0038196209352463484, 0.008860398083925247, 0.0527859665453434, 0.001421622117049992, 0.004925339017063379, -0.0006543549825437367, 0.0014387137489393353, -0.020527750253677368, 0.013165918178856373, -0.05135105550289154, -0.017894750460982323, -0.043382979929447174, -0.0942869484424591, -0.04059106111526489, 0.016039136797189713, 0.029134714975953102, -0.006796619854867458, 0.0019527105614542961, 0.006529068574309349, 0.01502604503184557, -0.03142213076353073, -0.037139084190130234, 0.0227936040610075, -0.03031359240412712, 0.024912429973483086, -0.015578596852719784, 0.00360316876322031, -0.05339331552386284, -0.040728431195020676, -0.008984828367829323, 0.021635238081216812, -0.021966002881526947, -0.052320368587970734, -0.06520682573318481, 0.03369740769267082, -0.010776007547974586, -0.04017748683691025, -0.04004349187016487, -0.032420847564935684, 0.01899408921599388, 0.003973259124904871, 0.009867070242762566, 0.018347062170505524, 0.018830522894859314, -0.007389124948531389, 0.026648353785276413, -0.03424615040421486, 0.005378046538680792, -0.03422905132174492, -0.010818751528859138, 0.02068636380136013, -0.03448938950896263, 0.026606829836964607, -0.03567153215408325, -0.040838614106178284, 0.001150726224295795, -0.016362953931093216, 0.012069761753082275, -0.031923722475767136, -0.04499005526304245, -0.054584771394729614, -0.03312239795923233, -0.05038312450051308, -0.004829731769859791, -0.027365166693925858, -0.058217160403728485, -0.07457350939512253, -0.020304156467318535, 0.04210907593369484, -0.00028773120720870793, -0.02560487575829029, -0.024160316213965416, 0.016621466726064682, 0.030871570110321045, -0.01154714822769165, -0.01490873098373413, -0.023664139211177826, 0.009028244763612747, -0.027797773480415344, -0.045168738812208176, -0.023689357563853264, -0.0020683128386735916, 0.01237940602004528, -0.005642340984195471, 0.015589169226586819, 0.017254076898097992, -0.04524320736527443, -0.06699324399232864, -0.05478529632091522, 0.01520097628235817, -0.06317806988954544, 0.006879616528749466, 0.026332398876547813, 0.009592099115252495, -0.003662047442048788, -0.001762599335052073, 0.06453645974397659, 0.045218050479888916, 0.03281373158097267, 0.02634338103234768, 0.01591986045241356, -0.013426332734525204, -0.014212485402822495, -0.029340900480747223, 0.01700522191822529, 0.025339875370264053, 0.0038544698618352413, -0.03387105464935303, 0.0014766484964638948, 0.003343758871778846, 0.04534249007701874, -0.0005347579717636108, -0.006775393150746822, 0.03703685104846954, -0.0022580509539693594, 0.0019324598833918571, 0.057859476655721664, 0.0872596725821495, -0.008022423833608627, 0.04209427535533905, 0.03535972908139229, 0.01978355273604393, 0.023751087486743927, 0.09668418765068054, 0.1009974330663681, 0.036328770220279694, 0.06433281302452087, 0.06814127415418625, 0.00846143439412117, -0.0013928995467722416, 0.029615549370646477, 0.01853332109749317, 0.017156416550278664, -0.03569107875227928, -0.03417909890413284, 0.005730383098125458, 0.00681314105167985, 0.03857219219207764, 0.04601287096738815, 0.08770806342363358, 0.04611526057124138, 0.05380408838391304, 0.02661774680018425, 0.033469777554273605, 0.0792279839515686, 0.06688854843378067, 0.03667571023106575, 0.04559477046132088, -0.03903574123978615, 0.057461872696876526, 0.0789545550942421, 0.09273240715265274, 0.10472318530082703, 0.0009148180834017694, 0.05601688474416733, -0.009621563367545605, -0.009107721969485283, -0.02978261560201645, -0.01593340002000332, -0.026576390489935875, 0.010596642270684242, -0.013605985790491104, -0.004029285162687302, 0.01920117251574993, 0.014317267574369907, 0.07623802125453949, 0.08031035959720612, 0.058305516839027405, 0.04529600590467453, 0.10505247116088867, 0.049977824091911316, 0.05824275314807892, 0.10000108927488327, 0.060999125242233276, 0.04538431763648987, 0.0794396921992302, 0.04206160828471184, 0.062086526304483414, 0.016613230109214783, 0.05362514778971672, 0.024001453071832657, -0.012107389979064465, -0.011101988144218922, 0.031299248337745667, 0.02590051107108593, -0.03980111703276634, -0.03163706138730049, -0.038245949894189835, 0.009908449836075306, -0.005824868101626635, 0.026787396520376205, 0.021814029663801193, 0.04514773190021515, 0.051364466547966, 0.007241942919790745, 0.04112296551465988, 0.07913533598184586, 0.08755916357040405, 0.003224842017516494, 0.030914422124624252, 0.1303066462278366, 0.08636608719825745, 0.015177360735833645, 0.07560878992080688, 0.07972890138626099, 0.013024654239416122, 0.0073166280053555965, 0.033528365194797516, 0.03600819781422615, -0.03875428065657616, 0.004936819896101952, -0.005700877867639065, -0.022281693294644356, 0.013779625296592712, 0.021853139623999596, 0.01748235709965229, -0.02418888546526432, 0.026245372369885445, -0.013109555467963219, 0.02439628727734089, 0.014059241861104965, -0.04801490530371666, -0.0036446249578148127, -0.05632941052317619, 0.014519390650093555, 0.02205415815114975, 0.012661738321185112, -0.023006077855825424, 0.0644453838467598, 0.010367725975811481, -0.014335423707962036, 0.04534239321947098, 0.03903244808316231, 0.032276589423418045, 0.0008234693086706102, 0.00595134450122714, -0.0070935580879449844, -0.021558169275522232, -0.04774094000458717, 0.013685666024684906, -0.005906789097934961, -0.02708214707672596, 0.014585244469344616, -0.022065280005335808, 0.004024184308946133, 0.0030446394812315702, -0.012965776957571507, -0.02033200114965439, -0.006213503889739513, -0.042939744889736176, -0.04377889260649681, -0.04632133990526199, -0.05325555056333542, 0.0167070459574461, -0.07516184449195862, -0.07835166901350021, -0.04908519610762596, -0.028419025242328644, 0.019445527344942093, 0.004313214682042599, -0.010737991891801357, -0.02253824658691883, -0.0006389981135725975, 0.02112424746155739, -0.013147251680493355, -0.032174915075302124, -0.01563374511897564, -0.029172152280807495, -0.011156789027154446, -0.025152113288640976, -0.002369600348174572, -0.016827380284667015, 0.024820124730467796, 0.028987005352973938, -0.011984195560216904, -0.03801412507891655, 0.007809638511389494, 0.009244811721146107, 0.0006206805119290948, -0.036643609404563904, -0.020738616585731506, -0.033514171838760376, -0.04541708156466484, 0.012966526672244072, -0.050758782774209976, -0.0690918117761612, -0.03860900551080704, 0.011723549105226994, -0.012856544926762581, 0.03061692789196968, 0.026725787669420242, 0.01575390249490738, 0.026298897340893745, -0.03980989754199982, 0.0009756322833709419, 0.0038716907147318125, -0.00010051132994703948, 0.006257723551243544, -0.006608771625906229, -0.027141189202666283, 0.012508337385952473, -0.02423323690891266, 0.014056685380637646, -0.03235303983092308, -0.027087243273854256, 0.025417497381567955, -0.0391874685883522, -0.010717970319092274, -0.004107548389583826, -0.02984977513551712, 0.02585064247250557, 0.001897268695756793, 0.011360233649611473, -0.011697633191943169, -0.026618169620633125, 0.008083147928118706, 0.02781294658780098, -0.036394525319337845, 0.013132715597748756, 0.015838079154491425, 0.023893915116786957, 0.02122528851032257, -0.013209785334765911, -0.0030667877290397882, -0.015782643109560013, -0.04185605049133301, 0.018036186695098877, -0.030619487166404724]"
