output_idx,weights
0,"[0.060834527015686035, -0.021482650190591812, 0.1461866796016693, -0.1981397122144699, -0.02783588133752346, 0.07961275428533554, 0.20507217943668365, -0.02972354367375374, -0.12598811089992523, 0.07729426771402359, 0.09854089468717575, -0.07871369272470474, 0.02115510031580925, 0.001484569744206965, 0.029858281835913658, 0.0027790272142738104, 0.08782504498958588, 0.036231279373168945, 0.06406092643737793, 0.0766550824046135, -0.010872208513319492, 0.029859580099582672, 0.013426835648715496, 0.0362539179623127, 0.0024956315755844116, 0.02820063941180706, -0.011161040514707565, 0.09421484172344208, 0.09466063976287842, 0.16431497037410736, -0.3749147057533264, -0.168034628033638, -0.16664326190948486, -0.09396886080503464, -0.02997647039592266, -0.06263130158185959, 0.33020541071891785, -0.05803613364696503, 0.10086387395858765, 0.024771390482783318, 0.027162255719304085, 0.1015300378203392, 0.03447404503822327, 0.14969274401664734, 0.11087828874588013, 0.05575892701745033, 0.06402386724948883, 0.11665919423103333, -0.07414150983095169, -0.19251976907253265, -0.01784168928861618, 0.17687056958675385, 0.1476733684539795, 0.04095234349370003, 0.03022392839193344, -0.018519844859838486, 0.03625763952732086, 0.055799901485443115, 0.15014640986919403, 0.04129213094711304, -0.06305026262998581, -0.047180987894535065, -0.16739818453788757, -0.04703890159726143, -0.035116128623485565, 0.047399263828992844, 0.02847232297062874, -0.34770092368125916, 0.18650706112384796, 0.18993575870990753, 0.020767582580447197, -0.028214072808623314, -0.028974393382668495, 0.0694599375128746, 0.028063809499144554, -0.02639779821038246, -0.27217161655426025, -0.16902625560760498, 0.06396450847387314, 0.02262479066848755, 0.024358922615647316, -0.014569236896932125, 0.06646586954593658, -0.08081790059804916, 0.2661586403846741, 0.03587687760591507, -0.006651509087532759, -0.22612325847148895, -0.06717691570520401, 0.02718340791761875, 0.06793364137411118, 0.126890629529953, -0.12386054545640945, 0.11776403337717056, -0.03901442140340805, -0.0821649432182312, -0.0014299449976533651, -0.02640141360461712, -0.014221280813217163, 0.004722801502794027, -0.13341571390628815, -0.200734481215477, 0.07497436553239822, 0.018381735309958458, -0.07491957396268845, -0.13716058433055878, -0.04319803789258003, 0.031498171389102936, 0.16579021513462067, -0.08620975911617279, 0.0339081734418869, 0.06472532451152802, 0.08317016065120697, -0.13305431604385376, -0.03563212603330612, 0.06866972148418427, 0.0870794728398323, -0.03871379420161247, -0.19898515939712524, -0.17327652871608734, -0.15178905427455902, -0.13152796030044556, -0.015278751961886883, 0.1657385528087616, -0.098001629114151, -0.10693122446537018, -0.18765786290168762, 0.014918642118573189]"
1,"[-0.16983360052108765, -0.03549932688474655, 0.10224596410989761, -0.08191300183534622, 0.005677536595612764, -0.1033826395869255, -0.0516170971095562, -0.017505250871181488, 0.10192049294710159, -0.08101724088191986, 0.08605626970529556, 0.0887879952788353, 0.057872842997312546, 0.051206719130277634, 0.12249919027090073, -0.03327947482466698, 0.03500331938266754, -0.030179055407643318, -0.07744589447975159, -0.06514158099889755, -0.04759769141674042, 0.058995962142944336, 0.027123726904392242, 0.050895847380161285, -0.0814574584364891, -0.025822719559073448, -0.06738801300525665, -0.09126634895801544, 0.01511391531676054, -0.1149945929646492, -0.041701022535562515, 0.052410610020160675, -0.053366515785455704, 0.006534101907163858, 0.14002469182014465, -0.02535608410835266, -0.00272364541888237, -0.03484624996781349, 0.1394350677728653, 0.025088585913181305, -0.05087748542428017, 0.08984295278787613, 0.07599426060914993, 0.04645533487200737, 0.07721798121929169, 0.030364345759153366, -0.004022282548248768, 0.062443386763334274, -0.03688884526491165, -0.019644547253847122, -0.005009875632822514, 0.032815609127283096, -0.04293634742498398, -0.07504978775978088, -0.06736046075820923, 0.026467807590961456, -0.08207256346940994, 0.026040980592370033, 0.02131955698132515, 0.0671924278140068, 0.07685790210962296, 0.0016765285981819034, -0.059722017496824265, 0.07831984758377075, 0.009885559789836407, -0.035222314298152924, 0.032947294414043427, 0.08891654014587402, 0.021086441352963448, 0.12054238468408585, 0.04364744946360588, -0.07027935236692429, 0.026979248970746994, -0.06244800612330437, -0.09440668672323227, -0.038708094507455826, 0.10002926737070084, -0.08462692052125931, 0.05866614356637001, -0.07667470723390579, -0.02710149623453617, -0.05523497238755226, -0.0701763704419136, 0.08102714270353317, -0.007246788125485182, -0.03005872666835785, 0.014920000918209553, 0.18124239146709442, -0.073727086186409, -0.029593409970402718, 0.16733582317829132, 0.08928383886814117, 0.12445209920406342, 0.08078199625015259, 0.06967120617628098, -0.026338377967476845, -0.02516881562769413, -0.011859768070280552, 0.04423664137721062, 0.053400687873363495, -0.03963635861873627, 0.00472981296479702, -0.03488233685493469, 0.02179570496082306, -0.04158839210867882, -0.1056673601269722, -0.04046773910522461, 0.02458214946091175, 0.0743597149848938, 0.05001208558678627, 0.05267679691314697, -0.03295057266950607, 0.09286347031593323, -0.13838621973991394, 0.1479302942752838, 0.07517526298761368, -0.07825502753257751, 0.07598302513360977, -0.06144150346517563, -0.04908062890172005, 0.11298627406358719, 0.06565472483634949, 0.02281525544822216, -0.09601091593503952, -0.019634993746876717, -0.11176027357578278, 0.022372057661414146, -0.017715338617563248]"
2,"[0.0377412810921669, -0.02677484042942524, -0.14627742767333984, -0.00968405231833458, 0.23832516372203827, -0.15298345685005188, -0.04106166586279869, -0.025415103882551193, 0.1767796128988266, 0.10046213865280151, -0.008131799288094044, -0.12728643417358398, 0.053142059594392776, 0.07533487677574158, 0.1547512263059616, -0.11341352015733719, 0.14460629224777222, 0.0027386629953980446, -0.06376154720783234, -0.045461125671863556, -0.07515181601047516, -0.09774915874004364, -0.10047679394483566, 0.05623876303434372, -0.004159591160714626, 0.057674337178468704, 0.19600392878055573, 0.07301566004753113, -0.0809711292386055, 0.14137308299541473, -0.03610331937670708, -0.07074423134326935, -0.019366025924682617, -0.0265730582177639, -0.013762233778834343, 0.09435422718524933, -0.06833595037460327, 0.007882954552769661, 0.04059813544154167, 0.045504242181777954, -0.14232470095157623, -0.05186023935675621, 0.02170596644282341, -0.012307949364185333, 0.07228545844554901, -0.0564507320523262, -0.19385945796966553, -0.044562164694070816, 0.07619745284318924, 0.011578721925616264, -0.007741626817733049, -0.0027733587194234133, 0.1628049910068512, 0.1545732021331787, -0.0969766229391098, 0.033269498497247696, 0.02402377314865589, -0.07454663515090942, 0.05180208384990692, 0.05755919963121414, -0.1114022433757782, 0.13167761266231537, 0.1201922595500946, -0.06527315080165863, -0.03133139759302139, 0.033634111285209656, 0.022450251504778862, -0.036204200237989426, 0.13115984201431274, 0.04805312305688858, -0.08872523158788681, 0.28707796335220337, 0.09061452746391296, 0.05749630182981491, 0.1062689796090126, 0.180608868598938, -0.0047148545272648335, -0.2052832692861557, -0.059211332350969315, 0.06662388145923615, -0.002848579315468669, -0.04364028200507164, -0.07067166268825531, -0.20348915457725525, -0.20997145771980286, 0.029563749209046364, 0.0168796144425869, -0.15561577677726746, -0.06672298908233643, 0.02206486463546753, -0.13744021952152252, -0.11285464465618134, -0.14265182614326477, -0.002353714546188712, 0.006441248115152121, 0.03610972687602043, -0.08536248654127121, 0.06912387162446976, -0.08004934340715408, -0.08586648106575012, 0.0010964066023007035, 0.1619614213705063, -0.12302669137716293, -0.012231619097292423, 0.14178845286369324, -0.10777779668569565, -0.010000198148190975, -0.0926540195941925, -0.16830076277256012, -0.1416681706905365, -0.12589837610721588, 0.06264379620552063, -0.12138818204402924, 0.006858776323497295, -0.2206180989742279, -0.0013934532180428505, 0.1794375330209732, -0.04138590767979622, -0.16738492250442505, 0.14351041615009308, 0.1634971648454666, -0.12490949034690857, 0.04707355797290802, 0.14329661428928375, 0.0430152602493763, -0.009611470624804497, 0.14070621132850647, 0.11623478680849075]"
3,"[-0.12315429002046585, -0.01618933491408825, -0.06858006864786148, 0.056525763124227524, -0.006421573460102081, 0.0025163174141198397, -0.022043487057089806, 0.03728124871850014, 0.0945083275437355, -0.01755095273256302, -0.0902034267783165, -0.01680900529026985, -0.05090200901031494, -0.038307785987854004, -0.036915961652994156, 0.040321044623851776, 0.016790203750133514, 0.020890969783067703, -0.02647792547941208, -0.004977131262421608, 0.04053468257188797, -0.059057604521512985, -0.01312350481748581, 0.04820892587304115, -0.04082294553518295, -0.01642344519495964, -0.0028146442491561174, 0.06704424321651459, -0.05134307220578194, -0.07839452475309372, 0.06380712240934372, -0.03878643363714218, -0.04731138050556183, 0.015166441909968853, 0.008502922020852566, 0.05436756834387779, 0.06734268367290497, -0.07820706069469452, 0.0020272124093025923, 0.16021810472011566, -0.10752644389867783, -0.03973139449954033, -0.05972399562597275, 0.11029104143381119, -0.023817794397473335, 0.11555124819278717, 0.00587809830904007, -0.08567982167005539, -0.053110770881175995, 0.05943692848086357, 0.046709101647138596, 0.06192294508218765, 0.013754087500274181, 0.027334507554769516, 0.023910265415906906, -0.10163946449756622, 0.025327159091830254, 0.10656463354825974, 0.042613785713911057, -0.0815303772687912, 0.006712418515235186, 0.014239163137972355, -0.035293884575366974, -0.031026577576994896, 0.00462438864633441, -0.08809316903352737, -0.0622035376727581, 0.14362867176532745, -0.009146729484200478, -0.0009161382331512868, -0.055589377880096436, 0.02688097581267357, 0.06755317747592926, -0.04033687710762024, -0.09843049943447113, -0.15176717936992645, -0.025795212015509605, -0.0370715856552124, -0.015113881789147854, -0.024953750893473625, -0.02229015715420246, 0.10410883277654648, 0.02642153576016426, 0.1237696036696434, 0.06285678595304489, 0.020038355141878128, 0.016210131347179413, -0.08237817883491516, 0.014194020070135593, -0.025711195543408394, 0.04984151944518089, -0.10234509408473969, -0.039701782166957855, 0.031986303627491, 0.027911193668842316, -0.013589255511760712, 0.11036588996648788, 0.04208999127149582, 0.0007384120835922658, 0.04139344394207001, 0.00476656062528491, -0.1446523666381836, -0.07338847219944, 0.02365192584693432, 0.11679200828075409, 0.10240616649389267, -0.0013022423954680562, -0.03493724763393402, -0.04047359153628349, -0.01691318303346634, 0.1249387264251709, 0.0854182094335556, 0.09424082934856415, 0.06098709627985954, 0.08956120908260345, -0.03904805704951286, -0.05912070721387863, -0.07701379060745239, 0.012087659910321236, 0.14574243128299713, -0.08124859631061554, 0.012238319963216782, 0.051580093801021576, 0.06297259032726288, 0.04824696481227875, -0.007043743506073952, 0.030041981488466263, -0.042892470955848694]"
4,"[-0.013009783811867237, -0.07455615699291229, 0.03248952701687813, 0.12080284208059311, -0.11427656561136246, -0.16530412435531616, 0.11619225144386292, -0.04850015044212341, -0.016034284606575966, 0.07738709449768066, 0.26825475692749023, 0.16697858273983002, -0.15372276306152344, -0.029904088005423546, 0.11145907640457153, 0.13623769581317902, -0.17949461936950684, 0.16232441365718842, 0.04412629082798958, -0.03898808732628822, 0.18167676031589508, 0.03243018686771393, -0.20107178390026093, 0.006307616829872131, -0.04773201793432236, -0.012524896301329136, -0.1834086775779724, -0.011888355016708374, 0.3556455969810486, 0.147107794880867, 0.032065704464912415, -0.0714859813451767, -0.0937134325504303, 0.23613518476486206, -0.0904669538140297, -0.03230491280555725, -0.08454584330320358, -0.08704699575901031, -0.051512617617845535, -0.11144667863845825, 0.2547720968723297, -0.22231346368789673, -0.014572427608072758, -0.2834983766078949, -0.14929452538490295, -0.19338975846767426, 0.22141629457473755, -0.043215036392211914, -0.08255944401025772, -0.06938347220420837, 0.018993167206645012, 0.030758587643504143, 0.009974882937967777, 0.07161085307598114, 0.20981986820697784, 0.010474155656993389, -0.013253407552838326, -0.23499754071235657, 0.15200553834438324, -0.09021500498056412, -0.09309536218643188, 0.15852022171020508, 0.1068851575255394, 0.08782049268484116, 0.07259435206651688, -0.05248648300766945, 0.12885682284832, -0.11869940161705017, -0.05755745619535446, -0.014421853236854076, -0.05259380117058754, 0.10185600072145462, 0.05684468895196915, 0.2607842981815338, 0.02870701625943184, 0.2860926687717438, 0.13397802412509918, 0.12528575956821442, 0.11254370957612991, 0.08836889266967773, 0.062371790409088135, -0.07865765690803528, -0.004364196676760912, 0.05342791974544525, 0.25517264008522034, 0.06656301021575928, 0.13573506474494934, -0.06328706443309784, -0.030038170516490936, 0.060409724712371826, 0.12746550142765045, 0.23355476558208466, -0.1374141275882721, 0.02780996263027191, -0.10121756792068481, 0.09190656244754791, 0.3059404194355011, 0.10404282808303833, 0.06910431385040283, 0.008153615519404411, -0.10685011744499207, -0.1750413030385971, 0.20985114574432373, 0.34996774792671204, -0.03724034130573273, -0.1999516487121582, -0.07084904611110687, 0.15821483731269836, 0.13290277123451233, 0.018415044993162155, -0.2422758787870407, 0.11576157063245773, 0.18960902094841003, 0.07836578786373138, 0.23971329629421234, 0.05876636877655983, 0.08924228698015213, -0.05250507965683937, 0.16814477741718292, -0.005749186500906944, -0.16085262596607208, -0.09281318634748459, -0.19653478264808655, 0.18692994117736816, 0.1295376867055893, 0.21302108466625214, -0.12574456632137299, -0.15761999785900116]"
5,"[-0.09714191406965256, -0.0500793494284153, 0.10146043449640274, 0.1585533767938614, -0.035701487213373184, -0.13302943110466003, -0.12902291119098663, -0.05438024178147316, 0.13452833890914917, -0.07205969095230103, 0.030973535031080246, 0.08892438560724258, 0.062403757125139236, 0.056240618228912354, 0.1838352382183075, 0.06051773205399513, 0.08694146573543549, 0.02972874417901039, -0.07762704789638519, -0.09331382811069489, 0.02282273769378662, -0.09200234711170197, 0.18031880259513855, 0.053768787533044815, -0.05587807670235634, 0.01567595638334751, -0.001300374511629343, -0.13674083352088928, -0.12533055245876312, -0.06621456891298294, 0.14816410839557648, -0.06630275398492813, 0.03753751516342163, -0.022843800485134125, -0.06248334422707558, 0.02037840709090233, -0.15779320895671844, -0.11819154024124146, 0.147415891289711, 0.014214296825230122, -0.016315815970301628, 0.20214875042438507, 0.16876649856567383, -0.16431450843811035, 0.00020956248044967651, -0.03122180514037609, 0.0220437403768301, -0.03251543641090393, -0.09793414175510406, 0.0878506675362587, 0.12556064128875732, -0.05831591784954071, 0.0732898861169815, 0.07524769008159637, -0.1472974419593811, -0.015159083530306816, 0.015514734201133251, -0.028525307774543762, 0.0863201841711998, 0.17985676229000092, 0.01572282239794731, 0.18939124047756195, 0.01807987503707409, -0.10254207253456116, -0.012713081203401089, -0.03587234020233154, 0.011239273473620415, 0.28444311022758484, -0.04729988053441048, -0.010352767072618008, 0.03362885117530823, 0.08459871262311935, 0.11647465080022812, -0.17439313232898712, -0.27818331122398376, -0.0021777995862066746, 0.28914937376976013, 0.08707018941640854, 0.07435902208089828, 0.019464049488306046, 0.015009644441306591, 0.0482192225754261, 0.015774359926581383, -0.03552190586924553, -0.156117245554924, -0.14081309735774994, 0.15300045907497406, 0.272504061460495, -0.14725667238235474, 0.12135185301303864, 0.030297312885522842, -0.2920752465724945, 0.24493016302585602, -0.027995968237519264, 0.16210304200649261, 0.021602310240268707, 0.06993341445922852, -0.003057957161217928, -0.04744771122932434, 0.20360273122787476, 0.16907468438148499, 0.049300748854875565, -0.19513177871704102, 0.20325277745723724, 0.020576953887939453, 0.08252164721488953, 0.058954332023859024, -0.06415046751499176, 0.06120536848902702, 0.09725720435380936, -0.04819647595286369, -0.056024856865406036, -0.03555856645107269, -0.0033088838681578636, -0.08238418400287628, -0.08268008381128311, -0.10499119758605957, 0.050769928842782974, 0.04742860794067383, -0.07277187705039978, 0.2110271006822586, 0.12714499235153198, 0.15819284319877625, 0.07206409424543381, -0.10289144515991211, -0.05830651894211769, 0.11727025359869003, -0.12467996776103973]"
6,"[-0.11501990258693695, 0.07805521041154861, -0.02534741908311844, -0.06579610705375671, -0.11195214837789536, -0.004055145662277937, -0.10450790077447891, -0.030601641163229942, 0.1242324560880661, -0.04442472755908966, 0.07199837267398834, 0.1770670861005783, -0.07051359117031097, 0.07258985936641693, 0.10903067141771317, 0.03700750693678856, -0.057054612785577774, 0.16387683153152466, -0.05336007848381996, 0.154538094997406, -0.06645603477954865, -0.10744006186723709, -0.1827133148908615, 0.03742121532559395, 0.07559879124164581, -0.0666666328907013, 0.08482172340154648, -0.013892605900764465, 0.022396421059966087, -0.08474686741828918, -0.0747724249958992, -0.05820707976818085, 0.02126256562769413, -0.01434808224439621, -0.017613524571061134, 0.04013119637966156, -0.054021287709474564, -0.004726087208837271, 0.15076379477977753, 0.12985794246196747, -0.01706068590283394, -0.23020941019058228, -0.014777603559195995, -0.15061548352241516, 0.03284437209367752, -0.007152711972594261, 0.10281464457511902, 0.07280918210744858, -0.06854922324419022, 5.4565030040976126e-06, -0.025574374943971634, -0.0669650062918663, -0.03727704659104347, 0.012921992689371109, 0.041169174015522, -0.004440390504896641, 0.04450858756899834, -0.08338809758424759, 0.10762123018503189, -0.1210298091173172, -0.05818679928779602, 0.023269549012184143, -0.08372905850410461, 0.06442201882600784, 0.11034321039915085, -0.07231605798006058, 0.10647651553153992, -0.03757990524172783, -0.10831046104431152, 0.010553344152867794, -0.22742769122123718, 0.11950568109750748, -0.011328944005072117, 0.001197317149490118, -0.024669891223311424, 0.042418576776981354, 0.09609275311231613, 0.0842481181025505, -0.2704958915710449, 0.15632037818431854, 0.005698137450963259, -0.02004651539027691, 0.0493716262280941, 0.04437907040119171, -0.11741800606250763, -0.1147487610578537, -0.08590064197778702, -0.10903781652450562, 0.0686517134308815, 0.01201242208480835, 0.08455825597047806, 0.02660580910742283, -0.17663387954235077, -0.12614865601062775, -0.22069047391414642, 0.20165474712848663, 0.020644886419177055, 0.02351790852844715, 0.09902680665254593, -0.11236045509576797, -0.12717625498771667, -0.02956444025039673, 0.041698142886161804, 0.06341680139303207, 0.1478612869977951, 0.05975872278213501, 0.05772417411208153, 0.22729605436325073, -0.010507865808904171, -0.12916162610054016, 0.09341026842594147, -0.042829468846321106, 0.10614107549190521, -0.05548720061779022, -0.033023279160261154, -0.01732271909713745, 0.09180429577827454, 0.04819995537400246, 0.20204578340053558, 0.12411721795797348, -0.20351673662662506, -0.015186907723546028, -0.08474503457546234, 0.03947046026587486, 0.12387535721063614, 0.2331039011478424, 0.2000938355922699, -0.06569702923297882]"
7,"[-0.021546225994825363, -0.07148702442646027, -0.08434842526912689, 0.02367749810218811, -0.01233246922492981, 0.04069344699382782, -0.060535967350006104, 0.03425920009613037, -0.0072740791365504265, 0.07639778405427933, -0.05264058709144592, 0.06455100327730179, 0.08989111334085464, -0.046333592385053635, 0.0270850770175457, -0.008980541490018368, -0.02884846366941929, 0.05218737572431564, -0.0861506462097168, 0.1439642757177353, -0.04888300597667694, -0.07746350020170212, -0.10158451646566391, -0.08526640385389328, 0.06505201756954193, 0.13862980902194977, 0.05807089805603027, 0.09461947530508041, 0.022962680086493492, -0.029294969514012337, 0.11834961175918579, -0.10604020208120346, -0.023940742015838623, 0.047376856207847595, 0.030726144090294838, -0.0005740170017816126, 0.055320821702480316, -0.05668582394719124, 0.016586974263191223, -0.033099886029958725, 0.03255034610629082, -0.09166400134563446, -0.10222840309143066, 0.04980730265378952, -0.10731500387191772, -0.07299187034368515, 0.022608736529946327, -0.09434960782527924, -0.06756758689880371, 0.0013238767860457301, -0.059479422867298126, 0.025062445551156998, -0.14837057888507843, 0.08096599578857422, 0.051844723522663116, -0.007955438457429409, 0.08304708451032639, 0.06526325643062592, -0.07498548179864883, -0.08291170001029968, 0.03760688751935959, 0.0348241813480854, -0.02868233248591423, -0.012994902208447456, 0.023747311905026436, 0.00834693107753992, 0.07959706336259842, -0.02307213470339775, -0.043041668832302094, 0.060523100197315216, 0.07535036653280258, -0.026205817237496376, 0.033337272703647614, -0.03565017879009247, -0.004231538623571396, 0.11637422442436218, -0.04092840477824211, 0.1081063374876976, -0.06126708537340164, 0.0414910651743412, 0.0005383461248129606, -0.054345596581697464, 0.03447318822145462, 0.002600617939606309, 0.06723865121603012, -0.0642995610833168, -0.06849168241024017, 0.027944102883338928, 0.11980412155389786, -0.0701184794306755, 0.03341333940625191, 0.02885822393000126, 0.013784356415271759, -0.05786976218223572, -0.02062339335680008, 0.13153037428855896, -0.028267741203308105, -0.04324362054467201, 0.10155721753835678, -0.05585719272494316, -0.014196581207215786, -0.025643646717071533, -0.058601293712854385, 0.007785880006849766, 0.03597129508852959, -0.05363652482628822, -0.07827509939670563, -0.1032586395740509, -0.10041895508766174, -0.021050062030553818, -0.02672189101576805, 0.0649971067905426, 0.09220076352357864, -0.09098245203495026, -0.0030505910981446505, -0.04233456030488014, 0.1319580078125, 0.08805114775896072, 0.04998904839158058, 0.05617738142609596, -0.05459456890821457, -0.07781217992305756, -0.05301764979958534, 0.05582411214709282, 0.01599314622581005, 0.07743268460035324, 0.10585439950227737, 0.012205015867948532]"
8,"[0.24455033242702484, -0.005998663604259491, 0.19307172298431396, 0.08107343316078186, -0.19126474857330322, 0.3504725396633148, -0.22980956733226776, -0.01784311980009079, 0.05338425934314728, -0.18096032738685608, -0.08227913081645966, 0.06674426048994064, 0.07478874176740646, 0.08687114715576172, 0.10102102160453796, 0.12218128144741058, -0.05319638177752495, -0.09701622277498245, -0.016223134472966194, 0.13568083941936493, 0.24431292712688446, 0.0047340174205601215, 0.16574932634830475, 0.05971518158912659, 0.07519795000553131, 0.03636354207992554, -0.2130277007818222, -0.052757252007722855, 0.0886024683713913, -0.34793737530708313, 0.24340954422950745, 0.11522471904754639, -0.03141258284449577, 0.05235624313354492, 0.14444513618946075, -0.013474305160343647, -0.061538487672805786, -0.1220603734254837, 0.161289244890213, 0.01750647835433483, 0.015277445316314697, -0.06373746693134308, 0.016842659562826157, -0.15084044635295868, 0.1666439324617386, -0.18181759119033813, 0.2638542652130127, -0.031714215874671936, -0.08272287994623184, 0.20441223680973053, 0.07159537076950073, -0.2646799385547638, 0.0858042910695076, -0.05574444681406021, 0.08974589407444, -0.3057810366153717, 0.07348523288965225, -0.010301755741238594, 0.06095631420612335, 0.14150695502758026, 0.2058171182870865, -0.21508212387561798, -0.17180386185646057, -0.05228659138083458, 0.16677723824977875, 0.007939280942082405, 0.1597549021244049, 0.4232593774795532, -0.14476323127746582, -0.0857396200299263, 0.22386662662029266, -0.0009232656448148191, 0.003580105723813176, 0.12394652515649796, -0.02234627678990364, -0.24027834832668304, 0.2696002721786499, 0.2575717866420746, -0.027427388355135918, -0.1339484006166458, 0.018252314999699593, -0.10374108701944351, 0.02309938333928585, -0.019291408360004425, 0.059651508927345276, -0.035377100110054016, 0.03636113554239273, -0.013230593875050545, 0.18997476994991302, 0.21066714823246002, -0.01890753023326397, -0.12840652465820312, 0.2937133312225342, -0.2820708453655243, -0.14207963645458221, -0.028087636455893517, 0.06816285103559494, 0.12591370940208435, 0.03890995681285858, 0.2792972922325134, 0.14955870807170868, -0.19392602145671844, 0.14393475651741028, -0.03596038743853569, 0.09432923793792725, 0.12779268622398376, -0.09286598116159439, 0.06846543401479721, 0.1936132162809372, 0.06282039731740952, -0.012045159004628658, -0.10712035000324249, 0.17591531574726105, 0.1814527064561844, -0.03423655405640602, -0.06258676946163177, -0.03917311877012253, -0.08034131675958633, 0.11297129839658737, 0.025390276685357094, -0.04769432917237282, -0.03863169625401497, 0.04256005212664604, -0.20601604878902435, -0.1793833076953888, 0.024590641260147095, 0.10589557886123657, 0.03979820758104324]"
9,"[-0.1283472180366516, 0.03089175559580326, -0.009710163809359074, 0.16458512842655182, 0.17967697978019714, -0.3971926271915436, 0.06629367917776108, -0.07602271437644958, 0.14722028374671936, -0.09619681537151337, -0.07731117308139801, -0.25151562690734863, -0.0426507405936718, 0.08566788583993912, 0.17960630357265472, -0.08787266910076141, 0.07942704111337662, -0.10069089382886887, -0.0280893724411726, 0.049071017652750015, 0.21025291085243225, 0.20128083229064941, 0.09627998620271683, -0.012189818546175957, -0.016730375587940216, -2.5056158847291954e-05, 0.2219257801771164, 0.014902716502547264, -0.0947546511888504, 0.19445452094078064, -0.022900531068444252, 0.06938069313764572, 0.0874529629945755, -0.13878078758716583, 0.00543321343138814, 0.012358555570244789, -0.20070698857307434, -0.11488132178783417, -0.03242452070116997, 0.0919707790017128, -0.26033657789230347, 0.11744185537099838, -0.03078777715563774, 0.09641754627227783, 0.11305312067270279, 0.29034775495529175, -0.20486876368522644, 0.059321802109479904, 0.04398645833134651, 0.022198500111699104, 0.07797378301620483, 0.21721337735652924, 0.13113786280155182, 0.12758539617061615, -0.18504619598388672, 0.06045118719339371, -0.028054486960172653, 0.2125025987625122, 0.04010913148522377, 0.06931398063898087, -0.199428528547287, -0.04580897465348244, 0.2514634132385254, -0.15911470353603363, 0.13325348496437073, -0.04006369784474373, 0.13377279043197632, 0.021291805431246758, 0.11909617483615875, -0.02893102914094925, -0.016072556376457214, 0.17266497015953064, 0.014338278211653233, 0.026534590870141983, 0.0925694927573204, 0.10254143178462982, 0.06948677450418472, 0.01886707730591297, 0.07104852050542831, 0.0956161692738533, 0.039238497614860535, 0.01395388413220644, -0.06458558887243271, 0.014944829978048801, -0.32394373416900635, -0.036238860338926315, -0.07581422477960587, 0.15749748051166534, -0.12493395060300827, 0.05069189891219139, 0.12360129505395889, -0.08797501027584076, -0.0801117792725563, 0.16772273182868958, 0.1212226152420044, -0.03349652886390686, 0.02079826593399048, 0.03133083134889603, -0.057567767798900604, -0.08147674053907394, 0.16988487541675568, 0.3342255651950836, -0.1983574628829956, 0.016041573137044907, 0.05746021866798401, -0.08429549634456635, -0.016313547268509865, -0.007619052194058895, 0.005242424551397562, 0.04640394449234009, -0.031991567462682724, 0.04374460503458977, -0.18104524910449982, -0.17009468376636505, 0.04932226240634918, 0.05196327716112137, 0.10002792626619339, -0.06977607309818268, -0.1737341284751892, 0.40090128779411316, 0.21391834318637848, 0.09518946707248688, 0.35926541686058044, 0.0003745987778529525, 0.060018956661224365, -0.049943532794713974, 0.029322847723960876, 0.16337010264396667]"
10,"[0.08127323538064957, 0.1707225888967514, 0.0906679704785347, 0.09298670291900635, 0.07469964772462845, -0.24214549362659454, -0.09475750476121902, 0.05747212842106819, -0.02286410517990589, -0.11193596571683884, -0.0430997870862484, -0.05049867182970047, 0.023460157215595245, -0.03961603343486786, -0.09895411133766174, 0.0085246991366148, -0.04535094276070595, -0.005587008781731129, -0.018833301961421967, -0.07007654756307602, 0.12630091607570648, 0.06985790282487869, 0.12672945857048035, 0.05003155767917633, 0.021473893895745277, -0.14499714970588684, -0.06800766289234161, -0.009273913688957691, -0.19752712547779083, -0.12418635934591293, 0.03323724493384361, 0.19993944466114044, -0.047222208231687546, -0.05293227359652519, -0.014819569885730743, -0.05551929399371147, -0.25426074862480164, -0.0820934921503067, 0.008624785579741001, 0.16735683381557465, -0.07755838334560394, 0.058408915996551514, -0.08094119280576706, 0.11510277539491653, -0.1073886826634407, -0.05311591178178787, -0.0034733260981738567, 0.07819675654172897, 0.028017759323120117, -0.004341640044003725, 0.1153797134757042, -0.035865023732185364, 0.16860459744930267, -0.02742527611553669, -0.2907210886478424, -0.019575534388422966, 0.05752072110772133, -0.05951486900448799, -0.09618734568357468, 0.0913042202591896, -0.18015378713607788, -0.10162888467311859, 0.17114734649658203, -0.058317579329013824, 0.16311214864253998, -0.03496382012963295, 0.07425008714199066, 0.17335252463817596, 0.005201180465519428, -0.05939939618110657, 0.12433464080095291, -0.05085825175046921, 0.13617853820323944, 0.13651230931282043, 0.041828300803899765, 0.058012574911117554, -0.056721143424510956, -0.12505589425563812, 0.2282925546169281, 0.10504836589097977, 0.02704530581831932, -0.048059556633234024, -0.06400063633918762, -0.057776227593421936, -0.16838334500789642, -0.03450503945350647, 0.03277453035116196, -0.02505377307534218, 0.06889508664608002, 0.05325178802013397, 0.00428240280598402, -0.17637455463409424, -0.16533076763153076, -0.0429949015378952, 0.04250992834568024, -0.04851937294006348, -0.173166885972023, 0.051399290561676025, -0.1279062181711197, -0.17673711478710175, 0.09321379661560059, 0.15294477343559265, -0.06998342275619507, 0.0637635886669159, 0.004239603411406279, -0.09071271866559982, -0.06471928209066391, -0.07963564991950989, 0.08260508626699448, -0.0056443545036017895, -0.16093477606773376, 0.057187747210264206, -0.008302799426019192, 0.07225880771875381, -0.10660199820995331, -0.04990016296505928, -0.12351388484239578, 0.060012541711330414, 0.00099182000849396, -0.05099485442042351, 0.17376640439033508, -0.17802880704402924, 0.12098952382802963, 0.10172097384929657, -0.10890889912843704, 0.04963331297039986, 0.07242336124181747, -0.020336933434009552]"
11,"[-0.024833502247929573, -0.0402429960668087, 0.05649252235889435, -0.07309334725141525, 0.009125087410211563, -0.06940368562936783, -0.05108732357621193, 0.05353781580924988, -0.02472035214304924, 0.07838153094053268, -0.016392549499869347, -0.0759965106844902, 0.009535779245197773, -0.06632952392101288, -0.07355266809463501, 0.05971566215157509, -0.028726330026984215, 0.0335259884595871, 0.07571028918027878, -0.06343673914670944, -0.0186112429946661, -0.021286115050315857, 0.0856052041053772, -0.015975985676050186, -0.04467508941888809, 0.06647748500108719, -0.039102986454963684, -0.0898849368095398, 0.08422219753265381, -0.03973834961652756, 0.022281045094132423, -0.0006210741703398526, 0.08956799656152725, 0.03818022832274437, -0.03228959068655968, 0.02028937265276909, 0.07816967368125916, 0.021714065223932266, -0.016681624576449394, 0.04446696490049362, -0.06609870493412018, 0.027287039905786514, -0.019736211746931076, 0.039510805159807205, -0.04828960448503494, -0.010081803426146507, 0.07936468720436096, -0.020889325067400932, 0.03610329329967499, -0.004017331637442112, 0.07364742457866669, -0.07522688060998917, 0.06330669671297073, -0.04498155787587166, -0.04134181886911392, 0.0835491493344307, -0.007195805199444294, -0.05939073860645294, -0.06372535973787308, -0.015957685187458992, 0.04609685391187668, -0.020718446001410484, -0.021803485229611397, 0.056684914976358414, 0.023414332419633865, -0.08084246516227722, 0.017910465598106384, -0.09513338655233383, -0.014624142087996006, -0.07221785932779312, 0.078432597219944, -0.07859639823436737, -0.023347282782197, -0.058798301964998245, -0.010747523047029972, 0.02448372170329094, -0.01348387636244297, -0.06007591262459755, -0.03310656547546387, -0.07825079560279846, -0.07265978306531906, 0.029476352035999298, 0.07830420136451721, 0.01885688491165638, -0.08320052176713943, 0.08864396065473557, -0.015039367601275444, -0.001777112134732306, 0.033477094024419785, 0.06868156790733337, 0.023712627589702606, 0.0034263008274137974, -0.029274756088852882, -0.013736866414546967, -0.03315920755267143, -0.0835462436079979, -0.05366335064172745, 0.0574428029358387, -0.05414888635277748, -0.0764620453119278, -0.04530155658721924, 0.06421510130167007, 0.09465805441141129, -0.07411464303731918, 0.08323919028043747, 0.02797027863562107, -0.029807617887854576, -0.07675027847290039, -0.0795668363571167, -0.024836044758558273, -0.06781022995710373, -0.06794212013483047, 0.020717749372124672, 0.024121414870023727, -0.00017326255328953266, -0.0574948750436306, -0.06700441986322403, 0.06931500881910324, 0.06905246526002884, 0.022154029458761215, -0.05491071566939354, 0.010584551841020584, 0.001809961860999465, 0.042449381202459335, 0.06791386008262634, -0.03048931248486042, -0.0651121512055397, 0.01099612470716238]"
12,"[-0.006330581847578287, 0.08515863120555878, -0.10051901638507843, 0.05705512315034866, 0.06316683441400528, -0.009366780519485474, -0.055819522589445114, 0.04310707375407219, -0.07946272194385529, 0.21800249814987183, 0.05355150252580643, 0.22273114323616028, 0.11918510496616364, 0.008011654950678349, -0.03157946839928627, 0.17769832909107208, 0.04080278053879738, -0.09235705435276031, -0.07762192189693451, 0.0012902494054287672, 0.054717518389225006, -0.0025573663879185915, -0.13675923645496368, 0.0012114144628867507, -0.022870216518640518, -0.02605181559920311, 0.04564465582370758, 0.11635914444923401, 0.08137402683496475, 0.07565780729055405, 0.18593592941761017, 0.12279720604419708, 0.08086206018924713, 0.1403602510690689, 0.012586675584316254, -0.08179906755685806, -0.12481696903705597, 0.07715348899364471, -0.05220190808176994, 0.0027622899506241083, 0.1230010911822319, -0.1226128488779068, -0.1114482581615448, 0.05525389686226845, -0.09004223346710205, -0.1350032538175583, 0.03651827573776245, -0.08753342926502228, 0.0006158764590509236, 0.1296764761209488, 0.12189486622810364, 0.012340611778199673, -0.11511710286140442, -0.04981396347284317, 0.14299242198467255, -0.03149300441145897, 0.06227768957614899, -0.17809773981571198, -0.031158719211816788, 0.007021270226687193, -0.003949414473026991, 0.19828860461711884, 0.13657540082931519, 0.02025775983929634, 0.005437535233795643, 0.04871644452214241, 0.052989739924669266, 0.23920838534832, 0.0657624900341034, -0.08277260512113571, -0.026682743802666664, 0.0410127118229866, 0.06986983865499496, 0.018219511955976486, 0.08248669654130936, 0.315256804227829, 0.12263388931751251, 0.12402300536632538, 0.09571190923452377, -0.06398279219865799, -0.04399798810482025, 0.029117099940776825, -0.06392531841993332, -0.04822288453578949, 0.09965980052947998, 0.24193742871284485, -0.04452845826745033, 0.050852369517087936, 0.1084999069571495, -0.09243594855070114, -0.06694193184375763, -0.019380051642656326, -0.05594063922762871, 0.093959279358387, 0.10967224091291428, 0.18543505668640137, -0.025238201022148132, 0.06260132044553757, 0.043976325541734695, -0.07901155948638916, 0.08152954280376434, 0.19733068346977234, 0.1501917988061905, 0.26071301102638245, 0.011262193322181702, -0.05271326005458832, -0.06361884623765945, 0.08080951869487762, -0.10753241926431656, 0.17395764589309692, -0.25514161586761475, -0.03407437726855278, -0.015261334367096424, 0.08965831995010376, 0.23402079939842224, -0.06429942697286606, 0.1262633055448532, -0.009039136581122875, 0.1183185875415802, -0.16383127868175507, 0.17968058586120605, -0.13628359138965607, -0.018945064395666122, -0.13449621200561523, 0.2198573648929596, 0.1870354413986206, 0.05245384946465492, -0.13272830843925476]"
13,"[-0.08439517021179199, -0.03443725407123566, 0.008603989146649837, -0.059478044509887695, 0.08272133767604828, 0.07309352606534958, 0.05438458174467087, 0.02188323624432087, -0.027697868645191193, 0.05433349683880806, 0.09139282256364822, -0.017702840268611908, -0.050559137016534805, -0.012300455942749977, -0.03421410918235779, -0.035133540630340576, -0.0031054662540555, -0.009859062731266022, -0.08085498958826065, 0.02486574836075306, 0.09698782861232758, -0.05973993241786957, 0.026517409831285477, 0.008349915966391563, -0.057421814650297165, -0.045902445912361145, -0.05024808645248413, 0.09298457950353622, -0.06590580195188522, 0.05322444438934326, -0.03379233554005623, -0.09422203153371811, -0.043120089918375015, -0.010685179382562637, 0.01645585522055626, 0.003992005251348019, -0.0911308228969574, -0.07319479435682297, -0.03995153680443764, -0.047142550349235535, 0.00596974790096283, -0.09197524189949036, -0.040123067796230316, -0.038287173956632614, 0.014310695230960846, -0.0910801962018013, 0.06731929630041122, -0.0027309171855449677, -0.033233892172575, 0.00997793860733509, -0.06792721152305603, 0.07521506398916245, -0.045019589364528656, -0.08014703541994095, -0.0460921935737133, 0.05012828856706619, -0.06701163947582245, -0.0659046396613121, 0.0021160554606467485, -0.01241672970354557, 0.034551117569208145, -0.0910286009311676, 0.004475138615816832, -0.02480294555425644, 0.04231477901339531, 0.016206195577979088, 0.07993367314338684, -0.006072855554521084, -0.016918107867240906, 0.08345173299312592, 0.038676004856824875, 0.05680868774652481, -0.02253434620797634, 0.07053399831056595, 0.03769727423787117, -0.0496375598013401, 0.04345686733722687, 0.006432713009417057, -0.09584938734769821, 0.06669282913208008, 0.038764651864767075, -0.02691541239619255, -0.07619807869195938, -0.06210973486304283, -0.11607462912797928, 0.005892748478800058, -0.05643231049180031, -0.09284596890211105, 0.042150579392910004, -0.004462831653654575, -0.006921856664121151, -0.014382593333721161, -0.08076973259449005, -0.04669840261340141, -0.030681859701871872, 0.09506680816411972, 0.017021073028445244, 0.10265828669071198, 0.07674958556890488, -0.009920060634613037, 0.009799602441489697, 0.07839200645685196, 0.030929507687687874, -0.1011078804731369, -0.08775489032268524, 0.02183622308075428, 0.036494750529527664, -0.01151140034198761, -0.0698671042919159, 0.04921823740005493, 0.04401114210486412, 0.04000736027956009, -0.05952480062842369, 0.06542319059371948, -0.0830630362033844, -0.05076330527663231, 0.03448738902807236, 0.07894837856292725, -0.04978856444358826, 0.14142905175685883, 0.011854903772473335, -0.05667881295084953, 0.06647097319364548, 0.04151226207613945, 0.025839203968644142, 0.019705381244421005, 0.023995252326130867, 0.002756841015070677]"
14,"[-0.08978797495365143, 0.20374979078769684, -0.1295793205499649, -0.012058167718350887, 0.060370489954948425, -0.023734910413622856, 0.0017519105458632112, 0.01764238066971302, 0.06430172920227051, 0.15661965310573578, -0.11855972558259964, -0.07846609503030777, -0.00026187923504039645, -0.022311097010970116, -0.01957998052239418, -0.006802769377827644, 0.04191286861896515, 0.06490514427423477, 0.026367394253611565, 0.065437451004982, -0.1583871692419052, -0.07473232597112656, 0.014788862317800522, 0.01912105642259121, 0.01178600825369358, 0.13877710700035095, 0.10739416629076004, 0.03434421867132187, -0.10095394402742386, 0.0752139687538147, -0.05418487638235092, -0.034825000911951065, -0.023748982697725296, -0.11749406903982162, 0.06642575562000275, 0.05541425570845604, 0.026036016643047333, 0.016292497515678406, 0.15814907848834991, 0.11304695904254913, -0.23887498676776886, 0.01236344501376152, 0.0968945175409317, 0.07121991366147995, 0.13828909397125244, -0.008560143411159515, -0.13370345532894135, -0.057723838835954666, 0.029056215658783913, -0.08783473819494247, 0.050024256110191345, -0.11640047281980515, 0.12676307559013367, -0.03769157454371452, -0.2372399866580963, 0.07077895849943161, -0.08261243253946304, 0.011313563212752342, 0.0959300845861435, 0.021806534379720688, -0.12683475017547607, -0.1442979872226715, -0.026372628286480904, -0.1366811990737915, 0.1659207046031952, -0.0048884060233831406, 0.08733717352151871, -0.09311318397521973, 0.00012144459469709545, 0.01137236412614584, -0.1484033167362213, 0.1660749465227127, -0.012992145493626595, 0.17784780263900757, 0.22432899475097656, -0.03846028447151184, -0.14170898497104645, -0.05014612898230553, 0.0072017852216959, 0.19166214764118195, -0.08677206933498383, 0.06637407839298248, 0.002802362199872732, -0.09338481724262238, -0.17791607975959778, 0.03939718380570412, 0.07474742084741592, -0.1230892539024353, -0.09673953056335449, -0.0019093529554083943, -0.030397292226552963, -0.09171338379383087, -0.13711023330688477, 0.03269238397479057, -0.06482917070388794, 0.05130352824926376, -0.023319058120250702, 0.0896654799580574, -0.03660691902041435, -0.2284928262233734, -0.03624780848622322, 0.16153882443904877, -0.1516835242509842, -0.15101104974746704, 0.1566210687160492, 0.02989780344069004, -0.011520716361701488, 0.029843727126717567, -0.04881083965301514, -0.15743641555309296, 0.012567070312798023, 0.0630170926451683, -0.03408404439687729, 0.009893021546304226, -0.14934641122817993, -0.07763127982616425, 0.12698771059513092, 0.018782785162329674, -0.022975293919444084, 0.2289333939552307, -0.18027269840240479, -0.09080713242292404, -0.055558942258358, 0.12714701890945435, -0.10642214864492416, 0.0780811682343483, 0.08472740650177002, -0.021805057302117348]"
15,"[0.12255867570638657, 0.15243585407733917, -0.021588250994682312, 0.19235557317733765, 0.15286248922348022, 0.10773764550685883, -0.10330063849687576, 0.08499569445848465, 0.24454593658447266, 0.24366958439350128, 0.12200845032930374, 0.1503654420375824, -0.08072643727064133, 0.011289681307971478, 0.0556885227560997, -0.055008597671985626, -0.15208075940608978, 0.25931909680366516, -0.06871209293603897, -0.07228153198957443, -0.33188170194625854, -0.12853729724884033, -0.35876163840293884, 0.058374207466840744, 0.0870305523276329, -0.06361408531665802, 0.21470171213150024, 0.011544142849743366, -0.002099086996167898, 0.1254519522190094, -0.27528223395347595, -0.18456022441387177, 0.15681840479373932, 0.16893768310546875, 0.08094918727874756, -0.026394523680210114, 0.17953018844127655, 0.1758764684200287, 0.10337374359369278, 0.1843147873878479, 0.00016681513807270676, -0.21778492629528046, 0.12874284386634827, -0.04695310816168785, -0.09568321704864502, 0.1563625931739807, -0.18761540949344635, -0.048570580780506134, -0.03883204609155655, -0.019143469631671906, 0.0371604785323143, -0.1663604974746704, -0.03334954008460045, 0.11726590245962143, 0.2214139997959137, 0.23243096470832825, -0.03973422572016716, -0.06465626507997513, 0.007557080127298832, -0.2116524875164032, 0.11840800940990448, 0.17349867522716522, 0.033314887434244156, 0.08267010003328323, -0.015571217983961105, -0.025118302553892136, 0.013868708163499832, -0.41213876008987427, 0.06110835075378418, -0.06392355263233185, -0.4062875807285309, 0.015487957745790482, 0.030257100239396095, 0.07571492344141006, -0.2514305114746094, -0.11281075328588486, 0.09486074000597, 0.10090982913970947, -0.4031979739665985, 0.167890727519989, 0.06792283803224564, 0.015292043797671795, 0.05584648624062538, 0.04319336637854576, -0.13787618279457092, -0.11189039796590805, 0.05962703377008438, 0.13403120636940002, -0.008952734060585499, -0.24190014600753784, 0.030157238245010376, 0.3176913261413574, -0.16325309872627258, 0.02888130396604538, 0.005852262489497662, 0.22114558517932892, -0.06324667483568192, 0.07460521906614304, 0.04885812848806381, -0.12845134735107422, 0.003524075960740447, 0.10666202008724213, -0.009700614027678967, 0.08401703834533691, 0.14292418956756592, 0.07275515794754028, -0.0008119558915495872, 0.05666610226035118, -0.4630611836910248, 0.17952823638916016, 0.3506757318973541, 0.052152108401060104, 0.07815549522638321, -0.0451650507748127, 0.21386763453483582, -0.04454336687922478, -0.0026110555045306683, 0.05193132162094116, -0.013610802590847015, 0.2860897481441498, -0.2250426709651947, 0.294238418340683, -0.046887557953596115, 0.23590534925460815, 0.33770474791526794, 0.5141881704330444, 0.33330169320106506, 0.07507582753896713]"
16,"[0.3362458646297455, 0.18299803137779236, -0.039764076471328735, 0.01544972788542509, -0.06435590237379074, 0.37448129057884216, -0.035546742379665375, -0.011284640058875084, -0.27427107095718384, 0.1155770868062973, 0.037674739956855774, 0.030023423954844475, -0.091847725212574, 0.08170295506715775, -0.20489199459552765, -0.051223304122686386, -0.011324163526296616, -0.12328260391950607, 0.05549326539039612, 0.0314800962805748, 0.06422875821590424, -0.0936562791466713, 0.18358682096004486, -0.08865535259246826, -0.0017894775373861194, 0.12798045575618744, -0.010240890085697174, 0.27454644441604614, -0.09624610096216202, 0.048859309405088425, -0.14215439558029175, 0.12526096403598785, -0.14215806126594543, 0.06010968238115311, 0.05383990332484245, 0.05150014907121658, 0.25957468152046204, 0.18197740614414215, 0.022282075136899948, 0.027203328907489777, 0.001469306880608201, -0.12309178709983826, -0.029037758708000183, 0.19607871770858765, 0.12208772450685501, -0.18177177011966705, 0.13906894624233246, 0.0456075556576252, -0.06679028272628784, 0.1146298497915268, -0.1574556827545166, -0.18761631846427917, 0.10878238081932068, -0.008753693662583828, 0.07618497312068939, -0.06828471273183823, -0.0633610412478447, -0.0983927845954895, -0.09656468033790588, 0.17896468937397003, 0.09094549715518951, -0.1535315215587616, -0.15458160638809204, 0.011480097658932209, 0.0731661468744278, -0.06467976421117783, 0.08472553640604019, 0.24018225073814392, 0.13788075745105743, 0.06358978152275085, 0.0056137507781386375, 0.19841299951076508, 0.005072984844446182, 0.11557414382696152, 0.08198986947536469, 0.13852186501026154, -0.3316226601600647, -0.04673481360077858, 0.23849645256996155, -0.053991712629795074, -0.016504446044564247, 0.05145655572414398, 0.05352464318275452, -0.1480974406003952, 0.21183666586875916, 0.15600483119487762, -0.09604736417531967, -0.2949013411998749, 0.05696740373969078, 0.04625914618372917, -0.04987143352627754, 0.03097548335790634, 0.11652427911758423, -0.18119601905345917, 0.026138542219996452, -0.07711035013198853, -0.22280749678611755, 0.06329505145549774, 0.05163731053471565, -0.14319536089897156, -0.2204761505126953, -0.2566097378730774, 0.20215266942977905, -0.05686117708683014, 0.04050930216908455, 0.21944595873355865, 0.07177890837192535, -0.13778343796730042, -0.005076572299003601, -0.10976634174585342, 0.10393105447292328, -0.15284693241119385, 0.2129340022802353, 0.2239319533109665, -0.08512687683105469, 0.046976763755083084, 0.199258491396904, -0.03575367480516434, -0.06478163599967957, -0.26636263728141785, 0.13406702876091003, -0.27394357323646545, -0.21992528438568115, -0.08937495946884155, -0.12111928313970566, 0.016076762229204178, -0.09732196480035782, 0.15361836552619934]"
17,"[0.19251231849193573, 0.054200030863285065, -0.21273379027843475, 0.06278056651353836, 0.1712709218263626, 0.519206702709198, -0.10851734131574631, 0.021399833261966705, -0.08612190932035446, 0.07573170214891434, -0.2705678641796112, 0.04733175039291382, 0.03392166271805763, -0.06530869007110596, -0.09407302737236023, 0.11448225378990173, 0.1360875517129898, -0.20449183881282806, 0.03753037378191948, -0.009902571327984333, -0.17173966765403748, -0.1632934957742691, 0.03329441696405411, -0.07447389513254166, -0.05939200147986412, 0.14354895055294037, 0.1829955130815506, 0.02483471669256687, 0.046501316130161285, 0.09616267681121826, 0.11285549402236938, -0.02109873853623867, -0.05816541984677315, -0.18049611151218414, -0.05687827616930008, -0.0234434325248003, 0.16848933696746826, 0.06390661001205444, -0.2768673300743103, -0.10727889090776443, -0.07962346822023392, 0.03605144843459129, 0.04385058209300041, 0.29395368695259094, -0.07704614102840424, 0.023477762937545776, -0.05430782213807106, -0.09078718721866608, -0.06176561117172241, 0.14224094152450562, -0.05811782553792, -0.22747349739074707, 0.12360087782144547, 0.1343061476945877, 0.3743923008441925, 0.006446759682148695, 0.07443996518850327, 0.19278913736343384, -0.10460573434829712, 0.0685955062508583, 0.2667667865753174, 0.06418632715940475, -0.030526001006364822, 0.0719248503446579, -0.27875107526779175, -0.03805539011955261, 0.17347665131092072, 0.1391027420759201, 0.14129045605659485, -0.0950457900762558, -0.09845911711454391, 0.05230092257261276, -0.09776268899440765, -0.13652020692825317, -0.32351160049438477, -0.2561759054660797, 0.06737108528614044, 0.15207253396511078, -0.029710356146097183, -0.13641376793384552, -0.003286337712779641, 0.11528928577899933, -0.027638573199510574, 0.006536017172038555, 0.2566682994365692, 0.14907443523406982, -0.020967015996575356, -0.0017311177216470242, 0.014037435874342918, -0.09903055429458618, -0.18349136412143707, -0.008891328237950802, 0.44097188115119934, -0.06521196663379669, 0.23402424156665802, -0.1296800822019577, 0.04370458424091339, -0.026855748146772385, -0.020109517499804497, -0.018610024824738503, -0.024580033496022224, -0.08913075923919678, 0.12934699654579163, -0.15177014470100403, 0.07035858929157257, 0.42797595262527466, 0.08190266788005829, -0.17979153990745544, -0.315498024225235, 0.19159305095672607, 0.28238645195961, -0.09130753576755524, 0.03546540439128876, 0.2322087436914444, 0.21195727586746216, -0.05532515421509743, -0.16108593344688416, -0.10486871749162674, 0.10022584348917007, -0.0838858038187027, 0.29223522543907166, 0.2459017038345337, -0.20135466754436493, -0.1676865667104721, -0.07064337283372879, -0.09709455817937851, -0.09029940515756607, 0.22174100577831268]"
18,"[0.1608491837978363, 0.011778085492551327, 0.04842952638864517, -0.04354250058531761, 0.002122166333720088, 0.29656413197517395, 0.10901091247797012, -0.008874264545738697, 0.12679436802864075, 0.15903902053833008, 0.1054452657699585, 0.15896297991275787, -0.08374294638633728, 0.009637830778956413, 0.14356684684753418, -0.0989438071846962, 0.05055835098028183, 0.13794562220573425, -0.0804578959941864, -0.0999438613653183, -0.2005498856306076, -0.1309250295162201, -0.16365985572338104, 0.0006108023808337748, 0.005289526656270027, 0.1772446632385254, -0.044654134660959244, -0.09980834275484085, -0.08942504972219467, 0.13488097488880157, -0.2542322278022766, -0.22874349355697632, -0.09990555793046951, 0.04705466330051422, 0.06736026704311371, 0.08707273751497269, -0.01573583483695984, 0.11953818798065186, 0.11841883510351181, 0.11764147132635117, 0.02428501285612583, -0.023697542026638985, 0.20585282146930695, -0.08905978500843048, 0.16637443006038666, -0.15185509622097015, -0.02165938727557659, 0.0716024711728096, -0.0508161336183548, -0.11250706017017365, 0.01816653273999691, 0.0031547623220831156, 0.07665891945362091, 0.19453994929790497, 0.041272763162851334, 0.0765397846698761, -0.08807250112295151, -0.17980310320854187, 0.0750027671456337, -0.020427778363227844, 0.021154185757040977, 0.001817395444959402, -0.16651223599910736, -0.098909892141819, 0.06446021050214767, 0.04654413461685181, 0.15262392163276672, -0.0437624454498291, -0.05015294626355171, -0.04124189168214798, 0.052363425493240356, 0.11501732468605042, -0.1460050493478775, 0.06838122010231018, 0.06031114235520363, 0.12848062813282013, -0.009917705319821835, -0.036836590617895126, -0.15567940473556519, 0.08346027135848999, 0.025358371436595917, 0.03094044327735901, -0.02306973934173584, 0.009890139102935791, 0.16399578750133514, -0.09799983352422714, 0.1259698122739792, -0.11832605302333832, 0.017063505947589874, 0.04005422070622444, -0.0238896906375885, -0.11665016412734985, 0.17260845005512238, 0.057899631559848785, -0.3007248342037201, -0.06270965933799744, 0.021415865048766136, 0.020833542570471764, -0.029915140941739082, 0.0708499327301979, -0.2791839838027954, -0.15486423671245575, -0.06989365071058273, -0.013158692978322506, 0.19084058701992035, 0.1253386288881302, -0.04569394513964653, -0.0042092399671673775, -0.03455192223191261, -0.12065357714891434, -0.052298493683338165, -0.060227371752262115, 0.1421383172273636, 0.08164958655834198, -0.2413327693939209, 0.042392123490571976, 0.028661290183663368, 0.012280929833650589, 0.14922332763671875, -0.04578162357211113, 0.0121486010029912, 0.05452226474881172, -0.23534567654132843, 0.1703186333179474, -0.028786057606339455, -0.11620691418647766, -0.13915812969207764, -0.1563606858253479]"
19,"[-0.10383253544569016, 0.18802079558372498, 0.08510443568229675, -0.09391472488641739, 0.12323222309350967, 0.007581180427223444, -0.02818339318037033, 0.08254707604646683, -0.1493365466594696, 0.0670948401093483, -0.2326054573059082, 0.1187656819820404, 0.15830262005329132, -0.08356775343418121, 0.11881065368652344, 0.24536412954330444, 0.2539304494857788, -0.2391427457332611, -0.08185860514640808, -0.1074879989027977, 0.2093050330877304, 0.12036263942718506, -0.007401077076792717, -0.06401480734348297, -0.020189398899674416, 0.029422642663121223, 0.3145882785320282, 0.1620960384607315, -0.15895816683769226, -0.005426062736660242, -0.10851795226335526, 0.37139949202537537, -0.07288581877946854, -0.17173440754413605, -0.011894024908542633, 0.0069345468655228615, -0.20735016465187073, -0.033266156911849976, -0.18780335783958435, -0.09820497035980225, 0.040380723774433136, 0.09023226797580719, -0.1015138104557991, -0.005181815009564161, -0.05502834916114807, -0.012472691014409065, 0.0833810418844223, 0.12471333146095276, 0.04644530266523361, 0.25340694189071655, 0.04476507380604744, 0.07321233302354813, -0.060008544474840164, 0.13310134410858154, -0.12018867582082748, -0.05142781883478165, -0.03970034047961235, 0.07437168061733246, 0.16320379078388214, -0.10308218002319336, -0.1632249653339386, -3.9858998206909746e-05, 0.032513558864593506, -0.14549049735069275, -0.10239749401807785, -0.014466783031821251, 0.22563277184963226, 0.2850559949874878, 0.11333329975605011, 0.1730174571275711, 0.13713325560092926, 0.04868931695818901, -0.2797626852989197, 0.06316385418176651, 0.1922118067741394, 0.005150203127413988, -0.11976934969425201, -0.016561876982450485, 0.09465353190898895, -0.1840926557779312, 0.05324534326791763, 0.18838515877723694, 0.051641352474689484, 0.06019924581050873, 0.06294521689414978, 0.1155858188867569, -0.12923654913902283, -0.13742119073867798, 0.03389161080121994, 0.07152857631444931, 0.12255372107028961, -0.3010042607784271, -0.05989982932806015, 0.06409086287021637, 0.06487405300140381, 0.012129361741244793, -0.07324426621198654, 0.09254083782434464, -0.07792622596025467, -0.029328232631087303, 0.11335773020982742, 0.13825389742851257, 0.24543209373950958, -0.10174252837896347, 0.08819220960140228, -0.11938104778528214, 0.05837247520685196, 0.24579432606697083, 0.07731062918901443, 0.07466187328100204, -0.07600851356983185, -0.08171948045492172, -0.07065733522176743, -0.11415526270866394, 0.0001412451674696058, -0.06627388298511505, -0.1229369267821312, -0.09330495446920395, 0.24426062405109406, -0.28680506348609924, 0.16532503068447113, -0.28062039613723755, 0.03520277142524719, -0.20627915859222412, 0.07960974425077438, -0.2697165608406067, -0.1268872320652008, 0.12398563325405121]"
20,"[-0.07653879374265671, 0.11914434283971786, -0.014853273518383503, 0.23187313973903656, 0.21800971031188965, 0.04678872600197792, 0.1460447609424591, -0.00030337803764268756, 0.12631456553936005, -0.054667841643095016, 0.041174132376909256, -0.0007959273643791676, -0.08879256248474121, 0.05622684583067894, 0.1331266611814499, -0.03589426726102829, -0.0441754087805748, -0.0674857348203659, -0.06904677301645279, 0.04926304146647453, -0.08200275152921677, -0.037619274109601974, 0.050709351897239685, 0.03768010437488556, 0.06321988254785538, 0.017208479344844818, 0.20279213786125183, -0.10492832213640213, 0.10116279870271683, 0.17179560661315918, 0.13073435425758362, -0.12930111587047577, -0.006977470126003027, -0.18299590051174164, -0.0014404704561457038, -0.03974393755197525, 0.10428538173437119, 0.10056251287460327, -0.08891401439905167, 0.16482655704021454, 0.03511732071638107, 0.11051992326974869, 0.15395690500736237, 0.03666657209396362, 0.06642529368400574, 0.2601919174194336, -0.13657507300376892, 0.008294625207781792, 0.05952601507306099, 0.18176543712615967, -0.07666485756635666, -0.05617798864841461, 0.15393008291721344, 0.0985226258635521, 0.0072785778902471066, -0.05201968923211098, 0.0072763822972774506, 0.0824766680598259, 0.03726041689515114, 0.1877078413963318, 0.13408878445625305, 0.20169535279273987, 0.07720670104026794, 0.006589767523109913, -0.19609883427619934, -0.01459581684321165, 0.08746789395809174, -0.04360586404800415, -0.032556697726249695, -0.11612413823604584, -0.0687454491853714, -0.11856585741043091, -0.02480466105043888, -0.14620640873908997, -0.2579072117805481, -0.2225610315799713, 0.2799072563648224, 0.1815636307001114, -0.1155136451125145, -0.08263594657182693, -0.081114761531353, 0.04904016852378845, 0.0030740920919924974, 0.08951561152935028, -0.11515355110168457, 0.008320207707583904, 0.1944822072982788, 0.2657947540283203, -0.1715439110994339, -0.20619480311870575, -0.08366401493549347, -0.1016165241599083, 0.332385390996933, 0.012806588783860207, 0.1768893152475357, -0.06922486424446106, 0.0949273556470871, -0.11704046279191971, -0.09016642719507217, 0.10110791772603989, 0.14621232450008392, -0.04705284908413887, -0.09263697266578674, 0.0392511785030365, -0.054387081414461136, 0.2331022024154663, -0.025831812992691994, -0.11153872311115265, -0.11810720711946487, 0.1363229602575302, 0.19937938451766968, 0.1639460027217865, -0.05012457072734833, 0.08110854029655457, 0.27871108055114746, 0.002929745940491557, -0.08676677197217941, -0.04018179699778557, -0.13667631149291992, 0.1752682775259018, 0.1362452507019043, 0.46363651752471924, 0.11032416671514511, 0.20709453523159027, 0.07615216821432114, -0.11416533589363098, 0.10686387866735458, 0.13107825815677643]"
21,"[-0.025481054559350014, -0.023062117397785187, -0.016742166131734848, -0.06617569923400879, -0.04411640018224716, -0.08188735693693161, 0.037452369928359985, 0.011362790130078793, 0.002141228411346674, 0.07902844995260239, -0.010052674449980259, 0.054849445819854736, -0.08000441640615463, -0.04981091618537903, -0.07510281354188919, 0.017136475071310997, 0.047505516558885574, -0.056473709642887115, -0.04596337303519249, -0.010089020244777203, -0.02786647155880928, -0.003714026650413871, -0.005892348475754261, 0.022102322429418564, 0.0692271739244461, -0.03122078999876976, 0.04545284062623978, -0.05585731193423271, -0.01807273179292679, -0.037573907524347305, -0.08169759809970856, -0.08010749518871307, 0.026769734919071198, -0.06424355506896973, -0.08350328356027603, -0.056937068700790405, 0.0017994755180552602, 0.00042490597115829587, 0.05328383296728134, 0.005672820378094912, 0.0008738794713281095, -0.03497267886996269, -0.020648019388318062, -0.05510605499148369, 0.05253060162067413, 0.008450087159872055, -0.020544184371829033, -0.04010533541440964, -0.045414991676807404, 0.03636031597852707, 0.03195379301905632, 0.001262446865439415, -0.00537129258736968, -0.05388260632753372, -0.05055063217878342, -0.060399558395147324, -0.057810522615909576, -0.02444985881447792, 0.04534899815917015, -0.06293988227844238, 0.08092963695526123, -0.057169537991285324, 0.010988806374371052, -0.021364551037549973, -0.05251624062657356, -0.015865502879023552, -0.037124235183000565, 0.05545688793063164, -0.01809711754322052, 0.07719047367572784, -0.06656979769468307, -0.0058375755324959755, -0.03920023888349533, 0.0062978495843708515, 0.001064805081114173, -0.02282402664422989, 0.05998823419213295, -0.08473525196313858, -0.07222840189933777, -0.00935058481991291, 0.015734320506453514, 0.007230684626847506, 0.049961019307374954, -0.0626196414232254, -0.04304608330130577, 0.0619824044406414, 0.006582299247384071, -0.015801625326275826, -0.02281884476542473, -0.02207738719880581, 0.04950684681534767, -0.012187552638351917, -0.06498798727989197, -0.06652519106864929, -0.010926495306193829, -0.0722956657409668, -0.021348387002944946, 0.0029283277690410614, 0.050057075917720795, -0.0523957796394825, -0.0014171459479257464, -0.0013709121849387884, -0.02109053172171116, 0.06418450176715851, -0.06495014578104019, -0.07981092482805252, 0.023069988936185837, -0.05486300215125084, 0.0378207303583622, 0.07375828176736832, -0.08208554983139038, -0.04022747278213501, 0.012139772064983845, 0.008594314567744732, -0.03865832835435867, -0.03435411676764488, 0.05538755655288696, 0.08634979277849197, -0.08358582109212875, -0.04074324294924736, -0.06318254768848419, -0.04979975149035454, -0.05390850827097893, 0.032784830778837204, 0.0394611731171608, 0.03800109028816223, 0.07267335802316666, -0.016441889107227325]"
22,"[-0.059173982590436935, 0.12161779403686523, 0.13698077201843262, -0.15074187517166138, 0.1555073857307434, -0.08035706728696823, 0.28413665294647217, 0.08261366188526154, -0.10601850599050522, 0.06119443476200104, 0.15832829475402832, 0.0631294995546341, 0.02473902702331543, 0.07013799995183945, 0.13165214657783508, -0.030424127355217934, 0.03029770776629448, -0.05790185183286667, -0.005738130304962397, 0.11797621846199036, -0.030261371284723282, 0.05205756053328514, 0.014745712280273438, 0.043962910771369934, -0.005988511722534895, -0.06341446191072464, 0.04214184358716011, 0.07072847336530685, 0.08441229909658432, -0.06580288708209991, -0.25846073031425476, -0.14956602454185486, -0.051061566919088364, 0.013742794282734394, 0.06979528069496155, -0.07060091942548752, 0.16632160544395447, -0.07141014188528061, 0.08226965367794037, 0.015991931781172752, 0.1254388689994812, 0.1367294043302536, -0.016191337257623672, 0.06395508348941803, 0.07384473830461502, -0.04588453844189644, 0.06742502748966217, 0.08695393055677414, 0.06836821138858795, -0.08559885621070862, -0.05514879524707794, 0.15670114755630493, -0.007507167290896177, 0.06113080307841301, 0.002735475078225136, 0.1282433271408081, -0.033625878393650055, -0.005554597824811935, 0.0459168516099453, 0.12065275013446808, -0.11218425631523132, -0.05979084223508835, -0.02304167114198208, -0.010070408694446087, 0.05827799811959267, 0.06360284984111786, 0.04144646227359772, -0.2861763536930084, 0.015999754890799522, 0.11244290322065353, -0.0074128820560872555, -0.03066236339509487, -0.022256195545196533, 1.96849196072435e-05, 0.1324244886636734, 0.005215139593929052, -0.19677037000656128, -0.14696307480335236, 0.006359720136970282, 0.08926955610513687, -0.07794803380966187, 0.032169487327337265, 0.008503742516040802, 0.0229299645870924, 0.12930378317832947, -0.14122676849365234, -0.13148614764213562, -0.13555128872394562, 0.04313268885016441, -0.11308667063713074, 0.12674614787101746, -0.041899580508470535, -0.15926527976989746, 0.17766572535037994, -0.1380709856748581, -0.12350033223628998, -0.13240428268909454, 0.0696149542927742, 0.12975101172924042, 0.08934662491083145, -0.1281988024711609, -0.11539538204669952, 0.01785602606832981, 0.018987175077199936, 0.024864640086889267, -0.2306329607963562, -0.00740031385794282, 0.007294687908142805, 0.189803808927536, -0.11209265887737274, -0.008186710067093372, 0.13335932791233063, 0.07214618474245071, -0.10679508745670319, -0.04556959122419357, -0.038369156420230865, 0.02621392533183098, -0.019185256212949753, -0.009318593889474869, -0.15255913138389587, -0.17108622193336487, -0.07387170940637589, -0.011890937574207783, 0.06426262110471725, -0.051372140645980835, -0.1588098406791687, -0.13644349575042725, 0.031217416748404503]"
23,"[-0.005584056954830885, -0.07768304646015167, 0.01436733640730381, 0.034298427402973175, 0.05958269163966179, -0.05813980847597122, -0.025953182950615883, 0.03976811096072197, 0.04651198536157608, 0.012633902952075005, 0.07407400757074356, 0.034559883177280426, -0.06141027808189392, -0.05173536390066147, -0.07811028510332108, -0.0793401449918747, 0.04793279990553856, 0.02109149657189846, 0.024906838312745094, 0.028629446402192116, -0.003716512816026807, -0.008117577992379665, -0.022969558835029602, -0.03218180686235428, -0.024041447788476944, 0.0015310159651562572, -0.09023243933916092, -0.07208811491727829, -0.03495803102850914, -0.06028326228260994, -0.024540839716792107, -0.045762088149785995, 0.03533163666725159, -0.07680260390043259, 0.060641612857580185, 0.015485853888094425, -0.07836705446243286, 0.018562031909823418, -0.0793912261724472, 0.07073821872472763, -0.023545820266008377, 0.0004135872586630285, -0.05524866655468941, -0.03884552791714668, -0.015044941566884518, -0.057555072009563446, 0.06758610904216766, -0.064204141497612, -0.04246150702238083, -0.03713993355631828, 0.07107153534889221, 0.00598825654014945, 0.03170885518193245, 0.03305746614933014, 0.03203262388706207, -0.028602512553334236, -0.07967156916856766, 0.054589033126831055, -0.010185371153056622, -0.06981070339679718, -0.0036934451200067997, 0.014103110879659653, 0.07807499915361404, 0.07620091736316681, 0.03512130677700043, -0.06364847719669342, -0.019321195781230927, 0.05694339796900749, -0.0905032679438591, -0.03750547021627426, 0.05150866508483887, 0.05045529827475548, -0.0011633636895567179, -0.006918687839061022, -0.015350433066487312, -0.039264168590307236, 0.056795623153448105, -0.02590424381196499, -0.054317496716976166, -0.06971073895692825, -0.08837665617465973, 0.06946397572755814, -0.07972811907529831, 0.011045915074646473, -0.043703239411115646, -0.06405305117368698, 0.04651173576712608, 0.06804251670837402, 0.035155899822711945, 0.04839378967881203, -0.05470292642712593, 0.024072028696537018, -0.05771520361304283, -0.07036177814006805, 0.03196854889392853, 0.07501495629549026, 0.0017016124911606312, 0.06654088199138641, 0.07750246673822403, 0.07577028125524521, 0.012258397415280342, -0.0473894365131855, -0.04503072053194046, -0.020164543762803078, -0.08374470472335815, -0.0707593783736229, -0.030556410551071167, 0.030123192816972733, -0.025380169972777367, -0.03646991774439812, -0.07076708227396011, -0.04080045223236084, -0.08901315927505493, 0.007408511359244585, -0.06787988543510437, -0.03670167550444603, -0.03577643632888794, 0.04984622821211815, 0.016082610934972763, -0.023547926917672157, 0.060570359230041504, -0.028734037652611732, -0.027529491111636162, 0.03569607809185982, 0.0664021372795105, -0.031805988401174545, 0.05417632311582565, -0.010563225485384464]"
24,"[-0.010369827970862389, 0.05394074693322182, -0.043751299381256104, 0.14059171080589294, -0.15484806895256042, 0.3859306275844574, -0.03839677572250366, -0.07142753899097443, -0.07339824736118317, -0.09788908064365387, -0.1414014846086502, 0.1717452108860016, 0.05077257752418518, 0.060251686722040176, -0.007097010500729084, 0.13653278350830078, -0.0676620826125145, -0.04688281565904617, 0.02710542269051075, 0.0023468807339668274, -0.01636502519249916, -0.0196381825953722, -0.1252114176750183, 0.08623930811882019, -0.05669866502285004, 0.11491997539997101, 0.14529959857463837, -0.07443079352378845, -0.07234879583120346, -0.014056374318897724, -0.04576908051967621, 0.05070088058710098, 0.008285153657197952, -0.046458203345537186, 0.05385192483663559, -0.04460367187857628, 0.04865708202123642, 0.016197772696614265, 0.142103910446167, 0.0723046138882637, 0.07071457803249359, -0.03114395961165428, 0.21208415925502777, -0.15153934061527252, 0.1395462602376938, -0.08198680728673935, 0.11978595703840256, 0.05617981404066086, 0.07038386911153793, 0.04544573277235031, 0.059304509311914444, -0.12210217863321304, -0.020419934764504433, 0.1009993627667427, -0.07448159158229828, -0.003202570602297783, 0.01428148616105318, 0.03085816092789173, 0.07498768717050552, 0.1414150595664978, 0.2198391556739807, -0.0894639864563942, -0.1127391904592514, 0.05615733563899994, 0.027571503072977066, 0.01869831047952175, 0.21322791278362274, 0.18013104796409607, 0.0237470343708992, -0.031543828547000885, -0.1265385001897812, 0.04192839935421944, -0.20750564336776733, 0.04212992265820503, 0.03703726828098297, -0.17321400344371796, 0.014484044164419174, 0.14827805757522583, -0.10059282183647156, -0.11917278915643692, 0.07671114057302475, 0.14281052350997925, -0.058548152446746826, 0.09699904173612595, 0.18808497488498688, 0.08691251277923584, 0.07459212094545364, -0.10504911094903946, 0.06074395403265953, 0.20925898849964142, -0.013381208293139935, -0.047205518931150436, 0.06991797685623169, -0.21798299252986908, -0.18309083580970764, 0.10125771164894104, 0.05338883772492409, 0.08687859028577805, -0.04394635185599327, 0.17387144267559052, -0.055863603949546814, -0.2297450453042984, 0.07137792557477951, -0.11957019567489624, 0.11638794094324112, 0.1452719122171402, 0.07123329490423203, 0.08400588482618332, 0.05046728253364563, 0.11991279572248459, 0.09865932166576385, -0.18374501168727875, 0.13639314472675323, 0.07296612113714218, 0.01828753389418125, -0.03541431948542595, -0.06911642849445343, -0.038265395909547806, 0.2157517373561859, -0.15317992866039276, -0.018874919041991234, -0.12333262711763382, -0.1456291228532791, -0.1052965596318245, -0.047813404351472855, -0.07271327078342438, -0.0007717419066466391, -0.019332842901349068]"
25,"[0.0267369132488966, 0.08862856030464172, -0.07707732915878296, -0.006287397816777229, -0.004501426592469215, 0.002613124903291464, -0.06713923811912537, 0.07977277040481567, -0.05952522158622742, -0.04661298915743828, -0.035142574459314346, 0.028442390263080597, 0.09588029235601425, 0.00434165308251977, -0.03632165119051933, -0.024415835738182068, -0.03195222467184067, -0.008195330388844013, 0.06721185147762299, 0.09881336987018585, -0.02834475040435791, -0.0447479672729969, -0.08533009141683578, -0.060635149478912354, -0.06032944098114967, 0.011401012539863586, 0.025881260633468628, -0.01173071376979351, -0.047388337552547455, -0.01762673631310463, -0.1085105836391449, 0.08362948894500732, -0.052439890801906586, 0.014270352199673653, 0.06667430698871613, 0.06573230028152466, -0.09737498313188553, -0.11157366633415222, 0.046349383890628815, 0.020828720182180405, 0.08995760977268219, -0.08554133772850037, -0.09473234415054321, 0.01453277189284563, -0.05102091282606125, -0.08320094645023346, 0.02946900948882103, -0.038924090564250946, -0.038488637655973434, 0.052560191601514816, -0.026735521852970123, -0.06600417196750641, -0.0713801458477974, 0.04746663197875023, 0.07046754658222198, -0.0897122472524643, -0.06448095291852951, -0.041937414556741714, -0.027565540745854378, -0.0545463003218174, 0.03918156400322914, -0.015976963564753532, 0.022042999044060707, -0.003353169420734048, 0.08764283359050751, -0.0040236772038042545, -0.0545644536614418, 0.08879446983337402, -0.019725777208805084, 0.08721064031124115, -0.03383651748299599, -0.026941727846860886, 0.07599738240242004, 0.044210728257894516, -0.03365142270922661, -0.04680964723229408, -0.053823135793209076, 0.10762054473161697, -0.038283571600914, -0.09333435446023941, -0.0513751357793808, 0.024868471547961235, 0.04171967878937721, 0.05861569195985794, -0.04716205224394798, -0.059703364968299866, 0.007368822582066059, -0.08139774948358536, 0.05971569940447807, -0.016612518578767776, 0.08291379362344742, -0.08564329147338867, 0.07895553857088089, -0.08512185513973236, 0.0042689708061516285, 0.016268068924546242, 0.06669741868972778, 0.011135593056678772, -0.02780982106924057, -0.03350117430090904, -0.06313690543174744, 0.02656622976064682, 0.04707998409867287, 0.0557214729487896, -0.03480459377169609, 0.04410813748836517, -0.06736385077238083, 0.052945349365472794, 0.03191559761762619, 0.04380634054541588, -0.0034169794525951147, -0.008587764576077461, 0.08502285927534103, -0.10582774132490158, -0.003669466357678175, 0.06823069602251053, 0.10568366944789886, 0.03476051986217499, -0.054962754249572754, 0.08882223814725876, -0.028928184881806374, -0.029228782281279564, 0.09033498167991638, -0.048591092228889465, 0.11247646063566208, -0.056866034865379333, 0.014115850441157818, -0.06512303650379181]"
26,"[-0.05944861099123955, 0.284457266330719, 0.025969689711928368, 0.03375262767076492, -0.0041420129127800465, -0.10238368064165115, 0.009300281293690205, -0.011121997609734535, 0.24794641137123108, 0.24232013523578644, 0.06480828672647476, -0.22357137501239777, 0.15902289748191833, -0.08588775992393494, 0.1068316102027893, -0.22964292764663696, 0.025658024474978447, 0.09484364837408066, 0.028386037796735764, 0.14215870201587677, -0.07230903208255768, 0.01826472207903862, 0.12363763153553009, 0.04561511054635048, -0.050308000296354294, 0.10369626432657242, 0.14389672875404358, 0.09087640047073364, -0.1717717945575714, 0.02139330841600895, -0.20501944422721863, -0.2504546046257019, -0.10193449258804321, -0.1900891363620758, 0.042859673500061035, 0.010440929792821407, 0.10029871761798859, 0.07346075773239136, 0.06402703374624252, 0.24038396775722504, -0.14281444251537323, -0.11860740184783936, -0.027047976851463318, -0.07607264071702957, 0.008992654271423817, 0.008564047515392303, -0.01778789423406124, 0.06734784692525864, -0.06768590956926346, -0.08786197006702423, 0.08238346129655838, -0.12484081834554672, 0.11362745612859726, 0.07217063754796982, -0.25327596068382263, 0.16126616299152374, 0.058866098523139954, -0.021060986444354057, 0.07209153473377228, 0.04555466026067734, -0.21190211176872253, -0.17802830040454865, -0.04849230870604515, -0.20500224828720093, 0.10138832032680511, -0.04031570255756378, 0.15870822966098785, -0.179829403758049, 0.03362003341317177, -0.014526885002851486, -0.14543911814689636, 0.12858130037784576, 0.05153658986091614, 0.2168348878622055, 0.24345792829990387, 0.05581839755177498, 0.009100018069148064, -0.2502302825450897, -0.22135387361049652, 0.298925518989563, -0.054778359830379486, 0.014233162626624107, -0.04356960207223892, -0.1418319046497345, -0.20523321628570557, -0.054106563329696655, 0.05973511561751366, -0.04933726787567139, 0.07216165959835052, -0.11200938373804092, -0.1556330919265747, -0.18944352865219116, -0.16154614090919495, 0.011909541673958302, -0.18731504678726196, -0.09049823135137558, -0.2220762073993683, 0.04845653846859932, 0.04603744298219681, -0.258182168006897, 0.06390324234962463, 0.13307470083236694, -0.15364430844783783, -0.18341457843780518, 0.14326496422290802, 0.0422380156815052, -0.004618733190000057, -0.10200770199298859, -0.0713256448507309, -0.14916613698005676, 0.03825540095567703, 0.011200056411325932, -0.03232860565185547, 0.06677661836147308, -0.3507801294326782, -0.028249012306332588, 0.13214156031608582, -0.014774047769606113, -0.24956239759922028, 0.29474130272865295, -0.1930588334798813, -0.037970926612615585, 0.03533388301730156, 0.2502223253250122, -0.08089842647314072, -0.046257488429546356, 0.27694275975227356, -0.07133592665195465]"
27,"[-0.21659928560256958, 0.14087466895580292, 0.14597578346729279, 0.2481508105993271, -0.04278144985437393, -0.17233066260814667, 0.08218691498041153, 0.08861203491687775, 0.13869798183441162, -0.06906914710998535, 0.21046438813209534, 0.02102816291153431, -0.17901110649108887, -0.028405731543898582, -0.03616344556212425, -0.08525191247463226, -0.016448548063635826, 0.00844936165958643, -0.0006722637335769832, -0.14001810550689697, 0.1791153997182846, -0.061991747468709946, 0.2887648046016693, 0.06880199164152145, -0.0155284209176898, 0.09060073643922806, -0.17598123848438263, 0.008045722730457783, -0.027987206354737282, 0.24718783795833588, 0.24948954582214355, 0.0752434954047203, 0.02671179175376892, -0.06623701006174088, -0.148697629570961, -0.035469990223646164, -0.1920601725578308, -0.08061272650957108, -0.21499313414096832, 0.01788339391350746, 0.07029131054878235, -0.11555531620979309, -0.10191334038972855, -0.2647493779659271, 0.03469716012477875, 0.027931183576583862, -0.101617231965065, -0.07207750529050827, 0.0038153864443302155, 0.027422767132520676, 0.09321054071187973, 0.1231282651424408, 0.1663246750831604, -0.0706656351685524, -0.00874062068760395, 0.04979318380355835, 0.0664682686328888, -0.10512776672840118, 0.061429642140865326, 0.052934322506189346, -0.05432269349694252, 0.1975201666355133, 0.2535775899887085, -0.08376824110746384, -0.1041511669754982, -0.012048004195094109, 0.1613437831401825, 0.10413046181201935, 0.07051358371973038, -0.15404079854488373, 0.1543237864971161, 0.135238915681839, 0.17179995775222778, 0.043248988687992096, 0.3730732202529907, 0.13222399353981018, 0.08612946420907974, -0.03785407915711403, 0.22838984429836273, -0.03106057457625866, 0.0117581682279706, -0.03102150373160839, 0.040310245007276535, -0.13771997392177582, -0.11457409709692001, 0.10590844601392746, 0.18839265406131744, 0.16710735857486725, -0.13374623656272888, -0.045586902648210526, -0.19382834434509277, -0.17338761687278748, -0.007164116017520428, 0.01777343824505806, -0.1268949806690216, 0.02636396884918213, 0.16497497260570526, 0.04830724000930786, 0.021282466128468513, -0.037087276577949524, 0.14351661503314972, 0.2182638794183731, -0.29161813855171204, 0.1505098193883896, -0.13341058790683746, 0.011000560596585274, -0.04250513017177582, -0.16905203461647034, -0.08357127010822296, 0.0685492753982544, -0.3682669997215271, 0.1921355277299881, -0.134044349193573, 0.07260293513536453, -0.10652069002389908, 0.002184681361541152, -0.052917398512363434, 0.08856384456157684, -0.1004851907491684, 0.24882343411445618, 0.23709262907505035, -0.016874389722943306, 0.12754404544830322, 0.1280662566423416, 0.06403229385614395, -0.21886129677295685, 0.020806023851037025, -0.04546945542097092]"
28,"[0.005388134159147739, -0.03435390815138817, -0.03392358869314194, 0.06703269481658936, -0.08741631358861923, -0.06897841393947601, 0.00955093465745449, 0.010516286827623844, 0.0073049296624958515, -0.020500365644693375, -0.07181321829557419, -0.04868311062455177, 0.024966035038232803, 0.03016369789838791, -0.07067951560020447, -0.07222907990217209, -0.04620930552482605, -0.03196705877780914, 0.08231189101934433, -0.029408926144242287, -0.0288693867623806, -0.050433315336704254, 0.06457928568124771, -0.016109278425574303, 0.01181803923100233, -0.08910701423883438, 0.047176096588373184, 0.034001123160123825, -0.004519016016274691, 0.030329501256346703, 0.05976712703704834, 0.005759780295193195, 0.027556177228689194, 0.07990504801273346, 0.04579051584005356, 0.04248335212469101, -0.02573254145681858, -0.008809029124677181, 0.006639528088271618, -0.032185148447752, 0.01696997880935669, -0.04368530213832855, -0.07113409042358398, 0.03126797080039978, 0.020126324146986008, -0.0003386214666534215, 0.04304056242108345, -0.009867925196886063, 0.054790787398815155, -0.03693564608693123, -0.045668210834264755, -0.06530647724866867, -0.04742049425840378, 0.07435843348503113, -0.06812276691198349, 0.05291379615664482, 0.00843394361436367, 0.009165208786725998, 0.012050840072333813, -0.023588160052895546, -0.017930617555975914, -0.017583873122930527, 0.07460583001375198, -0.006747271399945021, -0.06658804416656494, 0.000657271477393806, -0.016885599121451378, -0.03497859090566635, -0.07240346074104309, -0.05100780725479126, 0.0527634397149086, -0.01782609522342682, 0.031166836619377136, 0.007859750650823116, 0.037653110921382904, -0.08331583440303802, 0.03882118687033653, 0.014470775611698627, -0.06090112775564194, -0.012701170518994331, 0.07733913511037827, -0.009477421641349792, 0.08563626557588577, -0.06781630218029022, 0.00563607644289732, 0.00610398268327117, 0.07777781784534454, 0.0055188341066241264, -0.06527835130691528, 0.024715863168239594, 0.02585783787071705, -0.05426859110593796, 0.05748818442225456, 0.06475269794464111, 0.024101536720991135, -0.029119132086634636, -0.04624953493475914, -0.08937297761440277, 0.010201175697147846, -0.0560232475399971, 0.0338607057929039, -0.006468216888606548, -0.02250470221042633, -0.06948290765285492, -0.006195287220180035, -0.013701687566936016, 0.06289006769657135, 0.04327976703643799, 0.08098109811544418, -0.06584233045578003, -0.03313170373439789, -0.08236555755138397, 0.019727211445569992, 0.06860420107841492, -0.07221826910972595, -0.028665408492088318, 0.03322239965200424, 0.07223016768693924, -0.03611873835325241, 0.07888629287481308, 0.013184521347284317, 0.06444885581731796, -0.04273969680070877, -0.022593487054109573, 0.07201939076185226, 0.08110032975673676, 0.08733772486448288, -0.04569624364376068]"
29,"[0.11390028148889542, 0.050347570329904556, 0.18540140986442566, -0.1900661736726761, 0.111432284116745, 0.09654918313026428, 0.16493532061576843, 0.004750242456793785, -0.06876089423894882, -0.005114601459354162, 0.0473201721906662, -0.16247598826885223, -0.03416477516293526, 0.027636907994747162, -0.05730128660798073, -0.018852798268198967, 0.011682756245136261, -0.017524171620607376, -0.07155530154705048, 0.13279616832733154, -0.1101163998246193, 0.017008012160658836, 0.08474083989858627, -0.07932154089212418, 0.06885956972837448, 0.11415234953165054, 0.03699522092938423, 0.047733087092638016, 0.06671418249607086, 0.10985936969518661, -0.3211233615875244, 0.027944739907979965, -0.12204629182815552, -0.07393252104520798, 0.13531075417995453, -0.03169535845518112, 0.2599238455295563, 0.0438343845307827, 0.1368277370929718, 0.10191398859024048, -0.09219420701265335, 0.03881416469812393, -0.09420184046030045, 0.23936256766319275, -0.00013201918045524508, 0.15448835492134094, 0.10536658763885498, 0.0355372428894043, -0.026316635310649872, -0.20714573562145233, -0.12318960577249527, 0.055434372276067734, 0.16225259006023407, 0.04519293084740639, -0.010415544733405113, 0.05891517177224159, 0.03049449808895588, 0.08947745710611343, 0.0750831663608551, 0.12114260345697403, -0.08265942335128784, -0.13254939019680023, -0.19004184007644653, 0.06523328274488449, -0.0458456315100193, 0.016626453027129173, 0.007107306271791458, -0.23993593454360962, 0.16410264372825623, 0.11713974177837372, 0.005375548265874386, 0.036570943892002106, -0.021398894488811493, 0.03166234865784645, -0.03835790976881981, -0.15730352699756622, -0.35060176253318787, -0.15703395009040833, 0.08017949014902115, 0.06333501636981964, 0.0590478740632534, -0.07817130535840988, -0.07338155061006546, -0.07053147256374359, 0.14056460559368134, -0.05432416498661041, 0.04620316997170448, -0.2350059151649475, -0.0064256158657372, -0.0025985296815633774, 0.13216571509838104, 0.045101579278707504, -0.2225765883922577, 0.009269463829696178, -0.10117287188768387, -0.11816979944705963, -0.04751506447792053, 0.0652240440249443, 0.15931950509548187, -0.1596878618001938, -0.24528366327285767, -0.12596961855888367, 0.0927426740527153, -0.21480952203273773, 0.021238042041659355, 0.12781551480293274, -0.00508895656093955, -0.1510869711637497, 0.11707299947738647, -0.12394987046718597, 0.2442513108253479, 0.06122387573122978, 0.048511192202568054, -0.005982626229524612, -0.1878763884305954, 0.0005039252573624253, -0.023960109800100327, 0.05192765220999718, -0.19900356233119965, 0.0684247612953186, -0.01073963101953268, 0.012451381422579288, 0.046869467943906784, 0.06306389719247818, -0.2141832560300827, -0.10803396999835968, -0.10622052103281021, 0.15027320384979248]"
30,"[-0.22027233242988586, 0.04800144210457802, 0.06896936893463135, -0.11361510306596756, 0.05606623739004135, -0.09426259994506836, -0.024084564298391342, -0.05005471408367157, 0.07033608108758926, -0.05961810424923897, -0.027950411662459373, 0.08130459487438202, -0.021992262452840805, -0.04800819233059883, -0.032702744007110596, -0.02471068687736988, 0.06418682634830475, -0.014106718823313713, -0.026977043598890305, 0.04430357739329338, 0.130394846200943, 0.060378335416316986, 0.04460491985082626, 0.040268510580062866, 0.06786701083183289, -0.02626028284430504, -0.12422621995210648, -0.15526896715164185, 0.0020699109882116318, -0.10887894779443741, -0.051010891795158386, 0.058913443237543106, -0.024932313710451126, -0.04099087044596672, 0.03322302922606468, 0.039742667227983475, -0.004290495999157429, -0.008502351120114326, 0.10798466205596924, -0.0048486581072211266, 0.04700194671750069, 0.10527515411376953, -0.015846075490117073, -0.00450466014444828, 0.06407325714826584, 0.04037543758749962, -0.025634383782744408, -0.04260389506816864, 0.056061968207359314, -0.1793879121541977, -0.05093393847346306, 0.13041986525058746, 0.13520358502864838, 0.12442461401224136, -0.0904483050107956, 0.06571473926305771, -0.08147558569908142, 0.06514851748943329, -0.026820575818419456, 0.17308767139911652, -0.1542196124792099, -0.0031418465077877045, 0.11871593445539474, 0.05365152657032013, 0.07041609287261963, -0.09128738194704056, -0.04370507970452309, -0.04360773041844368, -0.06805063784122467, -0.028775136917829514, 0.05588536709547043, -0.08544965088367462, 0.1508845090866089, -0.12175747752189636, 0.03762992471456528, 0.06413454562425613, 0.023073319345712662, -0.0745052918791771, -0.1193275898694992, -0.006141762714833021, 0.07477691024541855, -0.0290952380746603, -0.036655813455581665, -0.055971838533878326, 0.035179685801267624, -0.15715008974075317, -0.04834594577550888, 0.11579988896846771, 0.10768710821866989, -0.024036824703216553, 0.0738195925951004, 0.10769212245941162, 0.02999906614422798, 0.08880619704723358, -0.08496090024709702, 0.06931904703378677, -0.038251589983701706, -0.1267799437046051, -0.004670898895710707, -0.05179361626505852, -0.07342389971017838, -0.055577974766492844, -0.00852680392563343, 0.0711945965886116, -0.06665747612714767, -0.09234236925840378, 0.08120320737361908, 0.13224001228809357, 0.03310587257146835, 0.024552425369620323, 0.050924960523843765, 0.13584011793136597, 0.09271389245986938, -0.21898847818374634, 0.09873973578214645, -0.07052868604660034, 0.09548267722129822, -0.0732908770442009, -0.002484523458406329, -0.04833833500742912, -0.11187530308961868, -0.020990096032619476, 0.08421303331851959, 0.011441013775765896, -0.04143065959215164, 0.09064678102731705, -0.1483343541622162, 0.04859806224703789]"
31,"[-0.030091838911175728, 0.051441386342048645, -0.07129424810409546, -0.0100219352170825, 0.050909291952848434, -0.08593668788671494, 0.01611480489373207, 0.059621937572956085, 0.01462688110768795, -0.05094978213310242, 0.07296144962310791, -0.029124703258275986, -0.05314216390252113, 0.018461881205439568, 0.03409559652209282, -0.04536468908190727, -0.031540606170892715, -0.04620908945798874, -0.0076992809772491455, -0.08552253246307373, 0.06973367184400558, -0.04756611958146095, -0.0030507217161357403, -0.06270955502986908, -0.07479452341794968, -0.05130929872393608, 0.02887825295329094, 0.016090799123048782, 0.001381533220410347, -0.04320331662893295, 0.10267821699380875, 0.07216057926416397, -0.028141556307673454, 0.033863771706819534, 0.02288014255464077, -0.01065909955650568, -0.06226080283522606, 0.021502787247300148, 0.019553298130631447, -0.055058225989341736, 0.08251354098320007, 0.08379940688610077, -0.06919192522764206, 0.042216669768095016, 0.07269488275051117, -0.0492255799472332, 0.029048221185803413, -0.03441861644387245, 0.027348199859261513, 0.030093226581811905, 0.011554349213838577, -0.004422605969011784, -0.06894153356552124, -0.01742382161319256, 0.02834722399711609, 0.05699683353304863, 0.02263527177274227, -0.06818678975105286, 0.007265382446348667, 0.010704397223889828, 0.07734055072069168, 0.10747472941875458, 0.09770447760820389, -0.03345837444067001, -0.062188856303691864, -0.018270574510097504, -0.05340946838259697, 0.08014851063489914, 0.02160540595650673, 0.03183407709002495, 0.09392500668764114, -0.07057945430278778, 0.021527279168367386, -0.017680790275335312, -0.022449243813753128, 0.04855532944202423, 0.05774487927556038, 0.06882625073194504, 0.016996566206216812, -0.06929190456867218, 0.06378191709518433, -0.0051124501042068005, 0.05326324328780174, 0.023313596844673157, -0.04202936217188835, -0.08422069996595383, -0.03708548843860626, 0.06383935362100601, 0.07448135316371918, -0.036402009427547455, 0.02752486802637577, -0.06945189833641052, -0.00446882750838995, 0.015808649361133575, 0.03382385894656181, -0.02104051783680916, -0.08520856499671936, 0.07606544345617294, -0.02612154372036457, -0.015138461254537106, -0.0073665170930325985, -0.022504672408103943, 0.05263276398181915, -0.07395346462726593, 0.003808420617133379, -0.07330021262168884, 0.061868127435445786, 0.060099128633737564, 0.07157642394304276, 0.06965919584035873, -0.09380171447992325, -0.04911866784095764, -0.10331875085830688, 0.0931284949183464, 0.004408393055200577, -0.04147797450423241, 0.04347720369696617, 0.01838325336575508, 0.022354748100042343, 0.05396600067615509, -0.0633392482995987, -0.007825016044080257, 0.10433731973171234, -0.0716477558016777, 0.04692942276597023, 0.008801269344985485, 0.05150469020009041, -0.05890592187643051]"
32,"[-0.06510693579912186, 0.07546126842498779, 0.11009924113750458, 0.23232786357402802, 0.008075426332652569, -0.05089413747191429, -0.14659352600574493, -0.008510512299835682, -0.11356393247842789, -0.11860570311546326, 0.0026561026461422443, -0.05152488499879837, -0.10471060127019882, 0.06413822621107101, 0.07867000997066498, 0.08454518765211105, 0.01311712060123682, 0.06708231568336487, -0.08103132992982864, 0.1128944680094719, 0.28992047905921936, -0.004516635090112686, 0.17700429260730743, 0.09434528648853302, -0.05167185515165329, -0.10706745088100433, -0.16006214916706085, -0.03464848920702934, -0.06118225306272507, -0.18801631033420563, 0.27026495337486267, 0.3205212950706482, 0.17407943308353424, 0.05761950835585594, 0.03868110477924347, -0.07928560674190521, -0.07580157369375229, -0.06015925854444504, -0.09995570778846741, -0.025370903313159943, 0.11636346578598022, 0.10658498108386993, -0.0019141787197440863, -0.06669417768716812, -0.11459159106016159, 0.13187243044376373, 0.14720243215560913, -0.03021441400051117, -0.06311395764350891, 0.07010764628648758, -0.008877433836460114, 0.1018545851111412, 0.06550769507884979, -0.14062249660491943, -0.13437755405902863, -0.13638843595981598, -0.036286331713199615, 0.01103928405791521, -0.08304699510335922, 0.058768872171640396, -0.005118360742926598, 0.017907798290252686, 0.053187254816293716, 0.15194053947925568, 0.0595984049141407, -0.0671815499663353, -0.005049770697951317, 0.14852465689182281, 0.0012947310460731387, 0.09562816470861435, 0.1271822601556778, -0.15427106618881226, 0.18211530148983002, -0.024420231580734253, -0.0268067829310894, -0.10510177165269852, 0.05119509994983673, 0.1454475075006485, 0.17057223618030548, -0.15600048005580902, 0.05100640654563904, 0.005220117513090372, -0.05308020859956741, 0.07525373250246048, -0.10779743641614914, 0.11540710180997849, 0.11748617887496948, 0.2727232873439789, -0.07132507115602493, 0.017373813316226006, 0.1246335357427597, 0.1226876974105835, -0.034536875784397125, -0.028360465541481972, 0.0741276741027832, -0.017708437517285347, 0.16631260514259338, 0.03854300081729889, -0.02777722291648388, 0.0015158267924562097, 0.09464552253484726, 0.1611182987689972, -0.04976169764995575, 0.19220870733261108, -0.16441121697425842, 0.0285994540899992, -0.0704476460814476, 0.18955661356449127, 0.0835278183221817, 0.1559026539325714, -0.0487862229347229, 0.04536999389529228, -0.04905080422759056, -0.04450923949480057, 0.1682974100112915, -0.004505275283008814, -0.12006965279579163, -0.051554907113313675, 0.0978122428059578, -0.01672101393342018, 0.010249719023704529, 0.012550218030810356, 0.13118907809257507, -0.18555216491222382, 0.027438964694738388, -0.025352133437991142, 0.029593054205179214, 0.1013040617108345]"
33,"[0.026218438521027565, 0.07784786820411682, -0.1254415214061737, 0.16435831785202026, -0.03211990371346474, 0.15815681219100952, -0.13298185169696808, -0.06186122074723244, 0.127314031124115, -0.22968390583992004, -0.25883352756500244, -0.20156964659690857, 0.08451392501592636, 0.08308637887239456, 0.13058555126190186, 0.06365294754505157, 0.2064962238073349, -0.16545559465885162, 0.05058769881725311, 0.21307894587516785, 0.051301874220371246, -0.1032857671380043, 0.02422376535832882, 0.008357958868145943, 0.04124370589852333, 0.2765657901763916, 0.19626635313034058, -0.16318969428539276, -0.2659762501716614, -0.040260180830955505, 0.16945797204971313, 0.08891960233449936, 0.05413694679737091, -0.33241936564445496, 0.05766388028860092, 0.08269945532083511, -0.08591192960739136, 0.013759836554527283, 0.152445986866951, 0.13523541390895844, -0.1587836593389511, 0.20491215586662292, 0.24122241139411926, 0.00819363258779049, 0.21345464885234833, 0.00679793581366539, -0.03432079404592514, 0.08399750292301178, 0.09860578179359436, 0.011194824241101742, 0.01595805026590824, -0.15783901512622833, 0.18886923789978027, 0.16687673330307007, -0.39866024255752563, -0.07781969755887985, 0.07761131227016449, 0.0869629979133606, 0.1072976142168045, 0.15381665527820587, 0.15924440324306488, -0.2771659791469574, 0.05160706117749214, -0.09576506167650223, 0.0767829641699791, -0.021669762209057808, 0.17086322605609894, 0.251117467880249, -0.08460168540477753, -0.002674100222066045, -0.07582871615886688, 0.15483029186725616, -0.27774810791015625, 0.1551547348499298, 0.0809287503361702, -0.17286713421344757, 0.02770518884062767, -0.022742491215467453, -0.012931597419083118, 0.04162600263953209, 0.08058906346559525, -0.004359088838100433, -0.03568806126713753, 0.03567785397171974, -0.23096729815006256, 0.17788690328598022, 0.017726020887494087, -0.19663619995117188, 0.07683131098747253, 0.2157883495092392, 0.022617097944021225, -0.28510919213294983, 0.06925245374441147, -0.1093570739030838, 0.04820490628480911, -0.046130407601594925, 0.0698869377374649, 0.08619347214698792, 0.0028068511746823788, 0.10702662169933319, -0.03021298348903656, -0.04647443816065788, -0.10784697532653809, -0.2742035686969757, 0.20162075757980347, 0.17943347990512848, -0.05421314388513565, -0.010880223475396633, -0.0066037424840033054, -0.11139970272779465, 0.06273993104696274, -0.07382433116436005, -0.02472769282758236, -0.028082003816962242, -0.1731829196214676, 0.00025867571821436286, -0.03134889900684357, -0.08591016381978989, 0.1497802883386612, 0.14399059116840363, 0.02655145525932312, -0.02759406715631485, 0.12197239696979523, 0.027313154190778732, -0.21085421741008759, -0.17058038711547852, 0.052919402718544006, 0.06935185939073563]"
34,"[0.12860870361328125, 0.010130754671990871, 0.007420063484460115, -0.017673302441835403, -0.0873580127954483, 0.1487317830324173, -0.05235382914543152, 0.013537646271288395, -0.09471598267555237, -0.024552177637815475, -0.030512316152453423, 0.030054278671741486, -0.037400346249341965, -0.003676839405670762, 0.011379209347069263, -0.05170062556862831, -0.040092915296554565, -0.09162760525941849, -0.05169046297669411, -0.012221216224133968, -0.014030128717422485, 0.0760674923658371, 0.14936509728431702, -0.0597674623131752, 0.07429508119821548, 0.031235866248607635, -0.05096229165792465, -0.007355208974331617, 0.1642988622188568, 0.038316916674375534, 0.13674584031105042, -0.15012936294078827, -0.005343985743820667, 0.07964471727609634, 0.10304322093725204, 0.013217506930232048, 0.17133338749408722, 0.03177328407764435, 0.023650094866752625, -0.07132555544376373, 0.1430598497390747, 0.0054183765314519405, -0.04757481813430786, 0.014238632284104824, -0.005156657192856073, -0.09155292809009552, -0.020955704152584076, -0.0794355645775795, 0.035530079156160355, 0.05676351487636566, -0.15158262848854065, 0.05307478830218315, 0.07635364681482315, -0.07977771759033203, 0.1852976530790329, -0.11735299974679947, -0.029538076370954514, -0.04462643712759018, -0.09786631166934967, 0.01215975359082222, 0.06544692814350128, -0.004248552955687046, 0.00808686576783657, 0.08503933250904083, 0.06632231920957565, 0.04216642305254936, 0.00985234696418047, -0.015703000128269196, 0.10472827404737473, -0.13346579670906067, 0.15359404683113098, -0.06493651866912842, 0.11376774311065674, 0.08117493242025375, 0.01726745255291462, -0.07725483179092407, -0.07382388412952423, 0.14583195745944977, 0.08866364508867264, -0.08578389137983322, 0.00724969245493412, -0.0526091568171978, 0.036446474492549896, 0.03356208652257919, 0.1768433004617691, -0.0717417523264885, 0.057952795177698135, 0.07039163261651993, 0.04456987977027893, 0.07357624918222427, 0.04791213572025299, 0.08654652535915375, 0.14366543292999268, 0.019477995112538338, 0.07060326635837555, -0.08970450609922409, -0.027342598885297775, 0.018636291846632957, 0.010704802349209785, 0.0952318012714386, -0.09623468667268753, -0.15735267102718353, 0.07029438018798828, 0.06006582826375961, -0.08191795647144318, -0.025709720328450203, 0.04338455572724342, -0.08273740857839584, 0.0592973418533802, -0.0637325868010521, -0.04967699944972992, -0.10877329111099243, 0.01970989815890789, 0.1862645298242569, 0.0285821370780468, -0.08288663625717163, 0.1559082567691803, 0.0005344541277736425, -0.12497968971729279, -0.18452486395835876, -0.14740429818630219, -0.04369664192199707, -0.009295355528593063, -0.08681028336286545, -0.07228879630565643, 0.03478819876909256, -0.05542666092514992, 0.0535225085914135]"
35,"[-0.09446090459823608, 0.10015283524990082, 0.0681675374507904, 0.298764169216156, -0.17252086102962494, 0.17641831934452057, -0.10063595324754715, 0.05289553478360176, -0.06506883352994919, -0.13919652998447418, 0.12833689153194427, -0.024609139189124107, -0.19105015695095062, 0.020460108295083046, 0.003801392624154687, 0.2836194336414337, -0.10958845913410187, -0.10767354816198349, -0.040841810405254364, 0.006395888049155474, 0.30985134840011597, -0.13981357216835022, 0.15515148639678955, -0.07778298109769821, -0.023900501430034637, 0.19725781679153442, -0.08321689069271088, 0.019512424245476723, 0.24547246098518372, -0.03844481706619263, 0.35119572281837463, 0.4155881106853485, 0.06686282157897949, -0.0024532785173505545, -0.021230293437838554, 0.03979465737938881, -0.20337343215942383, -0.03504006937146187, -0.2700346112251282, -0.13522310554981232, 0.1453498899936676, 0.08753841370344162, -0.05762787163257599, -0.16520993411540985, -0.026670129969716072, 0.12801821529865265, 0.07703398168087006, -0.02889968454837799, 0.06828068196773529, 0.055724240839481354, -0.0676998421549797, -0.06558454781770706, 0.052818454802036285, -0.013040649704635143, 0.16043245792388916, -0.15966452658176422, -0.06150141730904579, -0.052434083074331284, 0.11380521208047867, -0.08830364793539047, 0.04349324479699135, 0.05081964284181595, 0.1250147521495819, 0.17197537422180176, -0.17007610201835632, -0.08165708184242249, 0.08696602284908295, 0.07238452881574631, 0.03781859949231148, -0.10738228261470795, 0.2168903946876526, 0.038950975984334946, 0.15042535960674286, 0.16634684801101685, 0.20252244174480438, 0.011735787615180016, 0.01162604708224535, 0.3279098868370056, 0.24831506609916687, -0.2565810978412628, -0.07887983322143555, -0.07510553300380707, -0.07318973541259766, 0.01760687120258808, 0.20521396398544312, 0.17407815158367157, 0.14600999653339386, 0.22621680796146393, -0.07856175303459167, 0.04648508131504059, -0.09077911823987961, 0.11571779102087021, 0.2018965631723404, -0.09600340574979782, 0.09852354973554611, 0.22385556995868683, 0.3671979010105133, 0.0009336236980743706, -0.1544477343559265, 0.0683482363820076, 0.15565501153469086, -0.03987184911966324, -0.06309166550636292, 0.1566811352968216, -0.008169839158654213, 0.07011796534061432, 0.028877507895231247, 0.19062545895576477, 0.022939113900065422, 0.15921849012374878, -0.2623547613620758, -0.028505202382802963, 0.04027313366532326, 0.09347904473543167, 0.2035166472196579, 0.05654527619481087, -0.13972339034080505, -0.08226337283849716, 0.1461150050163269, -0.04757869988679886, 0.08892993628978729, 0.08671217411756516, 0.06635867804288864, -0.10897982865571976, 0.02025795355439186, -0.05297069251537323, -0.17104166746139526, -0.008923090063035488]"
